{"learner":{"attributes":{},"feature_names":[],"feature_types":[],"gradient_booster":{"model":{"cats":{"enc":[],"feature_segments":[],"sorted_idx":[]},"gbtree_model_param":{"num_parallel_tree":"1","num_trees":"2000"},"iteration_indptr":[0,4,8,12,16,20,24,28,32,36,40,44,48,52,56,60,64,68,72,76,80,84,88,92,96,100,104,108,112,116,120,124,128,132,136,140,144,148,152,156,160,164,168,172,176,180,184,188,192,196,200,204,208,212,216,220,224,228,232,236,240,244,248,252,256,260,264,268,272,276,280,284,288,292,296,300,304,308,312,316,320,324,328,332,336,340,344,348,352,356,360,364,368,372,376,380,384,388,392,396,400,404,408,412,416,420,424,428,432,436,440,444,448,452,456,460,464,468,472,476,480,484,488,492,496,500,504,508,512,516,520,524,528,532,536,540,544,548,552,556,560,564,568,572,576,580,584,588,592,596,600,604,608,612,616,620,624,628,632,636,640,644,648,652,656,660,664,668,672,676,680,684,688,692,696,700,704,708,712,716,720,724,728,732,736,740,744,748,752,756,760,764,768,772,776,780,784,788,792,796,800,804,808,812,816,820,824,828,832,836,840,844,848,852,856,860,864,868,872,876,880,884,888,892,896,900,904,908,912,916,920,924,928,932,936,940,944,948,952,956,960,964,968,972,976,980,984,988,992,996,1000,1004,1008,1012,1016,1020,1024,1028,1032,1036,1040,1044,1048,1052,1056,1060,1064,1068,1072,1076,1080,1084,1088,1092,1096,1100,1104,1108,1112,1116,1120,1124,1128,1132,1136,1140,1144,1148,1152,1156,1160,1164,1168,1172,1176,1180,1184,1188,1192,1196,1200,1204,1208,1212,1216,1220,1224,1228,1232,1236,1240,1244,1248,1252,1256,1260,1264,1268,1272,1276,1280,1284,1288,1292,1296,1300,1304,1308,1312,1316,1320,1324,1328,1332,1336,1340,1344,1348,1352,1356,1360,1364,1368,1372,1376,1380,1384,1388,1392,1396,1400,1404,1408,1412,1416,1420,1424,1428,1432,1436,1440,1444,1448,1452,1456,1460,1464,1468,1472,1476,1480,1484,1488,1492,1496,1500,1504,1508,1512,1516,1520,1524,1528,1532,1536,1540,1544,1548,1552,1556,1560,1564,1568,1572,1576,1580,1584,1588,1592,1596,1600,1604,1608,1612,1616,1620,1624,1628,1632,1636,1640,1644,1648,1652,1656,1660,1664,1668,1672,1676,1680,1684,1688,1692,1696,1700,1704,1708,1712,1716,1720,1724,1728,1732,1736,1740,1744,1748,1752,1756,1760,1764,1768,1772,1776,1780,1784,1788,1792,1796,1800,1804,1808,1812,1816,1820,1824,1828,1832,1836,1840,1844,1848,1852,1856,1860,1864,1868,1872,1876,1880,1884,1888,1892,1896,1900,1904,1908,1912,1916,1920,1924,1928,1932,1936,1940,1944,1948,1952,1956,1960,1964,1968,1972,1976,1980,1984,1988,1992,1996,2000],"tree_info":[0,1,2,3,0,1,2,3,0,1,2,3,0,1,2,3,0,1,2,3,0,1,2,3,0,1,2,3,0,1,2,3,0,1,2,3,0,1,2,3,0,1,2,3,0,1,2,3,0,1,2,3,0,1,2,3,0,1,2,3,0,1,2,3,0,1,2,3,0,1,2,3,0,1,2,3,0,1,2,3,0,1,2,3,0,1,2,3,0,1,2,3,0,1,2,3,0,1,2,3,0,1,2,3,0,1,2,3,0,1,2,3,0,1,2,3,0,1,2,3,0,1,2,3,0,1,2,3,0,1,2,3,0,1,2,3,0,1,2,3,0,1,2,3,0,1,2,3,0,1,2,3,0,1,2,3,0,1,2,3,0,1,2,3,0,1,2,3,0,1,2,3,0,1,2,3,0,1,2,3,0,1,2,3,0,1,2,3,0,1,2,3,0,1,2,3,0,1,2,3,0,1,2,3,0,1,2,3,0,1,2,3,0,1,2,3,0,1,2,3,0,1,2,3,0,1,2,3,0,1,2,3,0,1,2,3,0,1,2,3,0,1,2,3,0,1,2,3,0,1,2,3,0,1,2,3,0,1,2,3,0,1,2,3,0,1,2,3,0,1,2,3,0,1,2,3,0,1,2,3,0,1,2,3,0,1,2,3,0,1,2,3,0,1,2,3,0,1,2,3,0,1,2,3,0,1,2,3,0,1,2,3,0,1,2,3,0,1,2,3,0,1,2,3,0,1,2,3,0,1,2,3,0,1,2,3,0,1,2,3,0,1,2,3,0,1,2,3,0,1,2,3,0,1,2,3,0,1,2,3,0,1,2,3,0,1,2,3,0,1,2,3,0,1,2,3,0,1,2,3,0,1,2,3,0,1,2,3,0,1,2,3,0,1,2,3,0,1,2,3,0,1,2,3,0,1,2,3,0,1,2,3,0,1,2,3,0,1,2,3,0,1,2,3,0,1,2,3,0,1,2,3,0,1,2,3,0,1,2,3,0,1,2,3,0,1,2,3,0,1,2,3,0,1,2,3,0,1,2,3,0,1,2,3,0,1,2,3,0,1,2,3,0,1,2,3,0,1,2,3,0,1,2,3,0,1,2,3,0,1,2,3,0,1,2,3,0,1,2,3,0,1,2,3,0,1,2,3,0,1,2,3,0,1,2,3,0,1,2,3,0,1,2,3,0,1,2,3,0,1,2,3,0,1,2,3,0,1,2,3,0,1,2,3,0,1,2,3,0,1,2,3,0,1,2,3,0,1,2,3,0,1,2,3,0,1,2,3,0,1,2,3,0,1,2,3,0,1,2,3,0,1,2,3,0,1,2,3,0,1,2,3,0,1,2,3,0,1,2,3,0,1,2,3,0,1,2,3,0,1,2,3,0,1,2,3,0,1,2,3,0,1,2,3,0,1,2,3,0,1,2,3,0,1,2,3,0,1,2,3,0,1,2,3,0,1,2,3,0,1,2,3,0,1,2,3,0,1,2,3,0,1,2,3,0,1,2,3,0,1,2,3,0,1,2,3,0,1,2,3,0,1,2,3,0,1,2,3,0,1,2,3,0,1,2,3,0,1,2,3,0,1,2,3,0,1,2,3,0,1,2,3,0,1,2,3,0,1,2,3,0,1,2,3,0,1,2,3,0,1,2,3,0,1,2,3,0,1,2,3,0,1,2,3,0,1,2,3,0,1,2,3,0,1,2,3,0,1,2,3,0,1,2,3,0,1,2,3,0,1,2,3,0,1,2,3,0,1,2,3,0,1,2,3,0,1,2,3,0,1,2,3,0,1,2,3,0,1,2,3,0,1,2,3,0,1,2,3,0,1,2,3,0,1,2,3,0,1,2,3,0,1,2,3,0,1,2,3,0,1,2,3,0,1,2,3,0,1,2,3,0,1,2,3,0,1,2,3,0,1,2,3,0,1,2,3,0,1,2,3,0,1,2,3,0,1,2,3,0,1,2,3,0,1,2,3,0,1,2,3,0,1,2,3,0,1,2,3,0,1,2,3,0,1,2,3,0,1,2,3,0,1,2,3,0,1,2,3,0,1,2,3,0,1,2,3,0,1,2,3,0,1,2,3,0,1,2,3,0,1,2,3,0,1,2,3,0,1,2,3,0,1,2,3,0,1,2,3,0,1,2,3,0,1,2,3,0,1,2,3,0,1,2,3,0,1,2,3,0,1,2,3,0,1,2,3,0,1,2,3,0,1,2,3,0,1,2,3,0,1,2,3,0,1,2,3,0,1,2,3,0,1,2,3,0,1,2,3,0,1,2,3,0,1,2,3,0,1,2,3,0,1,2,3,0,1,2,3,0,1,2,3,0,1,2,3,0,1,2,3,0,1,2,3,0,1,2,3,0,1,2,3,0,1,2,3,0,1,2,3,0,1,2,3,0,1,2,3,0,1,2,3,0,1,2,3,0,1,2,3,0,1,2,3,0,1,2,3,0,1,2,3,0,1,2,3,0,1,2,3,0,1,2,3,0,1,2,3,0,1,2,3,0,1,2,3,0,1,2,3,0,1,2,3,0,1,2,3,0,1,2,3,0,1,2,3,0,1,2,3,0,1,2,3,0,1,2,3,0,1,2,3,0,1,2,3,0,1,2,3,0,1,2,3,0,1,2,3,0,1,2,3,0,1,2,3,0,1,2,3,0,1,2,3,0,1,2,3,0,1,2,3,0,1,2,3,0,1,2,3,0,1,2,3,0,1,2,3,0,1,2,3,0,1,2,3,0,1,2,3,0,1,2,3,0,1,2,3,0,1,2,3,0,1,2,3,0,1,2,3,0,1,2,3,0,1,2,3,0,1,2,3,0,1,2,3,0,1,2,3,0,1,2,3,0,1,2,3,0,1,2,3,0,1,2,3,0,1,2,3,0,1,2,3,0,1,2,3,0,1,2,3,0,1,2,3,0,1,2,3,0,1,2,3,0,1,2,3,0,1,2,3,0,1,2,3,0,1,2,3,0,1,2,3,0,1,2,3,0,1,2,3,0,1,2,3,0,1,2,3,0,1,2,3,0,1,2,3,0,1,2,3,0,1,2,3,0,1,2,3,0,1,2,3,0,1,2,3,0,1,2,3,0,1,2,3,0,1,2,3,0,1,2,3,0,1,2,3,0,1,2,3,0,1,2,3,0,1,2,3,0,1,2,3,0,1,2,3,0,1,2,3,0,1,2,3,0,1,2,3,0,1,2,3,0,1,2,3,0,1,2,3,0,1,2,3,0,1,2,3,0,1,2,3,0,1,2,3,0,1,2,3,0,1,2,3,0,1,2,3,0,1,2,3,0,1,2,3,0,1,2,3,0,1,2,3,0,1,2,3,0,1,2,3,0,1,2,3,0,1,2,3,0,1,2,3,0,1,2,3,0,1,2,3,0,1,2,3,0,1,2,3,0,1,2,3,0,1,2,3,0,1,2,3,0,1,2,3,0,1,2,3,0,1,2,3,0,1,2,3,0,1,2,3,0,1,2,3,0,1,2,3,0,1,2,3,0,1,2,3,0,1,2,3,0,1,2,3,0,1,2,3,0,1,2,3,0,1,2,3,0,1,2,3,0,1,2,3,0,1,2,3,0,1,2,3,0,1,2,3,0,1,2,3,0,1,2,3,0,1,2,3,0,1,2,3,0,1,2,3,0,1,2,3,0,1,2,3,0,1,2,3,0,1,2,3,0,1,2,3,0,1,2,3,0,1,2,3,0,1,2,3,0,1,2,3,0,1,2,3,0,1,2,3,0,1,2,3,0,1,2,3,0,1,2,3,0,1,2,3,0,1,2,3,0,1,2,3,0,1,2,3,0,1,2,3,0,1,2,3,0,1,2,3,0,1,2,3,0,1,2,3,0,1,2,3,0,1,2,3,0,1,2,3,0,1,2,3,0,1,2,3,0,1,2,3,0,1,2,3,0,1,2,3,0,1,2,3,0,1,2,3,0,1,2,3,0,1,2,3,0,1,2,3,0,1,2,3,0,1,2,3,0,1,2,3,0,1,2,3,0,1,2,3,0,1,2,3,0,1,2,3,0,1,2,3,0,1,2,3,0,1,2,3,0,1,2,3,0,1,2,3,0,1,2,3,0,1,2,3,0,1,2,3,0,1,2,3,0,1,2,3,0,1,2,3,0,1,2,3,0,1,2,3,0,1,2,3,0,1,2,3,0,1,2,3,0,1,2,3,0,1,2,3,0,1,2,3,0,1,2,3,0,1,2,3,0,1,2,3,0,1,2,3,0,1,2,3,0,1,2,3,0,1,2,3,0,1,2,3,0,1,2,3,0,1,2,3,0,1,2,3,0,1,2,3,0,1,2,3,0,1,2,3,0,1,2,3,0,1,2,3,0,1,2,3,0,1,2,3,0,1,2,3,0,1,2,3,0,1,2,3,0,1,2,3,0,1,2,3,0,1,2,3,0,1,2,3,0,1,2,3,0,1,2,3,0,1,2,3,0,1,2,3,0,1,2,3,0,1,2,3,0,1,2,3,0,1,2,3],"trees":[{"base_weights":[-9.309873E-2,-2.721777E-1,9.952587E-1,-3.22866E-2,-1.2935968E-1,1.3690203E-2,1.2004298E0,-2.9309613E-1,2.615335E-1,7.500205E-2,3.1630635E-2,1.6725771E-2,-3.6131072E-1,6.0749736E-2,-1.3577068E-1,-4.5421585E-1,-7.6157145E-2,1.633097E-2,-4.1990834E-1,5.0535164E-5,-5.756352E-1,-2.9249638E-2,2.335648E-2,-2.8893063E-2,-6.0508624E-3,-1.4984121E-2,-3.2029625E-2],"categories":[],"categories_nodes":[],"categories_segments":[],"categories_sizes":[],"default_left":[0,0,0,0,0,0,0,0,0,0,0,0,0,0,0,0,0,0,0,0,0,0,0,0,0,0,0],"id":0,"left_children":[1,3,5,-1,7,-1,9,11,13,-1,-1,-1,15,-1,17,19,21,-1,23,-1,25,-1,-1,-1,-1,-1,-1],"loss_changes":[3.0420452E1,6.9888077E0,2.7870178E0,0E0,6.3774233E0,0E0,1.6891365E0,3.1203513E0,1.1408524E1,0E0,0E0,0E0,1.6015415E0,0E0,2.9810772E0,2.690506E0,5.0218463E0,0E0,5.1805615E-1,0E0,3.9108658E-1,0E0,0E0,0E0,0E0,0E0,0E0],"parents":[2147483647,0,0,1,1,2,2,4,4,6,6,7,7,8,8,12,12,14,14,15,15,16,16,18,18,20,20],"right_children":[2,4,6,-1,8,-1,10,12,14,-1,-1,-1,16,-1,18,20,22,-1,24,-1,26,-1,-1,-1,-1,-1,-1],"split_conditions":[6.72956E-1,4.840909E-1,7.965645E-2,-3.22866E-2,2.3448491E-1,1.3690203E-2,2.4767403E-1,2.95E2,3.79362E-1,7.500205E-2,3.1630635E-2,1.6725771E-2,1.08050846E-1,6.0749736E-2,5.87E2,3.5E2,4.1E2,1.633097E-2,3.942215E-1,5.0535164E-5,5.8333334E-2,-2.9249638E-2,2.335648E-2,-2.8893063E-2,-6.0508624E-3,-1.4984121E-2,-3.2029625E-2],"split_indices":[13,14,1,0,8,0,6,0,8,0,0,0,5,0,0,0,0,0,4,0,5,0,0,0,0,0,0],"split_type":[0,0,0,0,0,0,0,0,0,0,0,0,0,0,0,0,0,0,0,0,0,0,0,0,0,0,0],"sum_hessian":[1.5406197E2,1.3301706E2,2.1044903E1,3.56222E1,9.739487E1,5.284531E0,1.5760372E1,6.899881E1,2.8396055E1,9.126733E0,6.63364E0,6.2377996E0,6.276101E1,7.820885E0,2.0575169E1,4.6626263E1,1.6134748E1,7.6403036E0,1.2934866E1,9.853081E0,3.6773182E1,8.386942E0,7.7478065E0,7.633122E0,5.3017435E0,8.36973E0,2.8403452E1],"tree_param":{"num_deleted":"0","num_feature":"17","num_nodes":"27","size_leaf_vector":"1"}},{"base_weights":[4.9736388E-2,1.158513E0,-2.693312E-1,1.3855996E0,5.8669243E-3,1.434437E-1,-4.2133448E-1,8.5535385E-2,7.4900466E-1,4.451726E-2,-1.8960227E-1,-5.8012766E-1,1.4629447E-1,1.2890262E-2,5.5273708E-2,-3.1064156E-2,4.163858E-2,-4.246006E-1,-3.2477275E-2,-2.9864306E-2,4.9968194E-2,-3.134809E-2,1.3742256E-2],"categories":[],"categories_nodes":[],"categories_segments":[],"categories_sizes":[],"default_left":[0,0,0,0,0,0,0,0,0,0,0,0,0,0,0,0,0,0,0,0,0,0,0],"id":1,"left_children":[1,3,5,7,-1,9,11,-1,13,-1,15,17,19,-1,-1,-1,-1,21,-1,-1,-1,-1,-1],"loss_changes":[5.3880093E1,7.735111E0,7.4999876E0,4.220566E0,0E0,8.288979E0,7.949025E0,0E0,1.55228E0,0E0,1.0697171E1,3.5243797E-1,1.308756E1,0E0,0E0,0E0,0E0,3.655424E0,0E0,0E0,0E0,0E0,0E0],"parents":[2147483647,0,0,1,1,2,2,3,3,5,5,6,6,8,8,10,10,11,11,12,12,17,17],"right_children":[2,4,6,8,-1,10,12,-1,14,-1,16,18,20,-1,-1,-1,-1,22,-1,-1,-1,-1,-1],"split_conditions":[4.7058824E-1,7.87037E-2,1.0178117E-1,5.23E2,5.8669243E-3,2.475581E-2,2.1478917E-1,8.5535385E-2,3.2327056E-1,4.451726E-2,5.87E2,4.011098E-1,4.2324758E-1,1.2890262E-2,5.5273708E-2,-3.1064156E-2,4.163858E-2,-6.892006E-1,-3.2477275E-2,-2.9864306E-2,4.9968194E-2,-3.134809E-2,1.3742256E-2],"split_indices":[14,10,10,0,0,1,8,0,4,0,0,4,4,0,0,0,0,8,0,0,0,0,0],"split_type":[0,0,0,0,0,0,0,0,0,0,0,0,0,0,0,0,0,0,0,0,0,0,0],"sum_hessian":[1.5016727E2,3.3038662E1,1.171286E2,2.6772552E1,6.26611E0,3.136185E1,8.576675E1,1.6501102E1,1.027145E1,9.248263E0,2.2113586E1,6.713891E1,1.8627838E1,5.1620774E0,5.109372E0,1.5893105E1,6.2204823E0,2.3359755E1,4.3779156E1,1.0050181E1,8.577656E0,1.8309202E1,5.0505533E0],"tree_param":{"num_deleted":"0","num_feature":"17","num_nodes":"23","size_leaf_vector":"1"}},{"base_weights":[2.4428675E-2,-3.087647E-1,1.9573778E-1,-1.430976E-1,-4.9427906E-1,3.5925075E-1,-6.870844E-2,-4.094411E-1,3.119683E-2,-7.982167E-3,-2.990446E-2,8.3618987E-1,1.7064682E-1,-3.417315E-1,1.17140785E-1,-2.5934596E-2,-3.5539565E-3,5.8377292E-2,1.5377842E-2,5.8234558E-2,3.681823E-2,-7.892183E-3,-2.1377848E-2,2.7759373E-2,-1.1382352E-1,-1.480327E-1,4.9110827E-1,5.20541E-3,-1.820772E-2,-3.937303E-1,1.217882E-1,-1.7050066E-3,5.2451994E-2,-2.385424E-2,-1.158313E-2,-1.8186776E-2,2.5828345E-2],"categories":[],"categories_nodes":[],"categories_segments":[],"categories_sizes":[],"default_left":[0,0,0,0,0,0,0,0,0,0,0,0,0,0,0,0,0,0,0,0,0,0,0,0,0,0,0,0,0,0,0,0,0,0,0,0,0],"id":2,"left_children":[1,3,5,7,9,11,13,15,-1,-1,-1,17,19,21,23,-1,-1,-1,-1,25,-1,-1,-1,-1,27,29,31,-1,-1,33,35,-1,-1,-1,-1,-1,-1],"loss_changes":[8.496837E0,1.4158816E0,4.3153076E0,6.023735E0,6.3137007E-1,5.270168E0,2.0039167E0,7.0766234E-1,0E0,0E0,0E0,2.4647427E0,2.7604122E0,1.2600887E-1,2.463838E0,0E0,0E0,0E0,0E0,3.5936737E0,0E0,0E0,0E0,0E0,9.330393E-1,1.8690282E0,3.9438624E0,0E0,0E0,1.5740633E-2,2.7843304E0,0E0,0E0,0E0,0E0,0E0,0E0],"parents":[2147483647,0,0,1,1,2,2,3,3,4,4,5,5,6,6,7,7,11,11,12,12,13,13,14,14,19,19,24,24,25,25,26,26,29,29,30,30],"right_children":[2,4,6,8,10,12,14,16,-1,-1,-1,18,20,22,24,-1,-1,-1,-1,26,-1,-1,-1,-1,28,30,32,-1,-1,34,36,-1,-1,-1,-1,-1,-1],"split_conditions":[3.4831122E-1,4.4741648E-1,8.6193293E-1,1.0942249E-1,1.2314225E-1,8.219178E-2,8.2535887E-1,3.3031163E-1,3.119683E-2,-7.982167E-3,-2.990446E-2,9.575E-1,5.1E2,1.21212125E-1,6.3352275E-1,-2.5934596E-2,-3.5539565E-3,5.8377292E-2,1.5377842E-2,7.1464646E-1,3.681823E-2,-7.892183E-3,-2.1377848E-2,2.7759373E-2,2.929293E-1,6.372584E-1,1.1198738E-1,5.20541E-3,-1.820772E-2,8.855634E-1,3.784985E-1,-1.7050066E-3,5.2451994E-2,-2.385424E-2,-1.158313E-2,-1.8186776E-2,2.5828345E-2],"split_indices":[4,6,3,5,5,5,14,4,0,0,0,11,0,12,13,0,0,0,0,14,0,0,0,0,11,7,10,0,0,2,4,0,0,0,0,0,0],"split_type":[0,0,0,0,0,0,0,0,0,0,0,0,0,0,0,0,0,0,0,0,0,0,0,0,0,0,0,0,0,0,0,0,0,0,0,0,0],"sum_hessian":[1.4700005E2,4.9444733E1,9.7555305E1,2.7340052E1,2.2104681E1,6.02939E1,3.726141E1,2.0736221E1,6.6038313E0,6.0626497E0,1.604203E1,1.5963026E1,4.433087E1,1.4969573E1,2.2291836E1,1.5048764E1,5.6874566E0,8.953219E0,7.0098066E0,3.8049805E1,6.2810693E0,6.0376697E0,8.931903E0,7.360709E0,1.4931127E1,2.6059355E1,1.199045E1,8.080817E0,6.8503094E0,1.3593012E1,1.2466343E1,6.567648E0,5.422802E0,7.285286E0,6.307726E0,5.512298E0,6.9540443E0],"tree_param":{"num_deleted":"0","num_feature":"17","num_nodes":"37","size_leaf_vector":"1"}},{"base_weights":[8.807395E-3,1.905282E-1,-5.534544E-1,-1.0894504E-1,4.2160347E-1,-3.2030523E-2,-1.0528326E-2,-2.970566E-1,4.7863416E-2,6.2627506E-1,-5.8907457E-3,1.6408104E-2,-4.167734E-1,-1.7427549E-1,8.993475E-1,2.6941037E-2,-2.8147888E-1,9.544838E-3,-5.346105E-1,8.110172E-3,-2.7169067E-2,6.0020633E-2,6.132986E-1,1.49846E-2,-2.9728208E-2,-3.17375E-2,-1.0546935E-2,1.7441374E-1,5.2497495E-2,1.5022317E-2,2.1110897E-4],"categories":[],"categories_nodes":[],"categories_segments":[],"categories_sizes":[],"default_left":[0,0,0,0,0,0,0,0,0,0,0,0,0,0,0,0,0,0,0,0,0,0,0,0,0,0,0,0,0,0,0],"id":3,"left_children":[1,3,5,7,9,-1,-1,11,-1,13,15,-1,17,19,21,-1,23,-1,25,-1,-1,-1,27,-1,-1,-1,-1,29,-1,-1,-1],"loss_changes":[1.5833971E1,8.207224E0,9.0988445E-1,1.0602781E1,5.9024982E0,0E0,0E0,3.50288E0,0E0,1.0127537E1,3.4930937E0,0E0,2.8732114E0,1.649029E0,2.0119972E0,0E0,3.0595493E0,0E0,8.3212566E-1,0E0,0E0,0E0,3.4618397E0,0E0,0E0,0E0,0E0,2.0673662E-1,0E0,0E0,0E0],"parents":[2147483647,0,0,1,1,2,2,3,3,4,4,7,7,9,9,10,10,12,12,13,13,14,14,16,16,18,18,22,22,27,27],"right_children":[2,4,6,8,10,-1,-1,12,-1,14,16,-1,18,20,22,-1,24,-1,26,-1,-1,-1,28,-1,-1,-1,-1,30,-1,-1,-1],"split_conditions":[5.638554E-1,8.863636E-2,7.600184E-1,-1.3786896E-1,3.233412E-2,-3.2030523E-2,-1.0528326E-2,3.75E-1,4.7863416E-2,3.52E2,5.604229E-1,1.6408104E-2,4.32E2,-9.7126895E-1,8.301887E-1,2.6941037E-2,3.8593155E-1,9.544838E-3,8.6193293E-1,8.110172E-3,-2.7169067E-2,6.0020633E-2,1.1702128E-1,1.49846E-2,-2.9728208E-2,-3.17375E-2,-1.0546935E-2,-8.7931335E-1,5.2497495E-2,1.5022317E-2,2.1110897E-4],"split_indices":[13,10,10,9,1,0,0,14,0,0,7,0,0,9,3,0,13,0,3,0,0,0,10,0,0,0,0,9,0,0,0],"split_type":[0,0,0,0,0,0,0,0,0,0,0,0,0,0,0,0,0,0,0,0,0,0,0,0,0,0,0,0,0,0,0],"sum_hessian":[1.532928E2,1.1648447E2,3.680833E1,5.07754E1,6.5709076E1,2.8423624E1,8.384706E0,4.385352E1,6.9218764E0,4.4278683E1,2.1430391E1,6.633539E0,3.7219982E1,1.1261014E1,3.3017666E1,6.7569566E0,1.4673434E1,5.806744E0,3.1413237E1,6.042376E0,5.2186375E0,1.4358885E1,1.8658783E1,5.040423E0,9.633012E0,2.3020866E1,8.39237E0,1.0117741E1,8.541042E0,5.0357113E0,5.0820293E0],"tree_param":{"num_deleted":"0","num_feature":"17","num_nodes":"31","size_leaf_vector":"1"}},{"base_weights":[-3.2519396E-2,1.1342144E0,-2.0575936E-1,6.718332E-2,2.2169381E-2,-5.7226837E-1,1.5648583E-2,-3.217695E-2,-1.058042E-2,-2.0499234E-1,8.657511E-1,3.3050425E-2,-2.8815556E-1,1.3406394E0,-1.5969956E-2,-4.978026E-1,-1.2039454E-1,3.6575858E-2,8.0561236E-2,-6.9954954E-3,-3.1315293E-2,3.166571E-2,-2.7244633E-1,-1.9714253E-2,1.5660046E-2],"categories":[],"categories_nodes":[],"categories_segments":[],"categories_sizes":[],"default_left":[0,0,0,0,0,0,0,0,0,0,0,0,0,0,0,0,0,0,0,0,0,0,0,0,0],"id":4,"left_children":[1,3,5,-1,-1,7,9,-1,-1,11,13,-1,15,17,-1,19,21,-1,-1,-1,-1,-1,23,-1,-1],"loss_changes":[3.278119E1,2.257904E0,1.1549538E1,0E0,0E0,1.15341E0,1.6943386E1,0E0,0E0,5.295543E0,1.1016355E1,0E0,2.1976795E0,8.2108116E-1,0E0,1.1570787E0,4.516295E0,0E0,0E0,0E0,0E0,0E0,2.4585774E0,0E0,0E0],"parents":[2147483647,0,0,1,1,2,2,5,5,6,6,9,9,10,10,12,12,13,13,15,15,16,16,22,22],"right_children":[2,4,6,-1,-1,8,10,-1,-1,12,14,-1,16,18,-1,20,22,-1,-1,-1,-1,-1,24,-1,-1],"split_conditions":[2.175E-1,3.4921506E-1,5.8092487E-1,6.718332E-2,2.2169381E-2,9.4545454E-2,2.3448491E-1,-3.217695E-2,-1.058042E-2,-7.446349E-1,9.392405E-1,3.3050425E-2,8.3239174E-1,6.4309764E-1,-1.5969956E-2,8.0965906E-1,8.40796E-1,3.6575858E-2,8.0561236E-2,-6.9954954E-3,-3.1315293E-2,3.166571E-2,9.47226E-2,-1.9714253E-2,1.5660046E-2],"split_indices":[11,7,14,0,0,10,8,0,0,8,2,0,3,14,0,3,3,0,0,0,0,0,5,0,0],"split_type":[0,0,0,0,0,0,0,0,0,0,0,0,0,0,0,0,0,0,0,0,0,0,0,0,0],"sum_hessian":[1.6048755E2,1.995702E1,1.4053053E2,1.4477743E1,5.4792767E0,5.2496727E1,8.80338E1,4.2948082E1,9.548645E0,7.040236E1,1.7631441E1,5.4543166E0,6.4948044E1,1.2554177E1,5.077264E0,2.7730484E1,3.721756E1,5.1142893E0,7.439888E0,8.083685E0,1.96468E1,5.6060457E0,3.1611515E1,2.6579409E1,5.032106E0],"tree_param":{"num_deleted":"0","num_feature":"17","num_nodes":"25","size_leaf_vector":"1"}},{"base_weights":[-2.9203076E-2,8.9854115E-1,-2.4879941E-1,1.3133508E0,2.023436E-1,-3.1040278E-1,3.356338E-2,3.1784724E-2,8.4617265E-2,-2.7573049E-2,4.5201045E-2,-3.2053616E-2,-1.5487953E-1,1.4974593E-2,-3.1366166E-2,3.4731194E-1,-3.125271E-2,1.6830655E-2,6.104234E-2,-2.0223023E-2,5.2410718E-2],"categories":[],"categories_nodes":[],"categories_segments":[],"categories_sizes":[],"default_left":[0,0,0,0,0,0,0,0,0,0,0,0,0,0,0,0,0,0,0,0,0],"id":5,"left_children":[1,3,5,7,9,11,-1,-1,-1,-1,-1,-1,13,15,-1,17,-1,19,-1,-1,-1],"loss_changes":[3.1583761E1,8.146002E0,7.2910347E0,3.393692E0,7.0624924E0,5.9152555E0,0E0,0E0,0E0,0E0,0E0,0E0,6.660421E0,1.3212006E1,0E0,1.1704674E1,0E0,1.3904132E1,0E0,0E0,0E0],"parents":[2147483647,0,0,1,1,2,2,3,3,4,4,5,5,12,12,13,13,15,15,17,17],"right_children":[2,4,6,8,10,12,-1,-1,-1,-1,-1,-1,14,16,-1,18,-1,20,-1,-1,-1],"split_conditions":[4.5874587E-1,5.05E-1,6.840731E-2,4.5113513E-1,5.0087977E-2,3.99E2,3.356338E-2,3.1784724E-2,8.4617265E-2,-2.7573049E-2,4.5201045E-2,-3.2053616E-2,2.3E-1,9.559859E-1,-3.1366166E-2,5.7475084E-1,-3.125271E-2,2E-1,6.104234E-2,-2.0223023E-2,5.2410718E-2],"split_indices":[14,11,16,6,16,0,0,0,0,0,0,0,12,2,0,13,0,12,0,0,0],"split_type":[0,0,0,0,0,0,0,0,0,0,0,0,0,0,0,0,0,0,0,0,0],"sum_hessian":[1.5324973E2,2.8652464E1,1.2459727E2,1.7309177E1,1.13432865E1,1.1750125E2,7.0960164E0,7.2632995E0,1.0045878E1,5.503018E0,5.8402686E0,3.6381924E1,8.111932E1,6.0224064E1,2.089526E1,4.0044434E1,2.0179632E1,2.987549E1,1.0168942E1,2.1574007E1,8.301483E0],"tree_param":{"num_deleted":"0","num_feature":"17","num_nodes":"21","size_leaf_vector":"1"}},{"base_weights":[-2.2527557E-2,-4.0032274E-1,9.47231E-2,-2.626308E-1,-2.736005E-2,2.158489E-1,-1.4700483E-1,-4.1065866E-1,-2.290018E-3,1.2955773E-1,6.083279E-1,-4.3734252E-1,1.0145698E-1,-1.067022E-2,-2.530492E-2,4.230179E-1,-2.207202E-2,4.8929848E-2,1.1907445E-2,-4.9517033E-1,-1.1187739E-2,5.704273E-1,-3.395045E-1,-0E0,6.4900714E-1,6.510445E-2,-2.34496E-2,-1.3761334E-2,-2.8879916E-2,4.578476E-2,4.5164167E-3,-5.3811967E-3,-2.6893482E-2,4.306527E-2,1.0789848E-2,2.6834354E-2,-6.000538E-2,-7.0524067E-3,1.4622859E-2],"categories":[],"categories_nodes":[],"categories_segments":[],"categories_sizes":[],"default_left":[0,0,0,0,0,0,0,0,0,0,0,0,0,0,0,0,0,0,0,0,0,0,0,0,0,0,0,0,0,0,0,0,0,0,0,0,0,0,0],"id":6,"left_children":[1,3,5,7,-1,9,11,13,-1,15,17,19,21,-1,-1,23,25,-1,-1,27,-1,29,31,-1,33,35,-1,-1,-1,-1,-1,-1,-1,-1,-1,-1,37,-1,-1],"loss_changes":[7.103883E0,5.4402924E-1,3.6052618E0,6.382482E-1,0E0,2.6188183E0,3.0343473E0,5.746293E-2,0E0,3.1002517E0,1.601121E0,5.5351734E-2,4.9131207E0,0E0,0E0,2.2258024E0,1.8604171E0,0E0,0E0,9.079933E-3,0E0,1.7210417E0,4.3971443E-1,0E0,1.1157398E0,2.3882039E0,0E0,0E0,0E0,0E0,0E0,0E0,0E0,0E0,0E0,0E0,9.302639E-1,0E0,0E0],"parents":[2147483647,0,0,1,1,2,2,3,3,5,5,6,6,7,7,9,9,10,10,11,11,12,12,15,15,16,16,19,19,21,21,22,22,24,24,25,25,36,36],"right_children":[2,4,6,8,-1,10,12,14,-1,16,18,20,22,-1,-1,24,26,-1,-1,28,-1,30,32,-1,34,36,-1,-1,-1,-1,-1,-1,-1,-1,-1,-1,38,-1,-1],"split_conditions":[3.3115637E-1,4.4741648E-1,1.8779175E-1,8.358209E-2,-2.736005E-2,3.65E-1,6.76961E-1,3.9533377E-2,-2.290018E-3,3.71E2,4.35E-1,9.65E-1,1.3406594E-1,-1.067022E-2,-2.530492E-2,-7.161573E-1,6.232143E-2,4.8929848E-2,1.1907445E-2,1.05E-1,-1.1187739E-2,3.801142E-1,8.111589E-1,-0E0,9.775E-1,4.1E2,-2.34496E-2,-1.3761334E-2,-2.8879916E-2,4.578476E-2,4.5164167E-3,-5.3811967E-3,-2.6893482E-2,4.306527E-2,1.0789848E-2,2.6834354E-2,4.6106797E-2,-7.0524067E-3,1.4622859E-2],"split_indices":[4,6,8,5,0,12,7,5,0,0,12,11,5,0,0,8,16,0,0,12,0,4,7,0,11,0,0,0,0,0,0,0,0,0,0,0,16,0,0],"split_type":[0,0,0,0,0,0,0,0,0,0,0,0,0,0,0,0,0,0,0,0,0,0,0,0,0,0,0,0,0,0,0,0,0,0,0,0,0,0,0],"sum_hessian":[1.5782442E2,3.70106E1,1.2081382E2,2.0893126E1,1.6117476E1,8.083134E1,3.998248E1,1.1611184E1,9.281941E0,6.7561935E1,1.3269401E1,1.8272545E1,2.1709934E1,5.182929E0,6.428255E0,2.2631409E1,4.493053E1,5.677152E0,7.5922484E0,1.2973498E1,5.2990465E0,1.0488455E1,1.1221478E1,8.307699E0,1.432371E1,3.812451E1,6.806017E0,5.050191E0,7.923308E0,5.4520006E0,5.0364547E0,6.117293E0,5.104186E0,8.794746E0,5.5289645E0,7.471477E0,3.0653034E1,2.5640888E1,5.012146E0],"tree_param":{"num_deleted":"0","num_feature":"17","num_nodes":"39","size_leaf_vector":"1"}},{"base_weights":[8.875935E-3,-4.498587E-1,1.8382008E-1,-3.1800684E-2,-9.2339076E-2,2.512674E-1,-2.9271489E-2,2.449374E-2,-4.363221E-1,3.107203E-1,-1.9948054E-2,-2.6878092E-2,-1.2274074E-2,9.5016056E-1,1.9094852E-1,1.6863225E-2,6.745373E-2,3.2335785E-1,-2.2083262E-1,-1.582045E-1,4.6165007E-1,8.4428815E-3,-4.756581E-1,1.4861531E-2,-2.1054871E-2,6.0277816E-2,1.0891796E-2,-1.25311045E-2,-2.854279E-2],"categories":[],"categories_nodes":[],"categories_segments":[],"categories_sizes":[],"default_left":[0,0,0,0,0,0,0,0,0,0,0,0,0,0,0,0,0,0,0,0,0,0,0,0,0,0,0,0,0],"id":7,"left_children":[1,3,5,-1,7,9,-1,-1,11,13,-1,-1,-1,15,17,-1,-1,19,21,23,25,-1,27,-1,-1,-1,-1,-1,-1],"loss_changes":[1.3062749E1,2.855136E0,6.2460694E0,0E0,3.5568273E0,4.347642E0,0E0,0E0,5.0992966E-3,7.4410295E0,0E0,0E0,0E0,3.1789665E0,4.79599E0,0E0,0E0,4.499773E0,2.2408838E0,1.9708414E0,8.972809E0,0E0,6.1536312E-2,0E0,0E0,0E0,0E0,0E0,0E0],"parents":[2147483647,0,0,1,1,2,2,4,4,5,5,8,8,9,9,13,13,14,14,17,17,18,18,19,19,20,20,22,22],"right_children":[2,4,6,-1,8,10,-1,-1,12,14,-1,-1,-1,16,18,-1,-1,20,22,24,26,-1,28,-1,-1,-1,-1,-1,-1],"split_conditions":[4.824786E-1,8.9180326E-1,5.1231843E-1,-3.1800684E-2,0E0,2.2674419E-1,-2.9271489E-2,2.449374E-2,9.784053E-1,8.442623E-1,-1.9948054E-2,-2.6878092E-2,-1.2274074E-2,8.138298E-1,1.1313868E-1,1.6863225E-2,6.745373E-2,3.69E2,4.9041353E-2,8.219178E-2,8.303393E-1,8.4428815E-3,8.217593E-1,1.4861531E-2,-2.1054871E-2,6.0277816E-2,1.0891796E-2,-1.25311045E-2,-2.854279E-2],"split_indices":[7,14,6,0,9,5,0,0,3,2,0,0,0,2,5,0,0,0,16,5,3,0,3,0,0,0,0,0,0],"split_type":[0,0,0,0,0,0,0,0,0,0,0,0,0,0,0,0,0,0,0,0,0,0,0,0,0,0,0,0,0],"sum_hessian":[1.6107083E2,4.3876305E1,1.1719452E2,2.815682E1,1.5719485E1,1.084859E2,8.708616E0,5.572621E0,1.0146865E1,1.0001691E2,8.469E0,5.100352E0,5.0465126E0,1.4553E1,8.5463905E1,6.5640507E0,7.98895E0,6.501556E1,2.0448347E1,1.4311797E1,5.070376E1,8.062996E0,1.2385351E1,5.050802E0,9.260995E0,1.1441044E1,3.9262714E1,5.074034E0,7.311317E0],"tree_param":{"num_deleted":"0","num_feature":"17","num_nodes":"29","size_leaf_vector":"1"}},{"base_weights":[-5.9620265E-2,-2.3468721E-1,1.0636204E0,-5.748075E-1,-8.417446E-2,1.3812459E-2,6.444975E-2,-3.1599257E-2,-1.610604E-2,2.5057651E-2,-4.1259038E-1,-2.4016596E-1,5.212967E-1,1.8690873E-3,-2.7500132E-2,2.538913E-2,-3.8824636E-1,8.718667E-1,1.8293022E-1,-5.0936073E-1,-2.220188E-2,2.5311304E-2,5.734834E-2,3.1026816E-2,-7.2838366E-3,-2.8235683E-2,-1.6975885E-2,4.667186E-3,-6.998529E-3],"categories":[],"categories_nodes":[],"categories_segments":[],"categories_sizes":[],"default_left":[0,0,0,0,0,0,0,0,0,0,0,0,0,0,0,0,0,0,0,0,0,0,0,0,0,0,0,0,0],"id":8,"left_children":[1,3,5,7,9,-1,-1,-1,-1,11,13,15,17,-1,-1,-1,19,21,23,25,27,-1,-1,-1,-1,-1,-1,-1,-1],"loss_changes":[3.1578592E1,7.0064588E0,3.328127E0,3.1210613E-1,3.5575843E0,0E0,0E0,0E0,0E0,9.906674E0,1.598814E0,5.595351E0,2.849821E0,0E0,0E0,0E0,1.7732797E0,5.0998783E-1,2.2621615E0,8.313179E-3,1.7498662E-1,0E0,0E0,0E0,0E0,0E0,0E0,0E0,0E0],"parents":[2147483647,0,0,1,1,2,2,3,3,4,4,9,9,10,10,11,11,12,12,16,16,17,17,18,18,19,19,20,20],"right_children":[2,4,6,8,10,-1,-1,-1,-1,12,14,16,18,-1,-1,-1,20,22,24,26,28,-1,-1,-1,-1,-1,-1,-1,-1],"split_conditions":[6.990545E-1,3.0555555E-1,7.965645E-2,9.1603056E-2,9.9038464E-1,1.3812459E-2,6.444975E-2,-3.1599257E-2,-1.610604E-2,8.2E-1,5.175644E-1,4.3E-1,3.4761348E-1,1.8690873E-3,-2.7500132E-2,2.538913E-2,4.100745E-1,3.2088935E-1,5.604229E-1,3.359717E-2,6.949824E-1,2.5311304E-2,5.734834E-2,3.1026816E-2,-7.2838366E-3,-2.8235683E-2,-1.6975885E-2,4.667186E-3,-6.998529E-3],"split_indices":[13,13,1,10,11,0,0,0,0,11,7,11,6,0,0,0,6,6,7,1,7,0,0,0,0,0,0,0,0],"split_type":[0,0,0,0,0,0,0,0,0,0,0,0,0,0,0,0,0,0,0,0,0,0,0,0,0,0,0,0,0],"sum_hessian":[1.5874113E2,1.380975E2,2.064362E1,4.1295914E1,9.68016E1,5.188043E0,1.5455577E1,3.2128998E1,9.166915E0,7.310565E1,2.3695946E1,4.7847324E1,2.5258326E1,5.5434623E0,1.8152483E1,7.394347E0,4.0452976E1,1.1485921E1,1.3772406E1,2.9896353E1,1.0556624E1,6.3069263E0,5.1789947E0,5.6561017E0,8.116304E0,2.0350351E1,9.546001E0,5.0046864E0,5.551938E0],"tree_param":{"num_deleted":"0","num_feature":"17","num_nodes":"29","size_leaf_vector":"1"}},{"base_weights":[7.191237E-2,1.013361E0,-1.7435263E-1,4.553128E-1,1.342327E0,-2.637927E-1,4.1109156E-2,-2.728713E-2,5.5154502E-2,8.007535E-2,3.5177432E-2,-3.308948E-1,3.551927E-2,-5.552761E-1,-8.426518E-2,-3.2026406E-2,-5.0385552E-3,1.831351E-1,-3.0753244E-2,-2.2797355E-1,5.0015558E-2,3.932073E-2,-3.1082023E-2],"categories":[],"categories_nodes":[],"categories_segments":[],"categories_sizes":[],"default_left":[0,0,0,0,0,0,0,0,0,0,0,0,0,0,0,0,0,0,0,0,0,0,0],"id":9,"left_children":[1,3,5,7,9,11,-1,-1,-1,-1,-1,13,-1,15,17,-1,-1,19,-1,21,-1,-1,-1],"loss_changes":[3.7446087E1,5.356495E0,1.1561004E1,9.765501E0,2.0270157E0,7.924922E0,0E0,0E0,0E0,0E0,0E0,6.0527887E0,0E0,2.1058922E0,7.8841834E0,0E0,0E0,1.2686315E1,0E0,1.0556258E1,0E0,0E0,0E0],"parents":[2147483647,0,0,1,1,2,2,3,3,4,4,5,5,11,11,13,13,14,14,17,17,19,19],"right_children":[2,4,6,8,10,12,-1,-1,-1,-1,-1,14,-1,16,18,-1,-1,20,-1,22,-1,-1,-1],"split_conditions":[4.5874587E-1,-5.967173E-1,6.7822225E-2,4.2251223E-1,8.4819275E-1,1.7288135E-1,4.1109156E-2,-2.728713E-2,5.5154502E-2,8.007535E-2,3.5177432E-2,3.240083E-2,3.551927E-2,1.8564743E-1,1.823E3,-3.2026406E-2,-5.0385552E-3,9.344553E-1,-3.0753244E-2,3.382144E-2,5.0015558E-2,3.932073E-2,-3.1082023E-2],"split_indices":[14,9,16,14,3,5,0,0,0,0,0,1,0,10,0,0,0,3,0,1,0,0,0],"split_type":[0,0,0,0,0,0,0,0,0,0,0,0,0,0,0,0,0,0,0,0,0,0,0],"sum_hessian":[1.5938892E2,3.2486633E1,1.2690228E2,1.30452E1,1.9441435E1,1.1721754E2,9.68475E0,5.126305E0,7.9188957E0,1.2646506E1,6.7949276E0,1.10377625E2,6.8399076E0,5.6928078E1,5.344955E1,4.7406647E1,9.521431E0,3.5854008E1,1.7595541E1,2.4251902E1,1.1602107E1,6.4304476E0,1.7821455E1],"tree_param":{"num_deleted":"0","num_feature":"17","num_nodes":"23","size_leaf_vector":"1"}},{"base_weights":[-2.5950408E-2,-3.840608E-1,7.281074E-2,-5.248874E-1,-1.0709873E-1,5.22099E-1,-4.6592862E-3,-3.0859042E-2,-8.395583E-3,1.1075575E-2,-1.6910365E-2,4.4493232E-2,2.4216685E-1,1.276914E-1,-4.471402E-1,-3.4643558E-3,2.9123595E-2,4.395586E-1,-1.2487489E-2,-2.710398E-2,-4.7830096E-3,3.146574E-3,5.881736E-1,-8.705967E-2,3.126804E-2,4.5808647E-3,7.7389055E-1,-1.9582486E-2,-2.7569836E-2,1.1463871E-2,5.4361295E-2,-1.9148411E-2,4.2047366E-3],"categories":[],"categories_nodes":[],"categories_segments":[],"categories_sizes":[],"default_left":[0,0,0,0,0,0,0,0,0,0,0,0,0,0,0,0,0,0,0,0,0,0,0,0,0,0,0,0,0,0,0,0,0],"id":10,"left_children":[1,3,5,7,9,11,13,-1,-1,-1,-1,-1,15,17,19,-1,-1,21,23,-1,-1,-1,25,27,-1,-1,29,31,-1,-1,-1,-1,-1],"loss_changes":[5.898746E0,1.2874742E0,4.580518E0,5.893488E-1,1.1235552E0,1.660706E0,6.631623E0,0E0,0E0,0E0,0E0,0E0,1.4166055E0,3.8341365E0,7.559314E-1,0E0,0E0,1.4149299E0,2.878203E0,0E0,0E0,0E0,1.6061931E0,1.6610997E0,0E0,0E0,1.9463415E0,1.9234543E0,0E0,0E0,0E0,0E0,0E0],"parents":[2147483647,0,0,1,1,2,2,3,3,4,4,5,5,6,6,12,12,13,13,14,14,17,17,18,18,22,22,23,23,26,26,27,27],"right_children":[2,4,6,8,10,12,14,-1,-1,-1,-1,-1,16,18,20,-1,-1,22,24,-1,-1,-1,26,28,-1,-1,30,32,-1,-1,-1,-1,-1],"split_conditions":[4.7413793E-1,5.175E-1,5.91716E-1,6.014555E-1,1.3207547E-1,8.695652E-2,1.7426383E-1,-3.0859042E-2,-8.395583E-3,1.1075575E-2,-1.6910365E-2,4.4493232E-2,1.0043668E-1,3.64E2,3.8645464E-1,-3.4643558E-3,2.9123595E-2,-7.161573E-1,-1.9221729E-1,-2.710398E-2,-4.7830096E-3,3.146574E-3,8.1074166E-1,6.653722E-2,3.126804E-2,4.5808647E-3,3.04E2,6.353621E-3,-2.7569836E-2,1.1463871E-2,5.4361295E-2,-1.9148411E-2,4.2047366E-3],"split_indices":[14,11,14,8,5,10,8,0,0,0,0,0,10,0,6,0,0,8,8,0,0,0,3,16,0,0,0,16,0,0,0,0,0],"split_type":[0,0,0,0,0,0,0,0,0,0,0,0,0,0,0,0,0,0,0,0,0,0,0,0,0,0,0,0,0,0,0,0,0],"sum_hessian":[1.6411415E2,3.5070698E1,1.2904346E2,2.2416424E1,1.2654273E1,1.8324099E1,1.1071936E2,1.7009657E1,5.4067674E0,5.06345E0,7.590823E0,6.8235106E0,1.1500588E1,8.560071E1,2.511865E1,6.2672343E0,5.233354E0,2.6103605E1,5.9497105E1,1.9125746E1,5.9929047E0,7.979053E0,1.8124554E1,5.418277E1,5.314334E0,5.4866147E0,1.26379385E1,4.8405975E1,5.776794E0,5.3645706E0,7.2733674E0,1.0361142E1,3.8044834E1],"tree_param":{"num_deleted":"0","num_feature":"17","num_nodes":"33","size_leaf_vector":"1"}},{"base_weights":[-3.635117E-2,-4.330338E-1,1.665184E-1,-4.8143518E-1,-2.74985E-3,4.1380844E-1,-1.5589686E-1,-2.2578813E-1,-5.775512E-1,6.437184E-1,-6.65397E-2,3.320141E-1,-3.5609448E-1,-2.8696746E-2,1.5449426E-2,-3.1416263E-2,-1.2535711E-2,6.308794E-2,3.6722058E-1,2.093774E-2,-3.3296722E-1,5.3684145E-2,-1.655164E-2,-4.9272776E-1,8.501936E-3,-1.298303E-1,5.7952642E-2,-0E0,-2.8283775E-2,-3.09497E-2,-7.3356116E-3,-2.950427E-2,2.085605E-2],"categories":[],"categories_nodes":[],"categories_segments":[],"categories_sizes":[],"default_left":[0,0,0,0,0,0,0,0,0,0,0,0,0,0,0,0,0,0,0,0,0,0,0,0,0,0,0,0,0,0,0,0,0],"id":11,"left_children":[1,3,5,7,-1,9,11,13,15,17,19,21,23,-1,-1,-1,-1,-1,25,-1,27,-1,-1,29,-1,31,-1,-1,-1,-1,-1,-1,-1],"loss_changes":[1.1852997E1,8.323202E-1,7.8395925E0,8.665762E-1,0E0,6.2247725E0,4.2953734E0,2.7928636E0,2.6796913E-1,5.8227587E0,2.5507677E0,6.727559E0,2.3397243E0,0E0,0E0,0E0,0E0,0E0,1.1114642E1,0E0,1.0274936E0,0E0,0E0,9.232607E-1,0E0,4.7381625E0,0E0,0E0,0E0,0E0,0E0,0E0,0E0],"parents":[2147483647,0,0,1,1,2,2,3,3,5,5,6,6,7,7,8,8,9,9,10,10,11,11,12,12,18,18,20,20,23,23,25,25],"right_children":[2,4,6,8,-1,10,12,14,16,18,20,22,24,-1,-1,-1,-1,-1,26,-1,28,-1,-1,30,-1,32,-1,-1,-1,-1,-1,-1,-1],"split_conditions":[2E-2,5.4078948E-2,3.19131E-2,8.596873E-3,-2.74985E-3,5.5144507E-2,2.8040437E-2,6.3007115E-3,8.725E-1,8.176353E-1,2.3221506E-2,9.0819675E-1,3.181818E-1,-2.8696746E-2,1.5449426E-2,-3.1416263E-2,-1.2535711E-2,6.308794E-2,1.1E-1,2.093774E-2,6.0511553E-1,5.3684145E-2,-1.655164E-2,8.863636E-2,8.501936E-3,8.405512E-1,5.7952642E-2,-0E0,-2.8283775E-2,-3.09497E-2,-7.3356116E-3,-2.950427E-2,2.085605E-2],"split_indices":[12,16,1,16,0,16,16,16,11,3,1,3,12,0,0,0,0,0,10,0,7,0,0,10,0,3,0,0,0,0,0,0,0],"split_type":[0,0,0,0,0,0,0,0,0,0,0,0,0,0,0,0,0,0,0,0,0,0,0,0,0,0,0,0,0,0,0,0,0],"sum_hessian":[1.4506104E2,4.886698E1,9.619406E1,4.2843536E1,6.023446E0,5.4454536E1,4.173952E1,1.2905999E1,2.9937536E1,3.6738426E1,1.771611E1,1.1806764E1,2.9932756E1,7.8859253E0,5.0200734E0,2.4848866E1,5.0886707E0,1.0142477E1,2.6595951E1,5.9433303E0,1.177278E1,5.351832E0,6.454932E0,2.3963224E1,5.969532E0,1.6775402E1,9.820548E0,5.136338E0,6.6364417E0,1.6766832E1,7.196392E0,9.166139E0,7.6092634E0],"tree_param":{"num_deleted":"0","num_feature":"17","num_nodes":"33","size_leaf_vector":"1"}},{"base_weights":[-7.0196553E-3,-1.8950193E-1,1.0674897E0,-5.6594306E-1,-3.2106847E-2,2.216626E-2,6.710761E-2,-3.1286355E-2,-1.5756464E-2,2.9146552E-2,-1.08061604E-1,-2.7468663E-1,1.7493388E-1,-6.1615944E-2,-5.2614504E-1,-2.635735E-1,5.1102537E-1,-2.7759308E-2,7.758698E-2,-3.0919535E-2,-9.210838E-3,9.4431285E-3,-2.8926088E-2,8.718499E-1,-1.6964993E-2,1.5656207E-2,-2.077671E-2,8.6724677E-4,7.1863934E-2],"categories":[],"categories_nodes":[],"categories_segments":[],"categories_sizes":[],"default_left":[0,0,0,0,0,0,0,0,0,0,0,0,0,0,0,0,0,0,0,0,0,0,0,0,0,0,0,0,0],"id":12,"left_children":[1,3,5,7,9,-1,-1,-1,-1,-1,11,13,15,17,19,21,23,-1,25,-1,-1,-1,-1,27,-1,-1,-1,-1,-1],"loss_changes":[3.2134052E1,8.247911E0,3.3028088E0,3.2626343E-1,4.7027917E0,0E0,0E0,0E0,0E0,0E0,4.315899E0,2.986628E0,5.1484504E0,2.3199522E0,6.259327E-1,2.3167806E0,6.3728685E0,0E0,3.1427627E0,0E0,0E0,0E0,0E0,6.664774E0,0E0,0E0,0E0,0E0,0E0],"parents":[2147483647,0,0,1,1,2,2,3,3,4,4,10,10,11,11,12,12,13,13,14,14,15,15,16,16,18,18,23,23],"right_children":[2,4,6,8,10,-1,-1,-1,-1,-1,12,14,16,18,20,22,24,-1,26,-1,-1,-1,-1,28,-1,-1,-1,-1,-1],"split_conditions":[9.62552E-1,5.0259066E-1,1.1496706E-1,1.8250951E-1,4.325E-1,2.216626E-2,6.710761E-2,-3.1286355E-2,-1.5756464E-2,2.9146552E-2,4.577856E-2,2.5682047E-2,7.95E-1,4.0823302E-1,-7.448284E-1,5.33E2,4.2858815E-1,-2.7759308E-2,2.85E-1,-3.0919535E-2,-9.210838E-3,9.4431285E-3,-2.8926088E-2,3.3007336E-1,-1.6964993E-2,1.5656207E-2,-2.077671E-2,8.6724677E-4,7.1863934E-2],"split_indices":[2,14,9,5,11,0,0,0,0,0,8,1,11,4,9,0,4,0,12,0,0,0,0,13,0,0,0,0,0],"split_type":[0,0,0,0,0,0,0,0,0,0,0,0,0,0,0,0,0,0,0,0,0,0,0,0,0,0,0,0,0],"sum_hessian":[1.6229933E2,1.3952133E2,2.2777988E1,4.0183533E1,9.933781E1,7.870529E0,1.4907459E1,3.0919952E1,9.263579E0,1.0040921E1,8.929688E1,5.644521E1,3.2851677E1,3.1444094E1,2.5001114E1,1.4218568E1,1.8633108E1,6.417982E0,2.5026112E1,1.8822243E1,6.1788726E0,5.8695474E0,8.349021E0,1.3146745E1,5.486363E0,1.7320742E1,7.705369E0,5.715986E0,7.430759E0],"tree_param":{"num_deleted":"0","num_feature":"17","num_nodes":"29","size_leaf_vector":"1"}},{"base_weights":[4.0753726E-2,7.85145E-1,-1.783838E-1,1.0371006E0,-1.6152927E-3,-5.1280206E-1,-0E0,1.2705699E0,7.547324E-3,-3.1599347E-2,1.1905899E-2,-1.3046819E-1,4.4971846E-2,3.3886664E-2,7.525062E-2,-3.568757E-1,6.114352E-1,-5.097927E-1,8.8846505E-2,4.8750382E-2,3.3021425E-3,-3.1621765E-2,1.3866708E-2,-2.8432695E-2,5.367587E-2],"categories":[],"categories_nodes":[],"categories_segments":[],"categories_sizes":[],"default_left":[0,0,0,0,0,0,0,0,0,0,0,0,0,0,0,0,0,0,0,0,0,0,0,0,0],"id":13,"left_children":[1,3,5,7,-1,9,11,13,-1,-1,-1,15,-1,-1,-1,17,19,21,23,-1,-1,-1,-1,-1,-1],"loss_changes":[2.5074495E1,7.336174E0,7.0954237E0,5.2218037E0,0E0,3.888256E0,9.331105E0,1.6845856E0,0E0,0E0,0E0,1.1801577E1,0E0,0E0,0E0,3.7465973E0,3.0883527E0,4.1001596E0,9.982743E0,0E0,0E0,0E0,0E0,0E0,0E0],"parents":[2147483647,0,0,1,1,2,2,3,3,5,5,6,6,7,7,11,11,15,15,16,16,17,17,18,18],"right_children":[2,4,6,8,-1,10,12,14,-1,-1,-1,16,-1,-1,-1,18,20,22,24,-1,-1,-1,-1,-1,-1],"split_conditions":[4.7058824E-1,5.35E-1,3.935984E-1,8.584392E-1,-1.6152927E-3,9.526235E-1,3.749449E-1,-5.001245E-1,7.547324E-3,-3.1599347E-2,1.1905899E-2,1.1528822E-1,4.4971846E-2,3.3886664E-2,7.525062E-2,6.0797E-1,5.7669836E-1,6.426025E-1,6.862934E-1,4.8750382E-2,3.3021425E-3,-3.1621765E-2,1.3866708E-2,-2.8432695E-2,5.367587E-2],"split_indices":[14,11,4,3,0,8,8,9,0,0,0,5,0,0,0,7,7,10,14,0,0,0,0,0,0],"split_type":[0,0,0,0,0,0,0,0,0,0,0,0,0,0,0,0,0,0,0,0,0,0,0,0,0],"sum_hessian":[1.5148373E2,3.3968643E1,1.1751509E2,2.5853636E1,8.115006E0,4.032348E1,7.719162E1,2.002985E1,5.8237844E0,3.505168E1,5.2717967E0,6.811149E1,9.080132E0,6.8997555E0,1.31300955E1,5.2686768E1,1.5424718E1,3.9288425E1,1.3398343E1,8.672402E0,6.7523155E0,3.4272053E1,5.0163713E0,8.226289E0,5.172054E0],"tree_param":{"num_deleted":"0","num_feature":"17","num_nodes":"25","size_leaf_vector":"1"}},{"base_weights":[-3.936468E-2,-3.845479E-1,5.130417E-2,-4.918561E-1,-2.3962536E-3,1.1513209E-1,-2.6797727E-1,-1.710693E-2,-2.8638614E-2,4.2524466E-1,-9.069914E-3,-8.717362E-2,-2.2636352E-2,-1.4026302E-2,5.887983E-1,3.2266167E-1,-1.3690598E-1,-1.7797614E-2,8.9814905E-3,3.6243743E-1,5.523029E-2,3.3409733E-2,9.213706E-3,-2.5489458E-1,2.1338128E-2,1.3006707E-1,4.0325735E-2,-1.9389497E-2,2.4007916E-2,-6.6374056E-2,-3.9902154E-1,-3.5484694E-3,1.6125405E-2,1.2443005E-2,-1.7903578E-2,-1.0470308E-2,-2.4679339E-2],"categories":[],"categories_nodes":[],"categories_segments":[],"categories_sizes":[],"default_left":[0,0,0,0,0,0,0,0,0,0,0,0,0,0,0,0,0,0,0,0,0,0,0,0,0,0,0,0,0,0,0,0,0,0,0,0,0],"id":14,"left_children":[1,3,5,7,-1,9,11,-1,-1,13,15,17,-1,-1,19,21,23,-1,-1,25,-1,-1,27,29,-1,31,-1,-1,-1,33,35,-1,-1,-1,-1,-1,-1],"loss_changes":[4.8451076E0,1.0855498E0,2.5000784E0,4.289627E-3,0E0,3.9958787E0,5.863408E-1,0E0,0E0,3.6106343E0,3.1629794E0,9.2757773E-1,0E0,0E0,2.3081388E0,2.1636758E0,3.704392E0,0E0,0E0,1.722692E0,0E0,0E0,2.4387558E0,1.1684833E0,0E0,5.727577E-1,0E0,0E0,0E0,2.058398E0,2.8170013E-1,0E0,0E0,0E0,0E0,0E0,0E0],"parents":[2147483647,0,0,1,1,2,2,3,3,5,5,6,6,9,9,10,10,11,11,14,14,15,15,16,16,19,19,22,22,23,23,25,25,29,29,30,30],"right_children":[2,4,6,8,-1,10,12,-1,-1,14,16,18,-1,-1,20,22,24,-1,-1,26,-1,-1,28,30,-1,32,-1,-1,-1,34,36,-1,-1,-1,-1,-1,-1],"split_conditions":[4.7413793E-1,3.3115637E-1,6.869625E-1,1.29771E-1,-2.3962536E-3,-4.7729734E-1,9.2863786E-1,-1.710693E-2,-2.8638614E-2,8.855634E-1,5.866142E-1,9.7248346E-1,-2.2636352E-2,-1.4026302E-2,7.692308E-2,4.2794573E-1,4.3932E-1,-1.7797614E-2,8.9814905E-3,3.4761348E-1,5.523029E-2,3.3409733E-2,4.50425E-1,3.9102563E-1,2.1338128E-2,8.2535887E-1,4.0325735E-2,-1.9389497E-2,2.4007916E-2,8.3864117E-1,4.2439172E-1,-3.5484694E-3,1.6125405E-2,1.2443005E-2,-1.7903578E-2,-1.0470308E-2,-2.4679339E-2],"split_indices":[14,4,13,5,0,8,14,0,0,2,14,2,0,0,5,6,4,0,0,6,0,0,6,13,0,14,0,0,0,3,4,0,0,0,0,0,0],"split_type":[0,0,0,0,0,0,0,0,0,0,0,0,0,0,0,0,0,0,0,0,0,0,0,0,0,0,0,0,0,0,0,0,0,0,0,0,0],"sum_hessian":[1.5211365E2,3.1198866E1,1.2091478E2,2.3082453E1,8.116412E0,1.01563675E2,1.9351107E1,1.0366213E1,1.271624E1,2.8581516E1,7.2982155E1,1.0797426E1,8.553681E0,5.127703E0,2.3453814E1,1.9659622E1,5.3322533E1,5.399063E0,5.398363E0,1.7618507E1,5.8353057E0,8.661134E0,1.0998488E1,4.4692566E1,8.629965E0,1.2562869E1,5.055639E0,5.9483194E0,5.050169E0,2.0297476E1,2.4395092E1,6.1987867E0,6.3640823E0,9.660989E0,1.0636487E1,9.539352E0,1.485574E1],"tree_param":{"num_deleted":"0","num_feature":"17","num_nodes":"37","size_leaf_vector":"1"}},{"base_weights":[-1.1286508E-2,-4.3960148E-1,1.5606213E-1,-5.7650685E-1,-4.5977842E-2,5.0466096E-1,6.805282E-4,-1.2602614E-2,-3.126483E-2,-1.612035E-2,1.430434E-2,7.8744537E-1,-4.737473E-2,7.717667E-2,-2.8692117E-2,3.293778E-3,1.0813872E0,-2.7867813E-2,2.6766393E-2,-1.8299757E-1,3.6265713E-1,6.734172E-2,3.601618E-2,2.4413735E-2,-3.1564832E-1,5.689362E-1,-2.7380804E-2,1.2550974E-2,-4.4106248E-1,4.410912E-3,7.77096E-1,-3.139105E-2,1.0164616E-2,8.073304E-3,5.1414263E-2],"categories":[],"categories_nodes":[],"categories_segments":[],"categories_sizes":[],"default_left":[0,0,0,0,0,0,0,0,0,0,0,0,0,0,0,0,0,0,0,0,0,0,0,0,0,0,0,0,0,0,0,0,0,0,0],"id":15,"left_children":[1,3,5,7,9,11,13,-1,-1,-1,-1,15,17,19,-1,-1,21,-1,-1,23,25,-1,-1,-1,27,29,-1,-1,31,-1,33,-1,-1,-1,-1],"loss_changes":[1.1318523E1,2.3046417E0,6.0775576E0,2.7193832E-1,1.2649549E0,5.5255632E0,3.4867532E0,0E0,0E0,0E0,0E0,4.7158823E0,4.036518E0,5.369536E0,0E0,0E0,3.8136673E-1,0E0,0E0,3.4947574E0,6.7818837E0,0E0,0E0,0E0,2.4195082E0,2.7131453E0,0E0,0E0,3.405777E0,0E0,2.7658558E0,0E0,0E0,0E0,0E0],"parents":[2147483647,0,0,1,1,2,2,3,3,4,4,5,5,6,6,11,11,12,12,13,13,16,16,19,19,20,20,24,24,25,25,28,28,30,30],"right_children":[2,4,6,8,10,12,14,-1,-1,-1,-1,16,18,20,-1,-1,22,-1,-1,24,26,-1,-1,-1,28,30,-1,-1,32,-1,34,-1,-1,-1,-1],"split_conditions":[4.8223028E-1,1.7440717E-1,3.6539045E-1,1.4141414E-1,3.5488033E-1,2.0500927E-1,5.1404876E-1,-1.2602614E-2,-3.126483E-2,-1.612035E-2,1.430434E-2,2.500842E-2,8.6193293E-1,4.2794573E-1,-2.8692117E-2,3.293778E-3,4.4428904E-2,-2.7867813E-2,2.6766393E-2,2.1910174E-2,1.9822486E-1,6.734172E-2,3.601618E-2,2.4413735E-2,3.348665E-1,2.5934659E-2,-2.7380804E-2,1.2550974E-2,4.303501E-1,4.410912E-3,6.725664E-2,-3.139105E-2,1.0164616E-2,8.073304E-3,5.1414263E-2],"split_indices":[7,1,6,10,4,8,6,0,0,0,0,1,3,6,0,0,16,0,0,1,5,0,0,0,4,1,0,0,4,0,10,0,0,0,0],"split_type":[0,0,0,0,0,0,0,0,0,0,0,0,0,0,0,0,0,0,0,0,0,0,0,0,0,0,0,0,0,0,0,0,0,0,0],"sum_hessian":[1.5555537E2,4.3413307E1,1.1214207E2,3.16771E1,1.1736207E1,3.3682926E1,7.845914E1,5.2147045E0,2.6462395E1,6.584844E0,5.151363E0,2.211107E1,1.1571855E1,7.015758E1,8.301563E0,6.852885E0,1.5258185E1,6.2857103E0,5.2861443E0,3.6710213E1,3.3447365E1,7.0603786E0,8.197806E0,5.4905915E0,3.1219622E1,2.766335E1,5.784015E0,5.3314166E0,2.5888205E1,8.934493E0,1.8728855E1,2.0211111E1,5.6770945E0,6.0187216E0,1.2710134E1],"tree_param":{"num_deleted":"0","num_feature":"17","num_nodes":"35","size_leaf_vector":"1"}},{"base_weights":[-7.1087085E-2,-2.4511848E-1,7.2687185E-1,-4.8852772E-1,1.2444675E-2,8.85393E-1,2.8311142E-3,-2.5797185E-1,-3.1292584E-2,6.3666874E-1,-1.6492975E-1,5.3718854E-2,1.20646795E-2,-3.0385736E-2,1.8281393E-2,5.165694E-2,1.6375497E-3,1.6773552E-1,-3.1403986E-1,-2.0540744E-2,3.9122283E-2,7.102862E-3,-4.3130928E-1,-2.7207121E-2,-7.3499153E-3],"categories":[],"categories_nodes":[],"categories_segments":[],"categories_sizes":[],"default_left":[0,0,0,0,0,0,0,0,0,0,0,0,0,0,0,0,0,0,0,0,0,0,0,0,0],"id":16,"left_children":[1,3,5,7,9,11,-1,13,-1,15,17,-1,-1,-1,-1,-1,-1,19,21,-1,-1,-1,23,-1,-1],"loss_changes":[2.0561213E1,7.6792793E0,2.670351E0,1.7371798E0,6.78151E0,2.1940632E0,0E0,5.7861767E0,0E0,3.1109076E0,2.4133062E0,0E0,0E0,0E0,0E0,0E0,0E0,5.722407E0,1.8666205E0,0E0,0E0,0E0,7.1198034E-1,0E0,0E0],"parents":[2147483647,0,0,1,1,2,2,3,3,4,4,5,5,7,7,9,9,10,10,17,17,18,18,22,22],"right_children":[2,4,6,8,10,12,-1,14,-1,16,18,-1,-1,-1,-1,-1,-1,20,22,-1,-1,-1,24,-1,-1],"split_conditions":[6.3352275E-1,3.6807817E-1,3.912577E-1,-8.172955E-1,6.875E-1,1.0807536E0,2.8311142E-3,4.2883015E-1,-3.1292584E-2,3.7729323E-1,3.1229517E-1,5.3718854E-2,1.20646795E-2,-3.0385736E-2,1.8281393E-2,5.165694E-2,1.6375497E-3,4.2579654E-1,4.1184425E-1,-2.0540744E-2,3.9122283E-2,7.102862E-3,4.357701E-1,-2.7207121E-2,-7.3499153E-3],"split_indices":[13,13,4,9,14,9,0,6,0,6,6,0,0,0,0,0,0,4,4,0,0,0,4,0,0],"split_type":[0,0,0,0,0,0,0,0,0,0,0,0,0,0,0,0,0,0,0,0,0,0,0,0,0],"sum_hessian":[1.4612486E2,1.2063338E2,2.549148E1,6.175939E1,5.8873985E1,2.0235405E1,5.256076E0,2.4400194E1,3.73592E1,1.2579172E1,4.6294815E1,1.5008501E1,5.226904E0,1.57517395E1,8.648454E0,7.064825E0,5.5143466E0,1.4082081E1,3.2212734E1,7.341476E0,6.7406054E0,6.3707604E0,2.5841972E1,1.7593927E1,8.248045E0],"tree_param":{"num_deleted":"0","num_feature":"17","num_nodes":"25","size_leaf_vector":"1"}},{"base_weights":[-1.17296785E-1,5.4978156E-1,-3.5480973E-1,7.8745246E-1,-2.8137362E-2,-3.1570967E-2,-1.4059779E-1,9.520668E-1,4.6703233E-3,-5.0197345E-1,5.036274E-1,7.118311E-2,4.6009564E-1,1.3110344E-2,-3.13414E-2,-2.7073612E-2,9.212202E-1,-4.8080934E-4,5.3661544E-2,1.008368E-2,6.314728E-2],"categories":[],"categories_nodes":[],"categories_segments":[],"categories_sizes":[],"default_left":[0,0,0,0,0,0,0,0,0,0,0,0,0,0,0,0,0,0,0,0,0],"id":17,"left_children":[1,3,5,7,-1,-1,9,11,-1,13,15,-1,17,-1,-1,-1,19,-1,-1,-1,-1],"loss_changes":[2.257642E1,1.0355818E1,6.054411E0,3.3837776E0,0E0,0E0,1.4373153E1,4.976124E0,0E0,3.9654646E0,1.022381E1,0E0,4.107607E0,0E0,0E0,0E0,3.6062727E0,0E0,0E0,0E0,0E0],"parents":[2147483647,0,0,1,1,2,2,3,3,6,6,7,7,9,9,10,10,12,12,16,16],"right_children":[2,4,6,8,-1,-1,10,12,-1,14,16,-1,18,-1,-1,-1,20,-1,-1,-1,-1],"split_conditions":[4.91358E-1,8.358652E-1,4.041804E-1,4.041765E-2,-2.8137362E-2,-3.1570967E-2,3.233412E-2,1.7E-1,4.6703233E-3,2.7296758E-1,-9.68398E-1,7.118311E-2,3.083512E-1,1.3110344E-2,-3.13414E-2,-2.7073612E-2,-6.050951E-1,-4.8080934E-4,5.3661544E-2,1.008368E-2,6.314728E-2],"split_indices":[14,7,4,1,0,0,1,12,0,6,9,0,13,0,0,0,8,0,0,0,0],"split_type":[0,0,0,0,0,0,0,0,0,0,0,0,0,0,0,0,0,0,0,0,0],"sum_hessian":[1.4038403E2,3.640402E1,1.0398003E2,3.0310772E1,6.093246E0,4.4326817E1,5.9653206E1,2.408292E1,6.227851E0,3.845696E1,2.1196247E1,1.1225391E1,1.285753E1,5.1338525E0,3.3323105E1,5.8983827E0,1.5297865E1,7.745252E0,5.1122775E0,5.532105E0,9.76576E0],"tree_param":{"num_deleted":"0","num_feature":"17","num_nodes":"21","size_leaf_vector":"1"}},{"base_weights":[-7.5850636E-3,-3.8501942E-1,1.0112918E-1,-4.8122913E-1,-1.8414927E-1,4.1073406E-1,-0E0,-2.9357398E-2,-3.2466915E-3,8.22703E-3,-2.2885133E-2,-4.288742E-3,5.170249E-1,-9.831023E-2,2.688185E-1,4.423947E-2,2.8220817E-1,3.321225E-4,-4.5090187E-1,-9.711343E-3,5.514265E-1,2.5447262E-2,-1.5735716E-3,-9.064385E-2,2.613533E-2,-1.1567722E-2,-2.6945233E-2,4.422083E-2,-3.1329063E-3,-3.096583E-2,-2.354898E-2,5.7835663E-3,-1.2747474E-2],"categories":[],"categories_nodes":[],"categories_segments":[],"categories_sizes":[],"default_left":[0,0,0,0,0,0,0,0,0,0,0,0,0,0,0,0,0,0,0,0,0,0,0,0,0,0,0,0,0,0,0,0,0],"id":18,"left_children":[1,3,5,7,9,11,13,-1,-1,-1,-1,-1,15,17,19,-1,21,23,25,-1,27,-1,-1,29,-1,-1,-1,-1,-1,31,-1,-1,-1],"loss_changes":[6.5691514E0,5.37632E-1,3.8920152E0,9.232588E-1,1.3986168E0,1.7004485E0,2.5027072E0,0E0,0E0,0E0,0E0,0E0,1.8342113E0,2.4707193E0,3.4543753E0,0E0,1.2861304E0,2.7172277E0,9.713912E-2,0E0,3.431717E0,0E0,0E0,1.0192962E0,0E0,0E0,0E0,0E0,0E0,1.4419736E0,0E0,0E0,0E0],"parents":[2147483647,0,0,1,1,2,2,3,3,4,4,5,5,6,6,12,12,13,13,14,14,16,16,17,17,18,18,20,20,23,23,29,29],"right_children":[2,4,6,8,10,12,14,-1,-1,-1,-1,-1,16,18,20,-1,22,24,26,-1,28,-1,-1,30,-1,-1,-1,-1,-1,32,-1,-1,-1],"split_conditions":[3.3115637E-1,4.6710992E-1,3.64E2,8E-2,8.2417585E-2,8.902148E-1,6.76961E-1,-2.9357398E-2,-3.2466915E-3,8.22703E-3,-2.2885133E-2,-4.288742E-3,5.221331E-2,2.1478917E-1,8.177083E-1,4.423947E-2,9.391892E-1,4.3643093E-1,6.0606062E-2,-9.711343E-3,8.584392E-1,2.5447262E-2,-1.5735716E-3,6.653722E-2,2.613533E-2,-1.1567722E-2,-2.6945233E-2,4.422083E-2,-3.1329063E-3,6.081081E-1,-2.354898E-2,5.7835663E-3,-1.2747474E-2],"split_indices":[4,8,0,10,10,2,7,0,0,0,0,0,16,8,3,0,2,4,12,0,3,0,0,16,0,0,0,0,0,13,0,0,0],"split_type":[0,0,0,0,0,0,0,0,0,0,0,0,0,0,0,0,0,0,0,0,0,0,0,0,0,0,0,0,0,0,0,0,0],"sum_hessian":[1.5745554E2,3.48481E1,1.2260744E2,2.2282171E1,1.25659275E1,2.9563644E1,9.304379E1,1.7244095E1,5.038075E0,5.538774E0,7.0271535E0,5.0810575E0,2.4482588E1,6.873777E1,2.4306019E1,8.295891E0,1.6186697E1,5.4270344E1,1.446743E1,9.196574E0,1.5109446E1,9.21913E0,6.9675674E0,4.6761475E1,7.5088673E0,5.5032687E0,8.964161E0,9.617135E0,5.49231E0,4.158134E1,5.1801353E0,2.5151995E1,1.6429344E1],"tree_param":{"num_deleted":"0","num_feature":"17","num_nodes":"33","size_leaf_vector":"1"}},{"base_weights":[1.4064852E-3,-4.5500368E-1,1.6574417E-1,-2.2051011E-1,-5.5553585E-1,4.0045738E-1,-9.460948E-2,-2.826286E-2,1.5490855E-2,-3.0636182E-2,-1.2214015E-2,-1.5199025E-1,5.278408E-1,1.959938E-1,-4.2758265E-1,1.3882001E-2,-2.7449697E-2,6.874185E-2,3.4983096E-1,-3.171731E-1,8.98622E-1,-3.0573739E-2,-1.2499538E-1,5.4483557E-1,-1.704324E-1,1.4728096E-2,-2.9835744E-2,1.642309E-2,7.239212E-2,-1.270094E-2,3.647762E-4,7.2382104E-1,-4.826937E-3,-2.7702658E-2,1.1514371E-2,4.6401467E-2,5.7589794E-3],"categories":[],"categories_nodes":[],"categories_segments":[],"categories_sizes":[],"default_left":[0,0,0,0,0,0,0,0,0,0,0,0,0,0,0,0,0,0,0,0,0,0,0,0,0,0,0,0,0,0,0,0,0,0,0,0,0],"id":19,"left_children":[1,3,5,7,9,11,13,-1,-1,-1,-1,15,17,19,21,-1,-1,-1,23,25,27,-1,29,31,33,-1,-1,-1,-1,-1,-1,35,-1,-1,-1,-1,-1],"loss_changes":[1.1311886E1,7.3976326E-1,6.871424E0,2.745678E0,2.4430656E-1,4.265502E0,5.27285E0,0E0,0E0,0E0,0E0,2.170565E0,6.6238003E0,1.0811296E1,1.2607284E0,0E0,0E0,0E0,4.3226285E0,3.18751E0,3.2915668E0,0E0,2.1507613E-1,3.626421E0,1.9874055E0,0E0,0E0,0E0,0E0,0E0,0E0,2.7759848E0,0E0,0E0,0E0,0E0,0E0],"parents":[2147483647,0,0,1,1,2,2,3,3,4,4,5,5,6,6,11,11,12,12,13,13,14,14,18,18,19,19,20,20,22,22,23,23,24,24,31,31],"right_children":[2,4,6,8,10,12,14,-1,-1,-1,-1,16,18,20,22,-1,-1,-1,24,26,28,-1,30,32,34,-1,-1,-1,-1,-1,-1,36,-1,-1,-1,-1,-1],"split_conditions":[4.8223028E-1,8.596873E-3,2.3448491E-1,6.3007115E-3,5.281813E-2,-4.6836525E-1,3.1222707E-1,-2.826286E-2,1.5490855E-2,-3.0636182E-2,-1.2214015E-2,-5.549338E-1,-4.442236E-1,8.584392E-1,6.986635E-1,1.3882001E-2,-2.7449697E-2,6.874185E-2,8.449438E-1,2.8460762E-2,8.712522E-1,-3.0573739E-2,3.334456E-2,4.4367567E-1,1.0895884E-1,1.4728096E-2,-2.9835744E-2,1.642309E-2,7.239212E-2,-1.270094E-2,3.647762E-4,9.285714E-1,-4.826937E-3,-2.7702658E-2,1.1514371E-2,4.6401467E-2,5.7589794E-3],"split_indices":[7,16,8,16,16,8,13,0,0,0,0,8,8,3,7,0,0,0,3,1,2,0,1,6,10,0,0,0,0,0,0,2,0,0,0,0,0],"split_type":[0,0,0,0,0,0,0,0,0,0,0,0,0,0,0,0,0,0,0,0,0,0,0,0,0,0,0,0,0,0,0,0,0,0,0,0,0],"sum_hessian":[1.4919452E2,3.8868626E1,1.103259E2,1.2920172E1,2.5948454E1,5.7938934E1,5.2386963E1,7.9044595E0,5.0157127E0,2.0831244E1,5.1172113E0,1.0673024E1,4.726591E1,2.8032543E1,2.4354422E1,5.149309E0,5.5237155E0,6.9433455E0,4.0322563E1,1.6435263E1,1.1597281E1,1.4307801E1,1.004662E1,2.9434814E1,1.0887751E1,5.0257363E0,1.1409526E1,6.563581E0,5.0337E0,5.0029736E0,5.0436463E0,2.3034145E1,6.400668E0,5.4945574E0,5.393193E0,1.6731441E1,6.302704E0],"tree_param":{"num_deleted":"0","num_feature":"17","num_nodes":"37","size_leaf_vector":"1"}},{"base_weights":[-3.807508E-3,-1.8282099E-1,8.15033E-1,-4.4588506E-1,3.504765E-2,5.8934458E-2,5.631365E-1,-5.2219033E-1,3.3373404E-3,6.1180556E-1,-1.6098367E-1,5.3743687E-2,4.4746767E-3,-2.8964508E-2,-3.6886582E-1,5.650691E-2,6.719265E-3,-3.948822E-1,1.1386541E-1,5.0034993E-3,-2.935711E-2,-2.7121186E-2,-3.80308E-3,3.801186E-1,-2.7695237E-2,5.414764E-1,3.9320518E-4,1.1314731E-2,3.7455074E-2],"categories":[],"categories_nodes":[],"categories_segments":[],"categories_sizes":[],"default_left":[0,0,0,0,0,0,0,0,0,0,0,0,0,0,0,0,0,0,0,0,0,0,0,0,0,0,0,0,0],"id":20,"left_children":[1,3,5,7,9,-1,11,13,-1,15,17,-1,-1,-1,19,-1,-1,21,23,-1,-1,-1,-1,25,-1,27,-1,-1,-1],"loss_changes":[2.2283972E1,7.2315793E0,1.6583099E0,2.309723E0,7.966901E0,0E0,4.1929784E0,1.2828922E-1,0E0,4.148811E0,3.4355552E0,0E0,0E0,0E0,1.8236287E0,0E0,0E0,1.2458725E0,4.5717177E0,0E0,0E0,0E0,0E0,1.0404258E0,0E0,5.554466E-1,0E0,0E0,0E0],"parents":[2147483647,0,0,1,1,2,2,3,3,4,4,6,6,7,7,9,9,10,10,14,14,17,17,18,18,23,23,25,25],"right_children":[2,4,6,8,10,-1,12,14,-1,16,18,-1,-1,-1,20,-1,-1,22,24,-1,-1,-1,-1,26,-1,28,-1,-1,-1],"split_conditions":[6.6161615E-1,3.5130435E-1,5.648285E-3,6.5238094E-1,6.875E-1,5.8934458E-2,9.447273E-1,5.0259066E-1,3.3373404E-3,-9.0720475E-1,7.879518E-1,5.3743687E-2,4.4746767E-3,-2.8964508E-2,5.4562044E-1,5.650691E-2,6.719265E-3,4.6755555E-1,1.2867446E-1,5.0034993E-3,-2.935711E-2,-2.7121186E-2,-3.80308E-3,-7.267961E-1,-2.7695237E-2,8.1286895E-1,3.9320518E-4,1.1314731E-2,3.7455074E-2],"split_indices":[13,13,16,14,14,0,3,14,0,9,14,0,0,0,14,0,0,13,1,0,0,0,0,9,0,14,0,0,0],"split_type":[0,0,0,0,0,0,0,0,0,0,0,0,0,0,0,0,0,0,0,0,0,0,0,0,0,0,0,0,0],"sum_hessian":[1.5043715E2,1.2418656E2,2.6250593E1,5.599191E1,6.819466E1,9.074188E0,1.7176403E1,4.8890923E1,7.100986E0,1.6890135E1,5.130452E1,7.5445533E0,9.631851E0,3.3124546E1,1.5766376E1,7.342158E0,9.547977E0,2.7677706E1,2.3626814E1,5.0343013E0,1.0732075E1,1.8227509E1,9.450197E0,1.7306774E1,6.3200383E0,1.1568892E1,5.737883E0,5.6156716E0,5.95322E0],"tree_param":{"num_deleted":"0","num_feature":"17","num_nodes":"29","size_leaf_vector":"1"}},{"base_weights":[3.89052E-2,8.3805525E-1,-2.2499493E-1,1.0287609E0,-0E0,-3.593803E-1,8.277889E-1,1.234489E0,5.3925123E-3,-4.6272373E-1,7.804281E-2,1.0785682E-2,5.892083E-2,6.934176E-2,3.414847E-2,1.3519391E-2,-5.1227075E-1,-2.887687E-2,6.4150536E-1,-5.6658715E-1,3.9585466E-3,7.716541E-3,5.3948786E-2,-4.1633937E-1,-3.1478878E-2,1.40481135E-2,-3.0198341E-2],"categories":[],"categories_nodes":[],"categories_segments":[],"categories_sizes":[],"default_left":[0,0,0,0,0,0,0,0,0,0,0,0,0,0,0,0,0,0,0,0,0,0,0,0,0,0,0],"id":21,"left_children":[1,3,5,7,-1,9,11,13,-1,15,17,-1,-1,-1,-1,-1,19,-1,21,23,-1,-1,-1,25,-1,-1,-1],"loss_changes":[3.393539E1,6.3882294E0,1.7336838E1,5.899906E0,0E0,4.9512424E0,2.5871696E0,1.066021E0,0E0,3.3443565E0,8.240228E0,0E0,0E0,0E0,0E0,0E0,2.7445621E0,0E0,2.268414E0,3.5121346E-1,0E0,0E0,0E0,3.5813365E0,0E0,0E0,0E0],"parents":[2147483647,0,0,1,1,2,2,3,3,5,5,6,6,7,7,9,9,10,10,16,16,18,18,19,19,23,23],"right_children":[2,4,6,8,-1,10,12,14,-1,16,18,-1,-1,-1,-1,-1,20,-1,22,24,-1,-1,-1,26,-1,-1,-1],"split_conditions":[4.7058824E-1,8.584392E-1,6.7822225E-2,7.87037E-2,-0E0,4.9551046E-1,3.933131E-1,8.406185E-1,5.3925123E-3,8.35924E-1,9.23445E-1,1.0785682E-2,5.892083E-2,6.934176E-2,3.414847E-2,1.3519391E-2,6.236181E-2,-2.887687E-2,3.9289588E-1,6.375E-1,3.9585466E-3,7.716541E-3,5.3948786E-2,9.364162E-1,-3.1478878E-2,1.40481135E-2,-3.0198341E-2],"split_indices":[14,3,16,10,0,8,6,7,0,2,2,0,0,0,0,0,16,0,4,11,0,0,0,2,0,0,0],"split_type":[0,0,0,0,0,0,0,0,0,0,0,0,0,0,0,0,0,0,0,0,0,0,0,0,0,0,0],"sum_hessian":[1.5872594E2,3.895737E1,1.1976857E2,3.1552351E1,7.405019E0,1.068793E2,1.2889267E1,2.5423695E1,6.128656E0,8.6592224E1,2.0287075E1,5.3865786E0,7.502689E0,1.8592112E1,6.831583E0,5.071875E0,8.152035E1,9.283459E0,1.1003617E1,7.4856804E1,6.6635447E0,5.9542394E0,5.049378E0,2.4829462E1,5.002734E1,5.0460024E0,1.978346E1],"tree_param":{"num_deleted":"0","num_feature":"17","num_nodes":"27","size_leaf_vector":"1"}},{"base_weights":[-3.1835225E-3,-2.4751954E-1,1.5581074E-1,-4.0164825E-1,-7.634382E-2,9.8739E-2,3.924237E-2,-2.843283E-1,-2.7920455E-2,3.7918088E-1,-3.2606965E-1,3.3432344E-1,-8.643016E-2,-4.1854647E-1,4.070721E-3,4.0685784E-2,-4.5971363E-3,-5.347981E-3,-2.3162706E-2,-2.6416901E-2,7.267667E-1,-2.09719E-1,2.0303175E-2,-2.6415948E-2,-9.39594E-3,2.465774E-2,-2.4021754E-1,3.6997348E-1,6.453662E-2,5.380942E-3,-2.8143603E-1,-2.341754E-3,-2.2828238E-2,-8.815027E-3,3.9248966E-2,-6.4933376E-4,-3.715866E-1,-7.394464E-3,-2.3392959E-2],"categories":[],"categories_nodes":[],"categories_segments":[],"categories_sizes":[],"default_left":[0,0,0,0,0,0,0,0,0,0,0,0,0,0,0,0,0,0,0,0,0,0,0,0,0,0,0,0,0,0,0,0,0,0,0,0,0,0,0],"id":22,"left_children":[1,3,5,7,9,11,-1,13,-1,15,17,19,21,23,-1,-1,-1,-1,-1,25,27,29,-1,-1,-1,-1,31,33,-1,-1,35,-1,-1,-1,-1,-1,37,-1,-1],"loss_changes":[6.0402193E0,1.5425661E0,3.202038E0,3.4158707E-1,3.6053202E0,3.8619149E0,0E0,1.0782365E0,0E0,2.4346719E0,5.0898147E-1,5.590977E0,3.0672526E0,2.194972E-1,0E0,0E0,0E0,0E0,0E0,2.4349716E0,3.1355114E0,9.6621096E-1,0E0,0E0,0E0,0E0,5.8697855E-1,3.1495938E0,0E0,0E0,7.663348E-1,0E0,0E0,0E0,0E0,0E0,4.0179086E-1,0E0,0E0],"parents":[2147483647,0,0,1,1,2,2,3,3,4,4,5,5,7,7,9,9,10,10,11,11,12,12,13,13,19,19,20,20,21,21,26,26,27,27,30,30,36,36],"right_children":[2,4,6,8,10,12,-1,14,-1,16,18,20,22,24,-1,-1,-1,-1,-1,26,28,30,-1,-1,-1,-1,32,34,-1,-1,36,-1,-1,-1,-1,-1,38,-1,-1],"split_conditions":[3.6572373E-1,4.7413793E-1,4.5041463E-1,4.4202127E-2,8.7539935E-1,5.46282E-1,3.924237E-2,5.35E-1,-2.7920455E-2,4.2971918E-1,-9.4597584E-1,4.4428904E-2,3.7E-1,8.49224E-1,4.070721E-3,4.0685784E-2,-4.5971363E-3,-5.347981E-3,-2.3162706E-2,5.3763443E-1,3.2829717E-1,8.158996E-1,2.0303175E-2,-2.6415948E-2,-9.39594E-3,2.465774E-2,4.2728624E-1,5.512195E-1,6.453662E-2,5.380942E-3,6.509434E-1,-2.341754E-3,-2.2828238E-2,-8.815027E-3,3.9248966E-2,-6.4933376E-4,-9.634672E-1,-7.394464E-3,-2.3392959E-2],"split_indices":[4,14,6,16,3,7,0,11,0,6,8,16,12,3,0,0,0,0,0,13,6,3,0,0,0,0,7,13,0,0,14,0,0,0,0,0,9,0,0],"split_type":[0,0,0,0,0,0,0,0,0,0,0,0,0,0,0,0,0,0,0,0,0,0,0,0,0,0,0,0,0,0,0,0,0,0,0,0,0,0,0],"sum_hessian":[1.532545E2,6.0441933E1,9.281257E1,3.0788754E1,2.965318E1,8.629873E1,6.5138397E0,1.9583858E1,1.1204893E1,1.0174696E1,1.9478483E1,3.7862324E1,4.8436405E1,1.442083E1,5.1630297E0,5.0250154E0,5.149681E0,8.46572E0,1.1012763E1,2.0081211E1,1.778111E1,3.936032E1,9.076084E0,8.602086E0,5.8187437E0,5.337019E0,1.4744193E1,1.2013868E1,5.767242E0,6.906233E0,3.245409E1,8.671687E0,6.072506E0,5.3309455E0,6.682923E0,8.725298E0,2.372879E1,8.21513E0,1.551366E1],"tree_param":{"num_deleted":"0","num_feature":"17","num_nodes":"39","size_leaf_vector":"1"}},{"base_weights":[-8.759925E-3,-5.5064104E-2,5.77141E-2,1.6025843E-1,-2.5449738E-1,-2.820985E-2,2.473419E-1,-1.7406581E-1,-3.0086428E-2,5.33808E-1,5.642805E-2,2.6279572E-2,-2.6357087E-1,8.092077E-2,8.6098826E-1,3.4730256E-1,-2.7478594E-1,-3.0802904E-2,-9.314506E-2,-2.7219033E-2,3.289959E-2,2.49706E-2,5.448806E-2,5.64766E-1,-1.386378E-2,1.1064882E-2,-3.0031402E-2,3.887363E-2,-2.4589823E-1,-0E0,4.0595945E-2,-1.9259403E-2,1.4143891E-2],"categories":[],"categories_nodes":[],"categories_segments":[],"categories_sizes":[],"default_left":[0,0,0,0,0,0,0,0,0,0,0,0,0,0,0,0,0,0,0,0,0,0,0,0,0,0,0,0,0,0,0,0,0],"id":23,"left_children":[1,3,-1,5,7,-1,9,11,-1,13,15,-1,17,19,21,23,25,-1,27,-1,-1,-1,-1,29,-1,-1,-1,-1,31,-1,-1,-1,-1],"loss_changes":[8.453795E0,6.613181E0,0E0,4.7676053E0,2.0511327E0,0E0,3.5616302E0,4.2812195E0,0E0,3.7432957E0,4.089801E0,0E0,3.4648814E0,4.80487E0,5.4398537E-1,3.2599473E0,3.363062E0,0E0,5.682202E0,0E0,0E0,0E0,0E0,2.4344683E0,0E0,0E0,0E0,0E0,2.7945375E0,0E0,0E0,0E0,0E0],"parents":[2147483647,0,0,1,1,3,3,4,4,6,6,7,7,9,9,10,10,12,12,13,13,14,14,15,15,16,16,18,18,23,23,28,28],"right_children":[2,4,-1,6,8,-1,10,12,-1,14,16,-1,18,20,22,24,26,-1,28,-1,-1,-1,-1,30,-1,-1,-1,-1,32,-1,-1,-1,-1],"split_conditions":[8.5459775E-1,-7.809656E-1,5.77141E-2,3.18E2,1.448718E-1,-2.820985E-2,4.1775867E-1,4.5490196E-1,-3.0086428E-2,-8.7931335E-1,4.26E2,2.6279572E-2,3.3453605E-1,8.926746E-1,-8.38499E-1,9.364162E-1,-9.999024E-1,-3.0802904E-2,5.8092487E-1,-2.7219033E-2,3.289959E-2,2.49706E-2,5.448806E-2,4.2601904E-1,-1.386378E-2,1.1064882E-2,-3.0031402E-2,3.887363E-2,5.4078948E-2,-0E0,4.0595945E-2,-1.9259403E-2,1.4143891E-2],"split_indices":[7,9,0,0,5,0,4,14,0,9,0,0,4,2,9,2,9,0,14,0,0,0,0,4,0,0,0,0,16,0,0,0,0],"split_type":[0,0,0,0,0,0,0,0,0,0,0,0,0,0,0,0,0,0,0,0,0,0,0,0,0,0,0,0,0,0,0,0,0],"sum_hessian":[1.5683794E2,1.518317E2,5.0062375E0,7.286086E1,7.897083E1,7.1073165E0,6.575355E1,6.557137E1,1.339946E1,2.5368406E1,4.038514E1,6.7576513E0,5.881372E1,1.1291513E1,1.4076894E1,2.1636848E1,1.8748291E1,1.8124899E1,4.0688824E1,5.363309E0,5.928204E0,6.8579707E0,7.218923E0,1.6238764E1,5.398084E0,7.438053E0,1.1310238E1,5.365237E0,3.5323586E1,5.204773E0,1.1033992E1,2.8323336E1,7.0002494E0],"tree_param":{"num_deleted":"0","num_feature":"17","num_nodes":"33","size_leaf_vector":"1"}},{"base_weights":[2.9693961E-2,-1.5880992E-1,8.0892664E-1,-5.000387E-1,1.7621242E-2,5.4910567E-2,2.4800766E-1,-5.731963E-1,-2.516084E-1,-1.8546669E-1,6.138111E-1,-0E0,2.4915285E-2,-1.4953441E-2,-3.0432148E-2,-2.659188E-2,4.352172E-3,-2.5574896E-1,1.1840207E-2,-9.378071E-3,1.1605992E0,-1.1548539E-1,-4.432898E-1,3.492593E-2,6.803117E-2,-4.2773765E-1,1.2888758E-1,-2.9979756E-2,-1.8614505E-3,-4.723579E-3,-2.8801514E-2,2.3688024E-2,-3.8758635E-3],"categories":[],"categories_nodes":[],"categories_segments":[],"categories_sizes":[],"default_left":[0,0,0,0,0,0,0,0,0,0,0,0,0,0,0,0,0,0,0,0,0,0,0,0,0,0,0,0,0,0,0,0,0],"id":24,"left_children":[1,3,5,7,9,-1,11,13,15,17,19,-1,-1,-1,-1,-1,-1,21,-1,-1,23,25,27,-1,-1,29,31,-1,-1,-1,-1,-1,-1],"loss_changes":[2.3211674E1,7.697677E0,4.5894547E0,5.6357193E-1,1.0379501E1,0E0,7.839131E-1,4.2977333E-2,1.2281618E0,1.9506071E0,9.8717985E0,0E0,0E0,0E0,0E0,0E0,0E0,1.3456731E0,0E0,0E0,6.16436E-2,2.6224325E0,1.372108E0,0E0,0E0,6.203494E-1,1.4461291E0,0E0,0E0,0E0,0E0,0E0,0E0],"parents":[2147483647,0,0,1,1,2,2,3,3,4,4,6,6,7,7,8,8,9,9,10,10,17,17,20,20,21,21,22,22,25,25,26,26],"right_children":[2,4,6,8,10,-1,12,14,16,18,20,-1,-1,-1,-1,-1,-1,22,-1,-1,24,26,28,-1,-1,30,32,-1,-1,-1,-1,-1,-1],"split_conditions":[9.575163E-1,5.8092487E-1,2.810342E-1,8.695652E-2,2.3448491E-1,5.4910567E-2,9.720169E-3,-8.193255E-1,4.3968096E-1,8.6564624E-1,7.920792E-2,-0E0,2.4915285E-2,-1.4953441E-2,-3.0432148E-2,-2.659188E-2,4.352172E-3,4.2579654E-1,1.1840207E-2,-9.378071E-3,6.4309764E-1,4.0694407E-1,7.608069E-1,3.492593E-2,6.803117E-2,7.954545E-2,4.159078E-1,-2.9979756E-2,-1.8614505E-3,-4.723579E-3,-2.8801514E-2,2.3688024E-2,-3.8758635E-3],"split_indices":[2,14,6,10,8,0,16,9,6,3,5,0,0,0,0,0,0,4,0,0,14,4,14,0,0,5,4,0,0,0,0,0,0],"split_type":[0,0,0,0,0,0,0,0,0,0,0,0,0,0,0,0,0,0,0,0,0,0,0,0,0,0,0,0,0,0,0,0,0],"sum_hessian":[1.5570535E2,1.2591352E2,2.9791824E1,4.248245E1,8.3431076E1,1.890548E1,1.0886345E1,3.149733E1,1.098512E1,6.2620884E1,2.0810188E1,5.785001E0,5.1013436E0,5.0100784E0,2.6487251E1,5.860489E0,5.124631E0,5.422663E1,8.394255E0,8.632496E0,1.2177692E1,3.2253178E1,2.1973452E1,5.187057E0,6.9906354E0,1.4010217E1,1.824296E1,1.5344136E1,6.6293154E0,5.0261283E0,8.984089E0,6.5268E0,1.171616E1],"tree_param":{"num_deleted":"0","num_feature":"17","num_nodes":"33","size_leaf_vector":"1"}},{"base_weights":[2.8070481E-3,6.2618434E-1,-1.5145543E-1,9.264709E-1,-2.8741842E-2,-2.7079952E-1,7.579624E-1,6.1606318E-2,1.7791811E-2,-3.08194E-2,-1.08371906E-1,9.090005E-3,5.4209597E-2,-4.647891E-1,1.5607981E-1,-1.6099338E-1,-3.0181712E-2,5.0429698E-2,-6.909167E-2,1.4351015E-2,-2.721237E-2,-2.9010061E-2,1.8730862E-1,4.80799E-2,-1.4266806E-2],"categories":[],"categories_nodes":[],"categories_segments":[],"categories_sizes":[],"default_left":[0,0,0,0,0,0,0,0,0,0,0,0,0,0,0,0,0,0,0,0,0,0,0,0,0],"id":25,"left_children":[1,3,5,7,-1,9,11,-1,-1,-1,13,-1,-1,15,17,19,-1,-1,21,-1,-1,-1,23,-1,-1],"loss_changes":[1.4846602E1,1.1623944E1,1.3533594E1,3.7586803E0,0E0,6.023485E0,2.3950129E0,0E0,0E0,0E0,7.27585E0,0E0,0E0,1.210918E0,8.6620455E0,2.2227738E0,0E0,0E0,4.8479447E0,0E0,0E0,0E0,9.311379E0,0E0,0E0],"parents":[2147483647,0,0,1,1,2,2,3,3,5,5,6,6,10,10,13,13,14,14,15,15,18,18,22,22],"right_children":[2,4,6,8,-1,10,12,-1,-1,-1,14,-1,-1,16,18,20,-1,-1,22,-1,-1,-1,24,-1,-1],"split_conditions":[4.5874587E-1,8.49224E-1,6.781759E-2,5.35E-1,-2.8741842E-2,3.99E2,6.067459E-1,6.1606318E-2,1.7791811E-2,-3.08194E-2,3.935984E-1,9.090005E-3,5.4209597E-2,3.1927654E-1,6.925E-1,3.5598913E-1,-3.0181712E-2,5.0429698E-2,4.2224202E-1,1.4351015E-2,-2.721237E-2,-2.9010061E-2,4.271637E-1,4.80799E-2,-1.4266806E-2],"split_indices":[14,3,16,11,0,0,7,0,0,0,4,0,0,4,11,7,0,0,4,0,0,0,4,0,0],"split_type":[0,0,0,0,0,0,0,0,0,0,0,0,0,0,0,0,0,0,0,0,0,0,0,0,0],"sum_hessian":[1.5190892E2,2.965631E1,1.2225261E2,2.3974035E1,5.682273E0,1.0878835E2,1.3464251E1,1.4742746E1,9.231289E0,3.369239E1,7.509596E1,5.541346E0,7.9229045E0,3.1824625E1,4.327134E1,1.0885878E1,2.0938747E1,8.40695E0,3.486439E1,5.014377E0,5.8715E0,1.1355475E1,2.3508915E1,8.599021E0,1.4909895E1],"tree_param":{"num_deleted":"0","num_feature":"17","num_nodes":"25","size_leaf_vector":"1"}},{"base_weights":[-2.621729E-2,4.3246263E-1,-1.5153846E-1,6.107859E-1,1.3366754E-1,-3.9354348E-1,-6.30429E-2,3.4519067E-1,5.8413085E-2,-1.219437E-2,2.1568133E-2,-1.7081675E-1,-5.0132585E-1,2.999067E-1,-1.8235405E-1,-1.5835554E-3,2.857821E-2,-1.89412E-2,4.444896E-3,-1.3801153E-2,-2.7676983E-2,3.0305484E-2,3.466138E-2,-7.914088E-2,-2.6244758E-2,1.831001E-2,-1.7607087E-2,4.5859016E-2,-2.5503868E-2,2.9391944E-1,-2.0077194E-1,-2.824967E-4,5.0361443E-2,-3.9538625E-3,-2.0172529E-2],"categories":[],"categories_nodes":[],"categories_segments":[],"categories_sizes":[],"default_left":[0,0,0,0,0,0,0,0,0,0,0,0,0,0,0,0,0,0,0,0,0,0,0,0,0,0,0,0,0,0,0,0,0,0,0],"id":26,"left_children":[1,3,5,7,9,11,13,15,-1,-1,-1,17,19,21,23,-1,-1,-1,-1,-1,-1,25,-1,27,-1,-1,-1,29,-1,31,33,-1,-1,-1,-1],"loss_changes":[9.063228E0,1.6439395E0,2.5902057E0,2.5053692E0,1.7105535E0,6.338825E-1,4.046958E0,1.3977269E0,0E0,0E0,0E0,7.3831606E-1,1.4419556E-2,2.350447E0,2.387636E0,0E0,0E0,0E0,0E0,0E0,0E0,2.040611E0,0E0,3.0601933E0,0E0,0E0,0E0,2.7461252E0,0E0,4.898728E0,4.7085923E-1,0E0,0E0,0E0,0E0],"parents":[2147483647,0,0,1,1,2,2,3,3,4,4,5,5,6,6,7,7,11,11,12,12,13,13,14,14,21,21,23,23,27,27,29,29,30,30],"right_children":[2,4,6,8,10,12,14,16,-1,-1,-1,18,20,22,24,-1,-1,-1,-1,-1,-1,26,-1,28,-1,-1,-1,30,-1,32,34,-1,-1,-1,-1],"split_conditions":[3.76E2,-2.0696245E-1,4.7413793E-1,3.2829717E-1,3.45E-1,1.29771E-1,6.356275E-1,5.7475084E-1,5.8413085E-2,-1.219437E-2,2.1568133E-2,2.7999762E-1,8.111589E-1,3.1011236E-1,2.1478917E-1,-1.5835554E-3,2.857821E-2,-1.89412E-2,4.444896E-3,-1.3801153E-2,-2.7676983E-2,4.763359E-2,3.466138E-2,1.0769231E-1,-2.6244758E-2,1.831001E-2,-1.7607087E-2,-7.622572E-1,-2.5503868E-2,3.1997304E-2,9.378137E-1,-2.824967E-4,5.0361443E-2,-3.9538625E-3,-2.0172529E-2],"split_indices":[0,8,14,6,12,5,14,13,0,0,0,8,7,13,8,0,0,0,0,0,0,16,0,5,0,0,0,9,0,1,14,0,0,0,0],"split_type":[0,0,0,0,0,0,0,0,0,0,0,0,0,0,0,0,0,0,0,0,0,0,0,0,0,0,0,0,0,0,0,0,0,0,0],"sum_hessian":[1.560185E2,3.278295E1,1.2323554E2,1.9666805E1,1.3116147E1,3.1772263E1,9.146328E1,1.4538763E1,5.1280427E0,5.7140617E0,7.402085E0,1.1506759E1,2.0265503E1,2.204615E1,6.941713E1,5.61289E0,8.925873E0,6.348569E0,5.1581903E0,5.355989E0,1.4909514E1,1.3870163E1,8.175988E0,5.451412E1,1.4903009E1,7.5463395E0,6.3238235E0,4.276964E1,1.1744477E1,2.142958E1,2.1340061E1,1.5691493E1,5.7380877E0,1.4510843E1,6.8292184E0],"tree_param":{"num_deleted":"0","num_feature":"17","num_nodes":"35","size_leaf_vector":"1"}},{"base_weights":[2.7246015E-2,-3.7983012E-1,1.9697459E-1,-5.044208E-1,2.0360922E-2,7.1137935E-1,9.4515055E-2,-5.771358E-1,-0E0,-1.7117653E-3,1.0327235E0,3.4362036E-1,-9.5570885E-2,-3.0970616E-2,-1.2571952E-2,6.22728E-2,2.7698517E-2,-2.7048413E-2,4.939339E-1,4.8159875E-2,-2.3560427E-1,-1.5218295E-2,6.552399E-1,-4.7450966E-1,1.865217E-1,8.980712E-1,2.8213596E-3,-5.602193E-1,-4.9751033E-3,5.741976E-1,-2.7412385E-2,3.28612E-2,6.425043E-2,-3.1019172E-2,-1.1899282E-2,5.6949E-2,-3.1572727E-3],"categories":[],"categories_nodes":[],"categories_segments":[],"categories_sizes":[],"default_left":[0,0,0,0,0,0,0,0,0,0,0,0,0,0,0,0,0,0,0,0,0,0,0,0,0,0,0,0,0,0,0,0,0,0,0,0,0],"id":27,"left_children":[1,3,5,7,-1,9,11,13,-1,-1,15,17,19,-1,-1,-1,-1,-1,21,-1,23,-1,25,27,29,31,-1,33,-1,35,-1,-1,-1,-1,-1,-1,-1],"loss_changes":[1.139583E1,4.967149E0,6.000655E0,1.5791073E0,0E0,4.70222E0,4.7262964E0,2.6836014E-1,0E0,0E0,4.99547E-1,5.995774E0,8.527672E0,0E0,0E0,0E0,0E0,0E0,5.0602093E0,0E0,5.237071E0,0E0,4.4484215E0,9.3422556E-1,5.7052193E0,1.0389538E0,0E0,2.7654934E-1,0E0,4.844302E0,0E0,0E0,0E0,0E0,0E0,0E0,0E0],"parents":[2147483647,0,0,1,1,2,2,3,3,5,5,6,6,7,7,10,10,11,11,12,12,18,18,20,20,22,22,23,23,24,24,25,25,27,27,29,29],"right_children":[2,4,6,8,-1,10,12,14,-1,-1,16,18,20,-1,-1,-1,-1,-1,22,-1,24,-1,26,28,30,32,-1,34,-1,36,-1,-1,-1,-1,-1,-1,-1],"split_conditions":[1.010101E-2,3.8045782E-1,2.3221506E-2,5.4078948E-2,2.0360922E-2,3.69E2,2.0500927E-1,4.2758986E-1,-0E0,-1.7117653E-3,9.0384614E-1,3.1178954E-1,2.7975887E-1,-3.0970616E-2,-1.2571952E-2,6.22728E-2,2.7698517E-2,-2.7048413E-2,2.475581E-2,4.8159875E-2,8.5884356E-1,-1.5218295E-2,3.1997304E-2,3.25E-1,6.1318684E-1,8.390411E-1,2.8213596E-3,3.983059E-1,-4.9751033E-3,4.0378365E-1,-2.7412385E-2,3.28612E-2,6.425043E-2,-3.1019172E-2,-1.1899282E-2,5.6949E-2,-3.1572727E-3],"split_indices":[12,6,1,16,0,0,8,4,0,0,11,4,4,0,0,0,0,0,1,0,3,0,1,12,14,3,0,4,0,6,0,0,0,0,0,0,0],"split_type":[0,0,0,0,0,0,0,0,0,0,0,0,0,0,0,0,0,0,0,0,0,0,0,0,0,0,0,0,0,0,0,0,0,0,0,0,0],"sum_hessian":[1.6311775E2,4.746085E1,1.15656906E2,4.139425E1,6.066602E0,1.8061077E1,9.7595825E1,3.612532E1,5.268928E0,5.6149607E0,1.2446116E1,4.2118465E1,5.5477364E1,3.0904922E1,5.220399E0,7.363734E0,5.082382E0,5.6433554E0,3.647511E1,5.7103014E0,4.9767063E1,5.8780317E0,3.0597076E1,3.1852627E1,1.7914434E1,2.129482E1,9.302257E0,2.5307858E1,6.54477E0,1.1959203E1,5.9552326E0,1.494768E1,6.34714E0,2.0284878E1,5.0229793E0,6.006426E0,5.9527764E0],"tree_param":{"num_deleted":"0","num_feature":"17","num_nodes":"37","size_leaf_vector":"1"}},{"base_weights":[1.8341204E-2,-1.8082118E-1,8.6422503E-1,-5.601869E-1,-6.1007164E-2,7.352419E-3,5.2138474E-2,-1.4222953E-2,-3.0031247E-2,2.3505537E-2,-4.4910967E-1,-7.291762E-2,5.697255E-1,-2.920707E-2,-3.9222855E-3,4.04303E-1,-1.6706528E-1,8.164584E-3,4.65426E-2,9.419978E-4,3.6032103E-2,-3.495411E-5,-3.0205801E-2,-1.437262E-2,8.530537E-3],"categories":[],"categories_nodes":[],"categories_segments":[],"categories_sizes":[],"default_left":[0,0,0,0,0,0,0,0,0,0,0,0,0,0,0,0,0,0,0,0,0,0,0,0,0],"id":28,"left_children":[1,3,5,7,9,-1,-1,-1,-1,11,13,15,17,-1,-1,19,21,-1,-1,-1,-1,23,-1,-1,-1],"loss_changes":[2.6085926E1,5.5846686E0,3.5081673E0,7.1528435E-2,3.2119823E0,0E0,0E0,0E0,0E0,4.295468E0,7.629695E-1,3.125015E0,1.536E0,0E0,0E0,1.3046926E0,4.1853848E0,0E0,0E0,0E0,0E0,2.1817522E0,0E0,0E0,0E0],"parents":[2147483647,0,0,1,1,2,2,3,3,4,4,9,9,10,10,11,11,12,12,15,15,16,16,21,21],"right_children":[2,4,6,8,10,-1,-1,-1,-1,12,14,16,18,-1,-1,20,22,-1,-1,-1,-1,24,-1,-1,-1],"split_conditions":[9.575163E-1,4.818653E-1,6.3352275E-1,1.7426383E-1,1E0,7.352419E-3,5.2138474E-2,-1.4222953E-2,-3.0031247E-2,9.775E-1,4E-1,4.325E-1,4.06E2,-2.920707E-2,-3.9222855E-3,2.929293E-1,-7.0063335E-1,8.164584E-3,4.65426E-2,9.419978E-4,3.6032103E-2,3.6363637E-1,-3.0205801E-2,-1.437262E-2,8.530537E-3],"split_indices":[2,14,13,8,11,0,0,0,0,11,12,11,0,0,0,11,9,0,0,0,0,13,0,0,0],"split_type":[0,0,0,0,0,0,0,0,0,0,0,0,0,0,0,0,0,0,0,0,0,0,0,0,0],"sum_hessian":[1.5250854E2,1.2398454E2,2.8524006E1,2.867647E1,9.5308075E1,6.1608415E0,2.2363165E1,5.011658E0,2.3664812E1,7.882501E1,1.6483063E1,6.757887E1,1.1246139E1,1.1461834E1,5.021228E0,1.0417514E1,5.7161358E1,6.1046624E0,5.141476E0,5.315808E0,5.1017056E0,4.224516E1,1.49162E1,1.5701214E1,2.6543945E1],"tree_param":{"num_deleted":"0","num_feature":"17","num_nodes":"25","size_leaf_vector":"1"}},{"base_weights":[3.9418254E-2,-1.6296995E-1,6.6703784E-1,-3.7952793E-1,7.3550336E-2,2.572139E-1,9.532641E-1,-5.2515155E-1,2.5184354E-2,5.1639193E-1,-4.2536038E-1,6.8622077E-1,-2.728699E-2,5.7745315E-2,1.1919796E-2,-3.0857325E-2,-1.2358734E-3,7.4656093E-1,-2.5771085E-2,1.38573665E-2,-3.0258466E-2,1.047928E-2,5.2231647E-2,1.998163E-1,5.816822E-2,-2.732834E-2,5.3235006E-2],"categories":[],"categories_nodes":[],"categories_segments":[],"categories_sizes":[],"default_left":[0,0,0,0,0,0,0,0,0,0,0,0,0,0,0,0,0,0,0,0,0,0,0,0,0,0,0],"id":29,"left_children":[1,3,5,7,9,11,13,15,-1,17,19,21,-1,-1,-1,-1,-1,23,-1,-1,-1,-1,-1,25,-1,-1,-1],"loss_changes":[1.9504091E1,5.9920287E0,4.027008E0,8.093839E0,1.2598315E1,6.2150145E0,2.6900253E0,2.3526955E0,0E0,7.5843563E0,3.5818744E0,1.6284523E0,0E0,0E0,0E0,0E0,0E0,5.372573E0,0E0,0E0,0E0,0E0,0E0,8.51533E0,0E0,0E0,0E0],"parents":[2147483647,0,0,1,1,2,2,3,3,4,4,5,5,6,6,7,7,9,9,10,10,11,11,17,17,23,23],"right_children":[2,4,6,8,10,12,14,16,-1,18,20,22,-1,-1,-1,-1,-1,24,-1,-1,-1,-1,-1,26,-1,-1,-1],"split_conditions":[1.3541667E-1,3.240083E-2,3.233412E-2,6.7822225E-2,-5.708615E-1,2.7374057E-2,8.522167E-1,1.8693693E-1,2.5184354E-2,2.4038461E-1,7.149256E-2,1.71875E-1,-2.728699E-2,5.7745315E-2,1.1919796E-2,-3.0857325E-2,-1.2358734E-3,5.641454E-1,-2.5771085E-2,1.38573665E-2,-3.0258466E-2,1.047928E-2,5.2231647E-2,5.7475084E-1,5.816822E-2,-2.732834E-2,5.3235006E-2],"split_indices":[5,1,1,16,9,1,3,10,0,12,6,5,0,0,0,0,0,7,0,0,0,0,0,13,0,0,0],"split_type":[0,0,0,0,0,0,0,0,0,0,0,0,0,0,0,0,0,0,0,0,0,0,0,0,0,0,0],"sum_hessian":[1.5129532E2,1.14842964E2,3.645235E1,5.985651E1,5.4986454E1,1.5914167E1,2.0538185E1,5.182954E1,8.026971E0,2.9217714E1,2.576874E1,1.05482855E1,5.365882E0,1.5430329E1,5.107855E0,4.3415417E1,8.414121E0,2.4194065E1,5.023649E0,5.0277987E0,2.074094E1,5.3273997E0,5.220886E0,1.1209394E1,1.298467E1,6.152389E0,5.0570054E0],"tree_param":{"num_deleted":"0","num_feature":"17","num_nodes":"27","size_leaf_vector":"1"}},{"base_weights":[4.86148E-3,3.6455733E-1,-9.542463E-2,-1.5353273E-2,5.16178E-1,-2.6172915E-2,-5.7543125E-2,6.3421196E-1,-0E0,1.5035151E-2,-2.6917455E-1,2.9825363E-1,4.9723133E-2,3.1006187E-2,-5.0917532E-2,-4.8642266E-1,-0E0,3.4503823E-3,2.626701E-2,2.2462144E-2,-1.2876223E-1,-1.4633234E-2,-2.8652448E-2,1.9290043E-2,-1.3990168E-2,2.7070552E-2,-4.1121688E-1,-9.430609E-3,1.1958522E-2,-2.5084017E-2,-6.1338674E-3],"categories":[],"categories_nodes":[],"categories_segments":[],"categories_sizes":[],"default_left":[0,0,0,0,0,0,0,0,0,0,0,0,0,0,0,0,0,0,0,0,0,0,0,0,0,0,0,0,0,0,0],"id":30,"left_children":[1,3,5,-1,7,-1,9,11,-1,13,15,17,-1,-1,19,21,23,-1,-1,-1,25,-1,-1,-1,-1,27,29,-1,-1,-1,-1],"loss_changes":[5.587032E0,3.6233578E0,1.8632504E0,0E0,1.7159243E0,0E0,1.7483169E0,2.3421135E0,0E0,3.437662E0,1.7100928E0,6.022234E-1,0E0,0E0,3.0023868E0,1.5991926E-2,1.6095428E0,0E0,0E0,0E0,3.0032005E0,0E0,0E0,0E0,0E0,2.0609744E0,5.06361E-1,0E0,0E0,0E0,0E0],"parents":[2147483647,0,0,1,1,2,2,4,4,6,6,7,7,9,9,10,10,11,11,14,14,15,15,16,16,20,20,25,25,26,26],"right_children":[2,4,6,-1,8,-1,10,12,-1,14,16,18,-1,-1,20,22,24,-1,-1,-1,26,-1,-1,-1,-1,28,30,-1,-1,-1,-1],"split_conditions":[3.76E2,9.067357E-2,3.895131E-1,-1.5353273E-2,8.604526E-1,-2.6172915E-2,5.897436E-1,2.2511201E-2,-0E0,3.096815E-1,8.9180326E-1,9.45E-1,4.9723133E-2,3.1006187E-2,5.46282E-1,-6.4861387E-1,9.378137E-1,3.4503823E-3,2.626701E-2,2.2462144E-2,6.509434E-1,-1.4633234E-2,-2.8652448E-2,1.9290043E-2,-1.3990168E-2,5.35E-1,2.9E-1,-9.430609E-3,1.1958522E-2,-2.5084017E-2,-6.1338674E-3],"split_indices":[0,10,14,0,14,0,13,1,0,6,14,11,0,0,7,8,14,0,0,0,14,0,0,0,0,11,12,0,0,0,0],"split_type":[0,0,0,0,0,0,0,0,0,0,0,0,0,0,0,0,0,0,0,0,0,0,0,0,0,0,0,0,0,0,0],"sum_hessian":[1.5217297E2,3.2819904E1,1.19353065E2,5.734309E0,2.7085596E1,8.447238E0,1.1090582E2,2.1870403E1,5.215193E0,8.292382E1,2.7982006E1,1.2406234E1,9.464169E0,7.473277E0,7.545055E1,1.5102575E1,1.287943E1,7.0417576E0,5.3644767E0,9.3459835E0,6.610456E1,6.375433E0,8.727142E0,5.3021746E0,7.5772557E0,4.2955658E1,2.3148903E1,2.1119085E1,2.183657E1,1.6797318E1,6.351584E0],"tree_param":{"num_deleted":"0","num_feature":"17","num_nodes":"31","size_leaf_vector":"1"}},{"base_weights":[7.283758E-3,2.8751338E-1,-2.554839E-1,-2.7056579E-2,3.599229E-1,-3.71049E-1,5.8457576E-2,6.2347718E-2,2.2118899E-1,-4.585953E-1,4.033729E-3,4.0084863E-1,-2.7626915E-2,1.0352819E-1,4.367414E-2,-2.1214417E-1,-5.670523E-1,4.4281925E-3,4.125228E-2,3.0533284E-1,-4.8016724E-1,-4.484299E-1,1.36062745E-2,-3.0799443E-2,-1.1838522E-2,4.2727503E-1,-1.5931403E-2,-2.8495422E-2,-1.2863169E-2,-1.1767937E-2,-2.758324E-2,-8.862517E-4,4.0599223E-2],"categories":[],"categories_nodes":[],"categories_segments":[],"categories_sizes":[],"default_left":[0,0,0,0,0,0,0,0,0,0,0,0,0,0,0,0,0,0,0,0,0,0,0,0,0,0,0,0,0,0,0,0,0],"id":31,"left_children":[1,3,5,-1,7,9,11,-1,13,15,-1,17,-1,19,-1,21,23,-1,-1,25,27,29,-1,-1,-1,31,-1,-1,-1,-1,-1,-1,-1],"loss_changes":[1.1558922E1,4.743649E0,2.985146E0,0E0,8.278967E0,2.4255648E0,4.8875356E0,0E0,4.6055717E0,1.1416683E0,0E0,1.825942E0,0E0,6.510978E0,0E0,2.1075783E0,3.1727695E-1,0E0,0E0,3.2664404E0,5.4329872E-2,5.7063818E-2,0E0,0E0,0E0,6.061174E0,0E0,0E0,0E0,0E0,0E0,0E0,0E0],"parents":[2147483647,0,0,1,1,2,2,4,4,5,5,6,6,8,8,9,9,11,11,13,13,15,15,16,16,19,19,20,20,21,21,25,25],"right_children":[2,4,6,-1,8,10,12,-1,14,16,-1,18,-1,20,-1,22,24,-1,-1,26,28,30,-1,-1,-1,32,-1,-1,-1,-1,-1,-1,-1],"split_conditions":[-7.8884125E-1,-4.6836525E-1,5.667029E-1,-2.7056579E-2,-4.4322297E-1,4.1524E-1,5.8092487E-1,6.2347718E-2,-8.4861577E-1,-6.4161E-1,4.033729E-3,8.685121E-1,-2.7626915E-2,2.0500927E-1,4.367414E-2,7.240271E-1,7.9012066E-1,4.4281925E-3,4.125228E-2,3.233412E-2,4.276865E-1,-5.286501E-1,1.36062745E-2,-3.0799443E-2,-1.1838522E-2,2.475581E-2,-1.5931403E-2,-2.8495422E-2,-1.2863169E-2,-1.1767937E-2,-2.758324E-2,-8.862517E-4,4.0599223E-2],"split_indices":[9,8,8,0,8,4,14,0,9,9,0,2,0,8,0,7,13,0,0,1,4,8,0,0,0,1,0,0,0,0,0,0,0],"split_type":[0,0,0,0,0,0,0,0,0,0,0,0,0,0,0,0,0,0,0,0,0,0,0,0,0,0,0,0,0,0,0,0,0],"sum_hessian":[1.5493428E2,7.51145E1,7.981977E1,5.405091E0,6.970941E1,5.8442947E1,2.1376823E1,8.250266E0,6.1459145E1,4.9127876E1,9.315071E0,1.4025049E1,7.3517747E0,5.3178772E1,8.280372E0,1.6198172E1,3.2929707E1,8.910125E0,5.114924E0,3.9998173E1,1.3180598E1,1.1074961E1,5.1232114E0,2.7663157E1,5.266549E0,3.3856922E1,6.141252E0,7.967507E0,5.213092E0,5.001218E0,6.073743E0,1.602014E1,1.7836782E1],"tree_param":{"num_deleted":"0","num_feature":"17","num_nodes":"33","size_leaf_vector":"1"}},{"base_weights":[-0E0,-2.7870625E-1,4.276267E-1,-4.6903232E-1,-1.6282389E-2,7.5541097E-1,1.24380656E-1,-5.2837133E-1,-2.4537453E-3,3.8302734E-1,-3.6986887E-1,1.8962556E-2,8.7989986E-1,3.850487E-1,-2.3131784E-2,-5.6963646E-1,-3.5816258E-1,4.8406716E-2,5.7755753E-2,-2.5781194E-2,2.2960182E-3,5.869744E-2,6.0857487E-1,1.8463212E-1,4.324568E-2,-1.5228656E-2,-3.0080382E-2,-3.6602218E-3,-2.66828E-2,2.9576024E-2,-2.7297009E-2,-0E0,4.9556218E-2,3.3694923E-2,-6.933967E-2,9.831844E-3,-1.719727E-2],"categories":[],"categories_nodes":[],"categories_segments":[],"categories_sizes":[],"default_left":[0,0,0,0,0,0,0,0,0,0,0,0,0,0,0,0,0,0,0,0,0,0,0,0,0,0,0,0,0,0,0,0,0,0,0,0,0],"id":32,"left_children":[1,3,5,7,9,11,13,15,-1,17,19,-1,21,23,-1,25,27,-1,29,-1,-1,-1,31,33,-1,-1,-1,-1,-1,-1,-1,-1,-1,-1,35,-1,-1],"loss_changes":[1.80989E1,4.530972E0,5.778221E0,1.2364988E0,5.7689295E0,8.730717E-1,5.1437635E0,2.7038574E-2,0E0,3.4728706E0,1.3908689E0,0E0,7.369261E-1,1.9638133E0,0E0,2.2274017E-2,5.085193E-1,0E0,4.657145E0,0E0,0E0,0E0,2.9294915E0,2.3144493E0,0E0,0E0,0E0,0E0,0E0,0E0,0E0,0E0,0E0,0E0,9.9283177E-1,0E0,0E0],"parents":[2147483647,0,0,1,1,2,2,3,3,4,4,5,5,6,6,7,7,9,9,10,10,12,12,13,13,15,15,16,16,18,18,22,22,23,23,34,34],"right_children":[2,4,6,8,10,12,14,16,-1,18,20,-1,22,24,-1,26,28,-1,30,-1,-1,-1,32,34,-1,-1,-1,-1,-1,-1,-1,-1,-1,-1,36,-1,-1],"split_conditions":[7.560074E-1,3.5130435E-1,4.2E-1,9.825E-1,6.875E-1,7.965645E-2,-7.0063335E-1,8.59375E-2,-2.4537453E-3,-9.0720475E-1,1.01960786E-1,1.8962556E-2,9.020208E-1,8.443272E-2,-2.3131784E-2,-8.424065E-1,3.030303E-1,4.8406716E-2,6.1538464E-1,-2.5781194E-2,2.2960182E-3,5.869744E-2,9.4057906E-1,3.28E2,4.324568E-2,-1.5228656E-2,-3.0080382E-2,-3.6602218E-3,-2.66828E-2,2.9576024E-2,-2.7297009E-2,-0E0,4.9556218E-2,3.3694923E-2,5.8333334E-2,9.831844E-3,-1.719727E-2],"split_indices":[14,13,11,11,14,1,9,10,0,9,5,0,14,5,0,9,12,0,11,0,0,0,14,0,0,0,0,0,0,0,0,0,0,0,5,0,0],"split_type":[0,0,0,0,0,0,0,0,0,0,0,0,0,0,0,0,0,0,0,0,0,0,0,0,0,0,0,0,0,0,0,0,0,0,0,0,0],"sum_hessian":[1.498036E2,9.084183E1,5.8961773E1,5.197672E1,3.8865112E1,2.745947E1,3.1502304E1,4.5106937E1,6.8697834E0,1.8080496E1,2.0784615E1,8.033853E0,1.942562E1,2.2171383E1,9.330921E0,3.3943527E1,1.1163408E1,5.644035E0,1.24364605E1,1.5390033E1,5.3945823E0,7.549044E0,1.18765745E1,1.6763304E1,5.408078E0,5.123171E0,2.8820356E1,5.012042E0,6.151366E0,6.699147E0,5.7373137E0,5.0395722E0,6.8370023E0,5.2977366E0,1.1465568E1,5.7835402E0,5.6820273E0],"tree_param":{"num_deleted":"0","num_feature":"17","num_nodes":"37","size_leaf_vector":"1"}},{"base_weights":[1.3292654E-2,8.5436344E-1,-2.4493442E-1,9.987493E-1,5.3940075E-3,-3.076701E-1,2.803698E-2,1.167281E0,8.029042E-3,-9.798595E-2,-3.072541E-2,6.5469876E-2,3.3567093E-2,1.5650144E-1,-2.9914906E-2,5.831284E-2,-1.76697E-1,-4.34383E-1,4.264479E-2,3.725705E-4,-2.9999077E-2],"categories":[],"categories_nodes":[],"categories_segments":[],"categories_sizes":[],"default_left":[0,0,0,0,0,0,0,0,0,0,0,0,0,0,0,0,0,0,0,0,0],"id":33,"left_children":[1,3,5,7,-1,9,-1,11,-1,13,-1,-1,-1,15,-1,-1,17,19,-1,-1,-1],"loss_changes":[3.2836617E1,3.6117668E0,5.980546E0,3.8530369E0,0E0,6.806428E0,0E0,6.3829803E-1,0E0,8.469998E0,0E0,0E0,0E0,1.5121337E1,0E0,0E0,9.324087E0,2.1020412E0,0E0,0E0,0E0],"parents":[2147483647,0,0,1,1,2,2,3,3,5,5,7,7,9,9,13,13,16,16,17,17],"right_children":[2,4,6,8,-1,10,-1,12,-1,14,-1,-1,-1,16,-1,-1,18,20,-1,-1,-1],"split_conditions":[4.7058824E-1,7.87037E-2,6.7822225E-2,-4.4115645E-1,5.3940075E-3,4.467949E-2,2.803698E-2,1.8250951E-1,8.029042E-3,9.559859E-1,-3.072541E-2,6.5469876E-2,3.3567093E-2,5.065963E-2,-2.9914906E-2,5.831284E-2,4.3386005E-2,8.863636E-2,4.264479E-2,3.725705E-4,-2.9999077E-2],"split_indices":[14,10,16,9,0,16,0,5,0,2,0,0,0,5,0,0,16,10,0,0,0],"split_type":[0,0,0,0,0,0,0,0,0,0,0,0,0,0,0,0,0,0,0,0,0],"sum_hessian":[1.4894624E2,3.4536423E1,1.1440981E2,2.8543581E1,5.9928417E0,1.0683324E2,7.576576E0,2.3338842E1,5.2047386E0,6.444124E1,4.2392002E1,1.670887E1,6.629973E0,4.3037315E1,2.1403923E1,1.0132074E1,3.2905243E1,2.685837E1,6.046872E0,7.417863E0,1.9440506E1],"tree_param":{"num_deleted":"0","num_feature":"17","num_nodes":"21","size_leaf_vector":"1"}},{"base_weights":[-1.3306628E-2,3.662442E-1,-1.1078576E-1,-4.88182E-3,5.162381E-1,-3.9934582E-1,-1.592191E-2,1.9366318E-1,8.376903E-1,-4.8711893E-1,-7.999295E-3,2.3645918E-1,-1.09164044E-1,-7.789913E-3,2.4396582E-2,5.3560268E-2,2.2303125E-2,-2.9364297E-2,-1.0311949E-2,3.9940536E-2,3.9197024E-2,-0E0,-2.3535408E-2,3.0864325E-1,-1.5242027E-2,-1.2749958E-1,3.2432798E-1,2.6562104E-2,4.073954E-4,-2.521964E-1,3.7060392E-3,-3.0329393E-3,3.5599753E-2,-1.4811921E-3,-2.0954845E-2,-1.813898E-2,9.826529E-3],"categories":[],"categories_nodes":[],"categories_segments":[],"categories_sizes":[],"default_left":[0,0,0,0,0,0,0,0,0,0,0,0,0,0,0,0,0,0,0,0,0,0,0,0,0,0,0,0,0,0,0,0,0,0,0,0,0],"id":34,"left_children":[1,3,5,-1,7,9,11,13,15,17,-1,19,21,-1,-1,-1,-1,-1,-1,23,-1,25,-1,27,-1,29,31,-1,-1,33,35,-1,-1,-1,-1,-1,-1],"loss_changes":[5.530486E0,2.213398E0,3.2257128E0,0E0,2.1567192E0,4.7262192E-1,2.161674E0,1.4578985E0,3.9868355E-1,3.800335E-1,0E0,2.5392823E0,2.6784992E0,0E0,0E0,0E0,0E0,0E0,0E0,1.8855567E0,0E0,2.2332294E0,0E0,7.126529E-1,0E0,6.583258E-1,2.3852026E0,0E0,0E0,6.941242E-1,1.4280194E0,0E0,0E0,0E0,0E0,0E0,0E0],"parents":[2147483647,0,0,1,1,2,2,4,4,5,5,6,6,7,7,8,8,9,9,11,11,12,12,19,19,21,21,23,23,25,25,26,26,29,29,30,30],"right_children":[2,4,6,-1,8,10,12,14,16,18,-1,20,22,-1,-1,-1,-1,-1,-1,24,-1,26,-1,28,-1,30,32,-1,-1,34,36,-1,-1,-1,-1,-1,-1],"split_conditions":[3.64E2,7.9176754E-1,3.2327056E-1,-4.88182E-3,3.11E2,4.7413793E-1,6.0465115E-1,5.539216E-1,1.5076923E-1,5.24E2,-7.999295E-3,3.1414473E-1,2.1478917E-1,-7.789913E-3,2.4396582E-2,5.3560268E-2,2.2303125E-2,-2.9364297E-2,-1.0311949E-2,4.769679E-2,3.9197024E-2,4.2758986E-1,-2.3535408E-2,3.5819265E-1,-1.5242027E-2,1.590909E-1,1.3138686E-1,2.6562104E-2,4.073954E-4,5.0588235E-2,3.0122778E-1,-3.0329393E-3,3.5599753E-2,-1.4811921E-3,-2.0954845E-2,-1.813898E-2,9.826529E-3],"split_indices":[0,3,4,0,0,14,14,13,10,0,0,13,8,0,0,0,0,0,0,16,0,4,0,8,0,10,10,0,0,16,7,0,0,0,0,0,0],"split_type":[0,0,0,0,0,0,0,0,0,0,0,0,0,0,0,0,0,0,0,0,0,0,0,0,0,0,0,0,0,0,0,0,0,0,0,0,0],"sum_hessian":[1.4807333E2,2.9485138E1,1.1858819E2,7.12678E0,2.2358358E1,2.8285273E1,9.030292E1,1.2114798E1,1.024356E1,1.9632996E1,8.652276E0,2.3658188E1,6.664473E1,5.5978026E0,6.516995E0,5.170154E0,5.0734057E0,1.3405459E1,6.227537E0,1.8333117E1,5.3250723E0,5.191757E1,1.472716E1,1.0525216E1,7.8079004E0,3.766175E1,1.42558155E1,5.414E0,5.111216E0,1.9227804E1,1.8433947E1,7.446438E0,6.8093777E0,9.001019E0,1.0226787E1,5.8725233E0,1.2561422E1],"tree_param":{"num_deleted":"0","num_feature":"17","num_nodes":"37","size_leaf_vector":"1"}},{"base_weights":[8.568264E-3,-3.3957726E-1,1.21209815E-1,-0E0,-5.3017926E-1,-7.774707E-4,4.7639754E-1,3.0327836E-2,-1.8932728E-2,-1.1373983E-2,-2.9745817E-2,2.1392545E-1,-3.7067068E-1,5.6125876E-2,2.330556E-1,-2.6711633E-2,3.0327073E-1,2.846185E-3,-5.4781294E-1,4.9976412E-2,-1.1424258E-1,4.3500432E-1,-1.2646663E-2,-3.0610895E-2,-1.2639917E-2,-2.830994E-2,1.4186988E-2,4.696767E-2,2.4730068E-1,-8.523374E-3,2.3781708E-2],"categories":[],"categories_nodes":[],"categories_segments":[],"categories_sizes":[],"default_left":[0,0,0,0,0,0,0,0,0,0,0,0,0,0,0,0,0,0,0,0,0,0,0,0,0,0,0,0,0,0,0],"id":35,"left_children":[1,3,5,7,9,11,13,-1,-1,-1,-1,15,17,-1,19,-1,21,-1,23,-1,25,27,-1,-1,-1,-1,-1,-1,29,-1,-1],"loss_changes":[6.114311E0,2.4247885E0,5.177259E0,3.6147141E0,2.5726843E-1,7.15575E0,4.3943715E0,0E0,0E0,0E0,0E0,3.9301825E0,2.5942354E0,0E0,6.461498E0,0E0,3.8961325E0,0E0,2.0955658E-1,0E0,3.2445617E0,3.6336226E0,0E0,0E0,0E0,0E0,0E0,0E0,3.1808739E0,0E0,0E0],"parents":[2147483647,0,0,1,1,2,2,3,3,4,4,5,5,6,6,11,11,12,12,14,14,16,16,18,18,20,20,21,21,28,28],"right_children":[2,4,6,8,10,12,14,-1,-1,-1,-1,16,18,-1,20,-1,22,-1,24,-1,26,28,-1,-1,-1,-1,-1,-1,30,-1,-1],"split_conditions":[4.8223028E-1,8.596873E-3,8.5884356E-1,5.455072E-2,3.5520858E-1,2.3448491E-1,4.818653E-1,3.0327836E-2,-1.8932728E-2,-1.1373983E-2,-2.9745817E-2,3.18E2,8.2684827E-1,5.6125876E-2,0E0,-2.6711633E-2,8.440367E-1,2.846185E-3,9.02E-1,4.9976412E-2,1.7307693E-1,4.408635E-2,-1.2646663E-2,-3.0610895E-2,-1.2639917E-2,-2.830994E-2,1.4186988E-2,4.696767E-2,5.7669836E-1,-8.523374E-3,2.3781708E-2],"split_indices":[7,16,3,9,7,8,14,0,0,0,0,0,2,0,8,0,3,0,2,0,12,16,0,0,0,0,0,0,7,0,0],"split_type":[0,0,0,0,0,0,0,0,0,0,0,0,0,0,0,0,0,0,0,0,0,0,0,0,0,0,0,0,0,0,0],"sum_hessian":[1.5442232E2,3.703974E1,1.17382576E2,1.3808166E1,2.3231577E1,8.79075E1,2.947508E1,5.004277E0,8.803888E0,5.160513E0,1.8071064E1,5.5717705E1,3.2189796E1,6.9630275E0,2.2512053E1,5.293384E0,5.042432E1,9.462618E0,2.2727177E1,6.523932E0,1.598812E1,4.1090076E1,9.334244E0,1.7493887E1,5.2332892E0,7.4061513E0,8.581969E0,9.91414E0,3.1175938E1,1.0952419E1,2.0223518E1],"tree_param":{"num_deleted":"0","num_feature":"17","num_nodes":"31","size_leaf_vector":"1"}},{"base_weights":[-1.5657686E-2,-2.1745494E-1,7.433498E-1,-5.098298E-1,-3.0367358E-3,8.447756E-1,9.54401E-3,-5.515462E-1,-9.527012E-3,-2.6913217E-1,4.854952E-1,1.6240044E-2,1.0151436E0,-5.755012E-1,-1.4489303E-2,-6.413184E-2,-3.0137569E-2,8.4791416E-1,-1.3846886E-2,3.2036033E-2,5.7963908E-2,-3.0278925E-2,-1.5092452E-2,1.5380019E-1,-3.826934E-1,2.3327574E-2,5.7918895E-2,-4.7976915E-3,2.2743626E-2,-5.2957344E-3,-2.7103756E-2],"categories":[],"categories_nodes":[],"categories_segments":[],"categories_sizes":[],"default_left":[0,0,0,0,0,0,0,0,0,0,0,0,0,0,0,0,0,0,0,0,0,0,0,0,0,0,0,0,0,0,0],"id":36,"left_children":[1,3,5,7,9,11,-1,13,-1,15,17,-1,19,21,-1,23,-1,25,-1,-1,-1,-1,-1,27,29,-1,-1,-1,-1,-1,-1],"loss_changes":[2.3413248E1,7.5372286E0,1.5326786E0,5.002775E-1,9.345402E0,1.8978195E0,0E0,2.4606705E-2,0E0,3.0935638E0,7.2767563E0,0E0,1.2762451E-1,4.9438477E-2,0E0,2.1836405E0,0E0,1.3653526E0,0E0,0E0,0E0,0E0,0E0,1.4709473E0,4.4118595E-1,0E0,0E0,0E0,0E0,0E0,0E0],"parents":[2147483647,0,0,1,1,2,2,3,3,4,4,5,5,7,7,9,9,10,10,12,12,13,13,15,15,17,17,23,23,24,24],"right_children":[2,4,6,8,10,12,-1,14,-1,16,18,-1,20,22,-1,24,-1,26,-1,-1,-1,-1,-1,28,30,-1,-1,-1,-1,-1,-1],"split_conditions":[6.5606594E-1,3.5130435E-1,3.0230176E-1,5.1948905E-1,9.666403E-2,9.552151E-1,9.54401E-3,4.336477E-2,-9.527012E-3,3.801117E-1,6.74119E-1,1.6240044E-2,-9.720804E-1,4.0384614E-1,-1.4489303E-2,2.5682047E-2,-3.0137569E-2,3.4430227E-1,-1.3846886E-2,3.2036033E-2,5.7963908E-2,-3.0278925E-2,-1.5092452E-2,9.2E-1,-5.787747E-1,2.3327574E-2,5.7918895E-2,-4.7976915E-3,2.2743626E-2,-5.2957344E-3,-2.7103756E-2],"split_indices":[13,13,6,6,8,2,0,1,0,6,7,0,8,12,0,1,0,6,0,0,0,0,0,11,8,0,0,0,0,0,0],"split_type":[0,0,0,0,0,0,0,0,0,0,0,0,0,0,0,0,0,0,0,0,0,0,0,0,0,0,0,0,0,0,0],"sum_hessian":[1.5115027E2,1.2007199E2,3.1078278E1,5.0020824E1,7.005116E1,2.565777E1,5.4205074E0,4.332026E1,6.700564E0,4.5773098E1,2.4278067E1,7.1941543E0,1.8463615E1,3.8240105E1,5.080157E0,2.9275831E1,1.6497265E1,1.6468761E1,7.809306E0,6.838395E0,1.1625221E1,3.3031242E1,5.2088614E0,1.7504246E1,1.1771585E1,8.6581955E0,7.8105655E0,9.758361E0,7.745886E0,5.1390986E0,6.632487E0],"tree_param":{"num_deleted":"0","num_feature":"17","num_nodes":"31","size_leaf_vector":"1"}},{"base_weights":[5.8843687E-2,7.8143924E-1,-1.9682199E-1,9.4076145E-1,3.0040066E-4,-2.8730214E-1,5.2930135E-1,1.0866386E0,7.969038E-3,-5.153785E-1,-5.1504932E-2,1.9235912E-3,5.243616E-2,2.815925E-2,6.160924E-2,9.860287E-3,-3.0419676E-2,2.7255994E-1,-2.94754E-2,-2.8892925E-2,7.378907E-1,3.947307E-1,6.306996E-2,-2.6967142E-2,5.2851733E-2],"categories":[],"categories_nodes":[],"categories_segments":[],"categories_sizes":[],"default_left":[0,0,0,0,0,0,0,0,0,0,0,0,0,0,0,0,0,0,0,0,0,0,0,0,0],"id":37,"left_children":[1,3,5,7,-1,9,11,13,-1,15,17,-1,-1,-1,-1,-1,-1,19,-1,-1,21,23,-1,-1,-1],"loss_changes":[2.834187E1,4.8533936E0,7.562878E0,3.4807606E0,0E0,5.369938E0,3.1061761E0,1.2334213E0,0E0,3.555769E0,9.11582E0,0E0,0E0,0E0,0E0,0E0,0E0,1.3307299E1,0E0,0E0,3.2038088E0,9.6381855E0,0E0,0E0,0E0],"parents":[2147483647,0,0,1,1,2,2,3,3,5,5,6,6,7,7,9,9,10,10,17,17,20,20,21,21],"right_children":[2,4,6,8,-1,10,12,14,-1,16,18,-1,-1,-1,-1,-1,-1,20,-1,-1,22,24,-1,-1,-1],"split_conditions":[4.7058824E-1,7.87037E-2,6.7822225E-2,5.3109758E-2,3.0040066E-4,3.240083E-2,8.440367E-1,4.45E-1,7.969038E-3,7.988165E-2,9.559859E-1,1.9235912E-3,5.243616E-2,2.815925E-2,6.160924E-2,9.860287E-3,-3.0419676E-2,9.188406E-1,-2.94754E-2,-2.8892925E-2,9.496403E-1,3.6853573E-1,6.306996E-2,-2.6967142E-2,5.2851733E-2],"split_indices":[14,10,16,16,0,1,3,11,0,10,2,0,0,0,0,0,0,2,0,0,2,6,0,0,0],"split_type":[0,0,0,0,0,0,0,0,0,0,0,0,0,0,0,0,0,0,0,0,0,0,0,0,0],"sum_hessian":[1.5126352E2,3.909704E1,1.1216648E2,3.2149372E1,6.9476676E0,1.003982E2,1.176828E1,2.6654549E1,5.4948225E0,5.0216347E1,5.0181854E1,6.7018924E0,5.066388E0,7.007773E0,1.9646774E1,5.544549E0,4.46718E1,3.150962E1,1.8672234E1,1.0982236E1,2.0527384E1,1.3574393E1,6.952991E0,5.646118E0,7.9282756E0],"tree_param":{"num_deleted":"0","num_feature":"17","num_nodes":"25","size_leaf_vector":"1"}},{"base_weights":[1.2188772E-2,4.6166635E-1,-8.479689E-2,-8.114476E-3,6.148342E-1,-1.2074337E-1,1.7312748E-2,7.6491547E-1,3.302004E-3,8.491772E-2,-2.1493196E-1,6.1297536E-2,4.4511324E-1,3.3206505E-1,-6.5006986E-2,-3.380541E-1,-5.7946626E-2,2.997283E-2,8.938802E-3,-1.5939085E-2,4.2182013E-2,-3.0266255E-1,1.3191737E-1,-1.8519575E-3,-3.860712E-1,8.071521E-2,-2.7349431E-2,-2.4576264E-2,-2.1527142E-3,2.7264768E-2,-1.353713E-2,-2.687883E-1,-2.7538288E-2,-2.3489429E-1,3.9049932E-1,-1.8444499E-2,4.023332E-3,5.338818E-3,-2.4200298E-2,-3.5462235E-3,4.740932E-2],"categories":[],"categories_nodes":[],"categories_segments":[],"categories_sizes":[],"default_left":[0,0,0,0,0,0,0,0,0,0,0,0,0,0,0,0,0,0,0,0,0,0,0,0,0,0,0,0,0,0,0,0,0,0,0,0,0,0,0,0,0],"id":38,"left_children":[1,3,5,-1,7,9,-1,11,-1,13,15,-1,17,19,21,23,25,-1,-1,-1,-1,27,29,-1,31,33,-1,-1,-1,-1,-1,35,-1,37,39,-1,-1,-1,-1,-1,-1],"loss_changes":[6.740761E0,2.7702355E0,1.9777744E0,0E0,1.7107096E0,2.309752E0,0E0,1.8447208E0,0E0,1.4315543E0,1.5120754E0,0E0,3.058262E-1,5.1529694E0,1.1718032E0,5.937648E-1,2.6199112E0,0E0,0E0,0E0,0E0,4.807757E-1,2.4209883E0,0E0,5.1199913E-1,3.0178964E0,0E0,0E0,0E0,0E0,0E0,9.236065E-1,0E0,1.3840507E0,4.1587753E0,0E0,0E0,0E0,0E0,0E0,0E0],"parents":[2147483647,0,0,1,1,2,2,4,4,5,5,7,7,9,9,10,10,12,12,13,13,14,14,15,15,16,16,21,21,22,22,24,24,25,25,31,31,33,33,34,34],"right_children":[2,4,6,-1,8,10,-1,12,-1,14,16,-1,18,20,22,24,26,-1,-1,-1,-1,28,30,-1,32,34,-1,-1,-1,-1,-1,36,-1,38,40,-1,-1,-1,-1,-1,-1],"split_conditions":[3.64E2,8.902148E-1,3.75E-1,-8.114476E-3,6.4935064E-1,-3.767884E-1,1.7312748E-2,5.221331E-2,3.302004E-3,5.4375E-1,3.870967E-1,6.1297536E-2,8.158996E-1,8.244576E-1,9.645132E-1,2.7739108E-2,7.51284E-2,2.997283E-2,8.938802E-3,-1.5939085E-2,4.2182013E-2,3.202864E-1,2.3254289E-1,-1.8519575E-3,8.405512E-1,2.923077E-1,-2.7349431E-2,-2.4576264E-2,-2.1527142E-3,2.7264768E-2,-1.353713E-2,8.299595E-1,-2.7538288E-2,4.336207E-2,5.33E2,-1.8444499E-2,4.023332E-3,5.338818E-3,-2.4200298E-2,-3.5462235E-3,4.740932E-2],"split_indices":[0,2,12,0,13,8,0,16,0,13,8,0,3,3,2,16,1,0,0,0,0,6,1,0,3,13,0,0,0,0,0,3,0,16,0,0,0,0,0,0,0],"split_type":[0,0,0,0,0,0,0,0,0,0,0,0,0,0,0,0,0,0,0,0,0,0,0,0,0,0,0,0,0,0,0,0,0,0,0,0,0,0,0,0,0],"sum_hessian":[1.518673E2,2.646888E1,1.2539842E2,5.076488E0,2.1392391E1,1.1662468E2,8.773742E0,1.6346115E1,5.0462775E0,3.633149E1,8.029319E1,5.4062147E0,1.0939899E1,1.3511019E1,2.2820473E1,4.399663E1,3.6296555E1,5.8965955E0,5.0433044E0,6.02595E0,7.4850693E0,1.0327602E1,1.249287E1,6.5829134E0,3.741372E1,2.8769724E1,7.5268307E0,5.2382746E0,5.089328E0,6.1121464E0,6.3807235E0,2.374416E1,1.3669558E1,1.421072E1,1.4559005E1,1.8633596E1,5.110564E0,6.0638094E0,8.146911E0,8.34662E0,6.2123847E0],"tree_param":{"num_deleted":"0","num_feature":"17","num_nodes":"41","size_leaf_vector":"1"}},{"base_weights":[3.5576443E-3,-3.5379237E-1,1.4323135E-1,7.7316575E-3,-4.9777576E-1,3.1429267E-1,-1.1280916E-1,-2.93939E-2,-3.3924565E-1,-3.616109E-1,5.0248975E-1,2.878158E-1,-2.550204E-1,1.502308E-3,-2.7595056E-2,-2.8426362E-2,-4.0620385E-4,8.725252E-3,6.667304E-1,4.0096696E-2,-1.2731584E-2,-2.9201565E-2,-7.1144104E-2,2.8314894E-2,-1.8736254E-2,7.616663E-1,6.649268E-3,3.1723063E-2,-3.8878557E-1,8.5462425E-3,8.848925E-1,-2.907042E-2,-0E0,5.3887796E-2,2.7527267E-2],"categories":[],"categories_nodes":[],"categories_segments":[],"categories_sizes":[],"default_left":[0,0,0,0,0,0,0,0,0,0,0,0,0,0,0,0,0,0,0,0,0,0,0,0,0,0,0,0,0,0,0,0,0,0,0],"id":39,"left_children":[1,3,5,-1,7,9,11,-1,13,15,17,19,21,-1,-1,-1,-1,23,25,-1,-1,-1,27,-1,-1,29,-1,-1,31,-1,33,-1,-1,-1,-1],"loss_changes":[7.185266E0,3.0669475E0,4.610176E0,0E0,1.6286469E-1,8.188971E0,2.4716053E0,0E0,1.1926055E0,9.72795E-1,3.9560108E0,3.4181664E0,1.8181257E0,0E0,0E0,0E0,0E0,3.1320357E0,1.6901302E0,0E0,0E0,0E0,5.0963864E0,0E0,0E0,2.0102406E0,0E0,0E0,1.215759E0,0E0,8.809662E-1,0E0,0E0,0E0,0E0],"parents":[2147483647,0,0,1,1,2,2,4,4,5,5,6,6,8,8,9,9,10,10,11,11,12,12,17,17,18,18,22,22,25,25,28,28,30,30],"right_children":[2,4,6,-1,8,10,12,-1,14,16,18,20,22,-1,-1,-1,-1,24,26,-1,-1,-1,28,-1,-1,30,-1,-1,32,-1,34,-1,-1,-1,-1],"split_conditions":[4.8223028E-1,1.7830608E-2,3.233412E-2,7.7316575E-3,4.0613323E-1,3.52E2,2.547826E-2,-2.93939E-2,-6.6532767E-1,8.017493E-1,8.766234E-2,9.1822225E-1,3.4148935E-2,1.502308E-3,-2.7595056E-2,-2.8426362E-2,-4.0620385E-4,3.178115E-1,1.2307692E-1,4.0096696E-2,-1.2731584E-2,-2.9201565E-2,3.3525756E-1,2.8314894E-2,-1.8736254E-2,-4.6360293E-1,6.649268E-3,3.1723063E-2,4.1298315E-1,8.5462425E-3,6.364765E-1,-2.907042E-2,-0E0,5.3887796E-2,2.7527267E-2],"split_indices":[7,5,1,0,4,0,16,0,8,3,10,3,16,0,0,0,0,4,5,0,0,0,4,0,0,8,0,0,4,0,7,0,0,0,0],"split_type":[0,0,0,0,0,0,0,0,0,0,0,0,0,0,0,0,0,0,0,0,0,0,0,0,0,0,0,0,0,0,0,0,0,0,0],"sum_hessian":[1.4236415E2,3.9375202E1,1.02988945E2,8.520309E0,3.085489E1,6.183792E1,4.1151024E1,1.7544308E1,1.3310584E1,1.3151595E1,4.8686325E1,1.0328223E1,3.0822802E1,5.0059133E0,8.304671E0,7.733495E0,5.4181E0,1.2567134E1,3.611919E1,5.1516275E0,5.176596E0,1.0075173E1,2.0747627E1,5.0328465E0,7.534288E0,3.01433E1,5.9758906E0,6.0332336E0,1.4714394E1,5.754598E0,2.4388702E1,9.623302E0,5.091091E0,1.3867105E1,1.0521598E1],"tree_param":{"num_deleted":"0","num_feature":"17","num_nodes":"35","size_leaf_vector":"1"}},{"base_weights":[-1.7055865E-2,-2.060786E-1,7.61871E-1,-3.1497784E-2,-5.2070606E-1,4.700679E-2,1.4182235E-2,-1.0352618E-1,3.8964648E-2,-2.9870719E-2,-3.2062972E-1,6.1729282E-2,-2.9916474E-1,-2.7966237E-2,4.972355E-3,-8.32429E-2,3.462379E-2,-4.2892992E-1,6.1903205E-3,1.4546055E-1,-2.8854233E-1,-1.8739615E-3,-2.9896576E-2,-1.8650508E-2,2.4918659E-2,1.8987012E-3,-2.9376525E-2],"categories":[],"categories_nodes":[],"categories_segments":[],"categories_sizes":[],"default_left":[0,0,0,0,0,0,0,0,0,0,0,0,0,0,0,0,0,0,0,0,0,0,0,0,0,0,0],"id":40,"left_children":[1,3,5,7,9,-1,-1,11,-1,-1,13,15,17,-1,-1,19,-1,21,-1,23,25,-1,-1,-1,-1,-1,-1],"loss_changes":[2.312522E1,6.889279E0,2.2236176E0,4.846987E0,4.0660667E-1,0E0,0E0,2.532125E0,0E0,0E0,1.603539E0,3.9866123E0,2.0438292E0,0E0,0E0,1.7071059E0,0E0,1.7488217E0,0E0,3.3211026E0,1.9412364E0,0E0,0E0,0E0,0E0,0E0,0E0],"parents":[2147483647,0,0,1,1,2,2,3,3,4,4,7,7,10,10,11,11,12,12,15,15,17,17,19,19,20,20],"right_children":[2,4,6,8,10,-1,-1,12,-1,-1,14,16,18,-1,-1,20,-1,22,-1,24,26,-1,-1,-1,-1,-1,-1],"split_conditions":[9.575163E-1,6.902473E-1,3.0230176E-1,4.5041463E-1,8.695652E-2,4.700679E-2,1.4182235E-2,5.585504E-1,3.8964648E-2,-2.9870719E-2,1.1615245E-1,5.35575E-1,5.2E2,-2.7966237E-2,4.972355E-3,1.6849817E-1,3.462379E-2,3.65E2,6.1903205E-3,8.014981E-1,9.482524E-1,-1.8739615E-3,-2.9896576E-2,-1.8650508E-2,2.4918659E-2,1.8987012E-3,-2.9376525E-2],"split_indices":[2,7,6,6,10,0,0,7,0,0,5,7,0,0,0,10,0,0,0,14,2,0,0,0,0,0,0],"split_type":[0,0,0,0,0,0,0,0,0,0,0,0,0,0,0,0,0,0,0,0,0,0,0,0,0,0,0],"sum_hessian":[1.5537459E2,1.2572792E2,2.9646671E1,8.177209E1,4.3955837E1,2.0740429E1,8.906242E0,7.601479E1,5.7572923E0,2.9977037E1,1.3978801E1,4.1301136E1,3.4713657E1,8.854237E0,5.1245637E0,3.4159355E1,7.14178E0,2.6734114E1,7.9795423E0,1.6066105E1,1.8093252E1,8.608385E0,1.8125729E1,6.3689923E0,9.697112E0,8.905903E0,9.187349E0],"tree_param":{"num_deleted":"0","num_feature":"17","num_nodes":"27","size_leaf_vector":"1"}},{"base_weights":[5.5321764E-2,6.9002634E-1,-1.5852906E-1,2.3248713E-1,9.8156E-1,-2.451722E-1,5.7903725E-1,-2.974957E-2,4.9495216E-2,5.7798643E-2,2.6329061E-2,-1.10449314E-1,-2.9800734E-2,4.6785854E-2,6.8321005E-3,-2.0344181E-1,4.176544E-2,-3.9074078E-1,1.1903506E-1,1.9280262E-1,-3.026614E-2,4.861426E-2,-2.8688947E-2,-2.5966484E-2,4.7086574E-2],"categories":[],"categories_nodes":[],"categories_segments":[],"categories_sizes":[],"default_left":[0,0,0,0,0,0,0,0,0,0,0,0,0,0,0,0,0,0,0,0,0,0,0,0,0],"id":41,"left_children":[1,3,5,7,9,11,13,-1,-1,-1,-1,15,-1,-1,-1,17,-1,19,21,23,-1,-1,-1,-1,-1],"loss_changes":[2.092519E1,4.8332233E0,7.464858E0,1.1011188E1,1.0711269E0,4.7714686E0,1.7021499E0,0E0,0E0,0E0,0E0,6.8312135E0,0E0,0E0,0E0,4.3327427E0,0E0,5.7973075E0,1.6250296E1,7.326802E0,0E0,0E0,0E0,0E0,0E0],"parents":[2147483647,0,0,1,1,2,2,3,3,4,4,5,5,6,6,11,11,15,15,17,17,18,18,19,19],"right_children":[2,4,6,8,10,12,14,-1,-1,-1,-1,16,-1,-1,-1,18,-1,20,22,24,-1,-1,-1,-1,-1],"split_conditions":[4.7058824E-1,4.4966197E-1,6.7822225E-2,4.4689378E-1,2.7999762E-1,2.1153846E-1,8.17734E-1,-2.974957E-2,4.9495216E-2,5.7798643E-2,2.6329061E-2,2E-1,-2.9800734E-2,4.6785854E-2,6.8321005E-3,9.344553E-1,4.176544E-2,-6.454325E-1,1.823E3,4.179848E-1,-3.026614E-2,4.861426E-2,-2.8688947E-2,-2.5966484E-2,4.7086574E-2],"split_indices":[14,6,16,14,8,12,3,0,0,0,0,12,0,0,0,3,0,8,0,7,0,0,0,0,0],"split_type":[0,0,0,0,0,0,0,0,0,0,0,0,0,0,0,0,0,0,0,0,0,0,0,0,0],"sum_hessian":[1.519679E2,3.785526E1,1.1411264E2,1.5566047E1,2.2289213E1,1.0283555E2,1.1277089E1,7.4783583E0,8.087689E0,1.4839927E1,7.449287E0,7.545919E1,2.7376358E1,5.5008717E0,5.776218E0,6.9514725E1,5.9444704E0,4.4036266E1,2.5478455E1,1.1741475E1,3.2294792E1,1.1301186E1,1.4177268E1,6.1072927E0,5.634182E0],"tree_param":{"num_deleted":"0","num_feature":"17","num_nodes":"25","size_leaf_vector":"1"}},{"base_weights":[-2.8389988E-2,-4.1125956E-1,5.8641087E-2,-4.9145457E-1,-7.6582925E-3,3.325064E-1,-4.5263372E-2,-1.6267689E-2,-2.8665146E-2,-1.3215901E-2,4.7843263E-1,3.8189396E-1,-1.3910027E-1,-5.006411E-3,6.4467853E-1,-2.7743233E-3,4.1485492E-2,-4.4595456E-1,-5.8056775E-2,5.5339117E-2,2.659197E-1,-8.020622E-3,-2.8243193E-2,2.6195565E-1,-2.0701161E-1,2.3228154E-2,4.8784344E-4,5.042384E-1,-6.4762466E-4,-2.932739E-1,1.2476323E-2,4.7941577E-2,-1.2283387E-3,-1.8201692E-2,-3.8517106E-4],"categories":[],"categories_nodes":[],"categories_segments":[],"categories_sizes":[],"default_left":[0,0,0,0,0,0,0,0,0,0,0,0,0,0,0,0,0,0,0,0,0,0,0,0,0,0,0,0,0,0,0,0,0,0,0],"id":42,"left_children":[1,3,5,7,-1,9,11,-1,-1,-1,13,15,17,-1,19,-1,-1,21,23,-1,25,-1,-1,27,29,-1,-1,31,-1,33,-1,-1,-1,-1,-1],"loss_changes":[5.39705E0,4.8132372E-1,3.7766297E0,2.4663925E-2,0E0,3.3237262E0,3.8654096E0,0E0,0E0,0E0,2.9844656E0,3.51477E0,1.8982915E0,0E0,3.665882E0,0E0,0E0,3.862908E-1,3.1098912E0,0E0,6.7572725E-1,0E0,0E0,1.4294422E0,1.8337338E0,0E0,0E0,2.8049824E0,0E0,7.3092866E-1,0E0,0E0,0E0,0E0,0E0],"parents":[2147483647,0,0,1,1,2,2,3,3,5,5,6,6,10,10,11,11,12,12,14,14,17,17,18,18,20,20,23,23,24,24,27,27,29,29],"right_children":[2,4,6,8,-1,10,12,-1,-1,-1,14,16,18,-1,20,-1,-1,22,24,-1,26,-1,-1,28,30,-1,-1,32,-1,34,-1,-1,-1,-1,-1],"split_conditions":[4.5874587E-1,8.49224E-1,3.76E2,4.4204217E-1,-7.6582925E-3,8.832753E-1,5.769231E-1,-1.6267689E-2,-2.8665146E-2,-1.3215901E-2,7.9176754E-1,2.8653845E-1,2.4767403E-1,-5.006411E-3,9.3883795E-1,-2.7743233E-3,4.1485492E-2,2.9981163E-1,-4.6360293E-1,5.5339117E-2,5.2647058E-2,-8.020622E-3,-2.8243193E-2,6.3352275E-1,3.75E-1,2.3228154E-2,4.8784344E-4,5.331808E-2,-6.4762466E-4,4.0294182E-1,1.2476323E-2,4.7941577E-2,-1.2283387E-3,-1.8201692E-2,-3.8517106E-4],"split_indices":[14,3,0,6,0,2,14,0,0,0,3,13,6,0,2,0,0,9,8,0,16,0,0,13,12,0,0,16,0,6,0,0,0,0,0],"split_type":[0,0,0,0,0,0,0,0,0,0,0,0,0,0,0,0,0,0,0,0,0,0,0,0,0,0,0,0,0,0,0,0,0,0,0],"sum_hessian":[1.5918675E2,2.9006058E1,1.301807E2,2.1144426E1,7.861633E0,3.5465393E1,9.47153E1,9.025393E0,1.2119033E1,6.6737604E0,2.8791632E1,1.6314447E1,7.8400856E1,6.3809958E0,2.2410637E1,8.583631E0,7.7308164E0,1.5181752E1,6.32191E1,9.109935E0,1.3300701E1,5.401325E0,9.780427E0,1.9625656E1,4.3593445E1,6.81333E0,6.487371E0,1.0181777E1,9.443879E0,3.715055E1,6.442895E0,5.1394744E0,5.0423026E0,2.9272371E1,7.87818E0],"tree_param":{"num_deleted":"0","num_feature":"17","num_nodes":"35","size_leaf_vector":"1"}},{"base_weights":[-4.8490817E-4,-4.3368012E-1,1.5197015E-1,-5.461072E-1,-0E0,9.900694E-2,4.776459E-2,-2.9797396E-2,-1.1279547E-2,-2.9337872E-2,1.9605392E-1,3.3441862E-1,