{"learner":{"attributes":{},"feature_names":[],"feature_types":[],"gradient_booster":{"model":{"cats":{"enc":[],"feature_segments":[],"sorted_idx":[]},"gbtree_model_param":{"num_parallel_tree":"1","num_trees":"1500"},"iteration_indptr":[0,3,6,9,12,15,18,21,24,27,30,33,36,39,42,45,48,51,54,57,60,63,66,69,72,75,78,81,84,87,90,93,96,99,102,105,108,111,114,117,120,123,126,129,132,135,138,141,144,147,150,153,156,159,162,165,168,171,174,177,180,183,186,189,192,195,198,201,204,207,210,213,216,219,222,225,228,231,234,237,240,243,246,249,252,255,258,261,264,267,270,273,276,279,282,285,288,291,294,297,300,303,306,309,312,315,318,321,324,327,330,333,336,339,342,345,348,351,354,357,360,363,366,369,372,375,378,381,384,387,390,393,396,399,402,405,408,411,414,417,420,423,426,429,432,435,438,441,444,447,450,453,456,459,462,465,468,471,474,477,480,483,486,489,492,495,498,501,504,507,510,513,516,519,522,525,528,531,534,537,540,543,546,549,552,555,558,561,564,567,570,573,576,579,582,585,588,591,594,597,600,603,606,609,612,615,618,621,624,627,630,633,636,639,642,645,648,651,654,657,660,663,666,669,672,675,678,681,684,687,690,693,696,699,702,705,708,711,714,717,720,723,726,729,732,735,738,741,744,747,750,753,756,759,762,765,768,771,774,777,780,783,786,789,792,795,798,801,804,807,810,813,816,819,822,825,828,831,834,837,840,843,846,849,852,855,858,861,864,867,870,873,876,879,882,885,888,891,894,897,900,903,906,909,912,915,918,921,924,927,930,933,936,939,942,945,948,951,954,957,960,963,966,969,972,975,978,981,984,987,990,993,996,999,1002,1005,1008,1011,1014,1017,1020,1023,1026,1029,1032,1035,1038,1041,1044,1047,1050,1053,1056,1059,1062,1065,1068,1071,1074,1077,1080,1083,1086,1089,1092,1095,1098,1101,1104,1107,1110,1113,1116,1119,1122,1125,1128,1131,1134,1137,1140,1143,1146,1149,1152,1155,1158,1161,1164,1167,1170,1173,1176,1179,1182,1185,1188,1191,1194,1197,1200,1203,1206,1209,1212,1215,1218,1221,1224,1227,1230,1233,1236,1239,1242,1245,1248,1251,1254,1257,1260,1263,1266,1269,1272,1275,1278,1281,1284,1287,1290,1293,1296,1299,1302,1305,1308,1311,1314,1317,1320,1323,1326,1329,1332,1335,1338,1341,1344,1347,1350,1353,1356,1359,1362,1365,1368,1371,1374,1377,1380,1383,1386,1389,1392,1395,1398,1401,1404,1407,1410,1413,1416,1419,1422,1425,1428,1431,1434,1437,1440,1443,1446,1449,1452,1455,1458,1461,1464,1467,1470,1473,1476,1479,1482,1485,1488,1491,1494,1497,1500],"tree_info":[0,1,2,0,1,2,0,1,2,0,1,2,0,1,2,0,1,2,0,1,2,0,1,2,0,1,2,0,1,2,0,1,2,0,1,2,0,1,2,0,1,2,0,1,2,0,1,2,0,1,2,0,1,2,0,1,2,0,1,2,0,1,2,0,1,2,0,1,2,0,1,2,0,1,2,0,1,2,0,1,2,0,1,2,0,1,2,0,1,2,0,1,2,0,1,2,0,1,2,0,1,2,0,1,2,0,1,2,0,1,2,0,1,2,0,1,2,0,1,2,0,1,2,0,1,2,0,1,2,0,1,2,0,1,2,0,1,2,0,1,2,0,1,2,0,1,2,0,1,2,0,1,2,0,1,2,0,1,2,0,1,2,0,1,2,0,1,2,0,1,2,0,1,2,0,1,2,0,1,2,0,1,2,0,1,2,0,1,2,0,1,2,0,1,2,0,1,2,0,1,2,0,1,2,0,1,2,0,1,2,0,1,2,0,1,2,0,1,2,0,1,2,0,1,2,0,1,2,0,1,2,0,1,2,0,1,2,0,1,2,0,1,2,0,1,2,0,1,2,0,1,2,0,1,2,0,1,2,0,1,2,0,1,2,0,1,2,0,1,2,0,1,2,0,1,2,0,1,2,0,1,2,0,1,2,0,1,2,0,1,2,0,1,2,0,1,2,0,1,2,0,1,2,0,1,2,0,1,2,0,1,2,0,1,2,0,1,2,0,1,2,0,1,2,0,1,2,0,1,2,0,1,2,0,1,2,0,1,2,0,1,2,0,1,2,0,1,2,0,1,2,0,1,2,0,1,2,0,1,2,0,1,2,0,1,2,0,1,2,0,1,2,0,1,2,0,1,2,0,1,2,0,1,2,0,1,2,0,1,2,0,1,2,0,1,2,0,1,2,0,1,2,0,1,2,0,1,2,0,1,2,0,1,2,0,1,2,0,1,2,0,1,2,0,1,2,0,1,2,0,1,2,0,1,2,0,1,2,0,1,2,0,1,2,0,1,2,0,1,2,0,1,2,0,1,2,0,1,2,0,1,2,0,1,2,0,1,2,0,1,2,0,1,2,0,1,2,0,1,2,0,1,2,0,1,2,0,1,2,0,1,2,0,1,2,0,1,2,0,1,2,0,1,2,0,1,2,0,1,2,0,1,2,0,1,2,0,1,2,0,1,2,0,1,2,0,1,2,0,1,2,0,1,2,0,1,2,0,1,2,0,1,2,0,1,2,0,1,2,0,1,2,0,1,2,0,1,2,0,1,2,0,1,2,0,1,2,0,1,2,0,1,2,0,1,2,0,1,2,0,1,2,0,1,2,0,1,2,0,1,2,0,1,2,0,1,2,0,1,2,0,1,2,0,1,2,0,1,2,0,1,2,0,1,2,0,1,2,0,1,2,0,1,2,0,1,2,0,1,2,0,1,2,0,1,2,0,1,2,0,1,2,0,1,2,0,1,2,0,1,2,0,1,2,0,1,2,0,1,2,0,1,2,0,1,2,0,1,2,0,1,2,0,1,2,0,1,2,0,1,2,0,1,2,0,1,2,0,1,2,0,1,2,0,1,2,0,1,2,0,1,2,0,1,2,0,1,2,0,1,2,0,1,2,0,1,2,0,1,2,0,1,2,0,1,2,0,1,2,0,1,2,0,1,2,0,1,2,0,1,2,0,1,2,0,1,2,0,1,2,0,1,2,0,1,2,0,1,2,0,1,2,0,1,2,0,1,2,0,1,2,0,1,2,0,1,2,0,1,2,0,1,2,0,1,2,0,1,2,0,1,2,0,1,2,0,1,2,0,1,2,0,1,2,0,1,2,0,1,2,0,1,2,0,1,2,0,1,2,0,1,2,0,1,2,0,1,2,0,1,2,0,1,2,0,1,2,0,1,2,0,1,2,0,1,2,0,1,2,0,1,2,0,1,2,0,1,2,0,1,2,0,1,2,0,1,2,0,1,2,0,1,2,0,1,2,0,1,2,0,1,2,0,1,2,0,1,2,0,1,2,0,1,2,0,1,2,0,1,2,0,1,2,0,1,2,0,1,2,0,1,2,0,1,2,0,1,2,0,1,2,0,1,2,0,1,2,0,1,2,0,1,2,0,1,2,0,1,2,0,1,2,0,1,2,0,1,2,0,1,2,0,1,2,0,1,2,0,1,2,0,1,2,0,1,2,0,1,2,0,1,2,0,1,2,0,1,2,0,1,2,0,1,2,0,1,2,0,1,2,0,1,2,0,1,2,0,1,2,0,1,2,0,1,2,0,1,2,0,1,2,0,1,2,0,1,2,0,1,2,0,1,2,0,1,2,0,1,2,0,1,2,0,1,2,0,1,2,0,1,2,0,1,2,0,1,2,0,1,2,0,1,2,0,1,2,0,1,2,0,1,2,0,1,2,0,1,2,0,1,2,0,1,2,0,1,2,0,1,2,0,1,2,0,1,2,0,1,2,0,1,2,0,1,2,0,1,2,0,1,2,0,1,2,0,1,2,0,1,2,0,1,2,0,1,2,0,1,2,0,1,2,0,1,2,0,1,2,0,1,2,0,1,2,0,1,2,0,1,2,0,1,2,0,1,2,0,1,2,0,1,2,0,1,2,0,1,2,0,1,2,0,1,2,0,1,2,0,1,2,0,1,2,0,1,2,0,1,2,0,1,2,0,1,2,0,1,2,0,1,2,0,1,2,0,1,2,0,1,2,0,1,2,0,1,2,0,1,2,0,1,2,0,1,2,0,1,2,0,1,2,0,1,2,0,1,2,0,1,2,0,1,2,0,1,2,0,1,2,0,1,2,0,1,2,0,1,2,0,1,2,0,1,2,0,1,2,0,1,2,0,1,2,0,1,2,0,1,2,0,1,2,0,1,2,0,1,2,0,1,2,0,1,2,0,1,2,0,1,2,0,1,2,0,1,2,0,1,2,0,1,2,0,1,2,0,1,2,0,1,2,0,1,2,0,1,2,0,1,2,0,1,2,0,1,2,0,1,2,0,1,2,0,1,2,0,1,2,0,1,2,0,1,2,0,1,2,0,1,2,0,1,2,0,1,2,0,1,2,0,1,2,0,1,2,0,1,2,0,1,2,0,1,2,0,1,2,0,1,2,0,1,2,0,1,2,0,1,2,0,1,2,0,1,2,0,1,2,0,1,2,0,1,2,0,1,2,0,1,2,0,1,2,0,1,2,0,1,2,0,1,2,0,1,2,0,1,2,0,1,2,0,1,2,0,1,2,0,1,2,0,1,2,0,1,2,0,1,2,0,1,2,0,1,2,0,1,2,0,1,2,0,1,2,0,1,2,0,1,2,0,1,2,0,1,2,0,1,2,0,1,2,0,1,2,0,1,2,0,1,2,0,1,2,0,1,2,0,1,2],"trees":[{"base_weights":[-4.044607E-2,3.6228433E-2,-3.427242E-1,-2.8616697E-2,-0E0],"categories":[],"categories_nodes":[],"categories_segments":[],"categories_sizes":[],"default_left":[0,0,0,0,0],"id":0,"left_children":[1,-1,3,-1,-1],"loss_changes":[5.7831187E0,0E0,1.4447527E0,0E0,0E0],"parents":[2147483647,0,0,2,2],"right_children":[2,-1,4,-1,-1],"split_conditions":[2.8308943E-1,3.6228433E-2,2.6648352E-1,-2.8616697E-2,-0E0],"split_indices":[4,0,10,0,0],"split_type":[0,0,0,0,0],"sum_hessian":[2.3099646E1,6.05291E0,1.7046736E1,9.881833E0,7.1649027E0],"tree_param":{"num_deleted":"0","num_feature":"17","num_nodes":"5","size_leaf_vector":"1"}},{"base_weights":[-8.466701E-2,-4.6516523E-1,2.168704E-2,-3.252529E-2,-6.2271073E-3],"categories":[],"categories_nodes":[],"categories_segments":[],"categories_sizes":[],"default_left":[0,0,0,0,0],"id":1,"left_children":[1,3,-1,-1,-1],"loss_changes":[4.739292E0,7.159095E-1,0E0,0E0,0E0],"parents":[2147483647,0,0,1,1],"right_children":[2,4,-1,-1,-1],"split_conditions":[9.5902675E-1,2.7247956E-2,2.168704E-2,-3.252529E-2,-6.2271073E-3],"split_indices":[7,14,0,0,0],"split_type":[0,0,0,0,0],"sum_hessian":[2.1987654E1,1.2850969E1,9.136683E0,7.5432096E0,5.30776E0],"tree_param":{"num_deleted":"0","num_feature":"17","num_nodes":"5","size_leaf_vector":"1"}},{"base_weights":[4.2056456E-2,4.930718E-1,-2.4474917E-2,5.299352E-4,4.5764048E-2],"categories":[],"categories_nodes":[],"categories_segments":[],"categories_sizes":[],"default_left":[0,0,0,0,0],"id":2,"left_children":[1,3,-1,-1,-1],"loss_changes":[5.357001E0,2.3712661E0,0E0,0E0,0E0],"parents":[2147483647,0,0,1,1],"right_children":[2,4,-1,-1,-1],"split_conditions":[9.5427126E-1,9.2226803E-1,-2.4474917E-2,5.299352E-4,4.5764048E-2],"split_indices":[7,7,0,0,0],"split_type":[0,0,0,0,0],"sum_hessian":[2.0336863E1,1.1142858E1,9.194004E0,5.7892423E0,5.3536158E0],"tree_param":{"num_deleted":"0","num_feature":"17","num_nodes":"5","size_leaf_vector":"1"}},{"base_weights":[1.5363863E-2,3.351126E-2,-2.5277212E-1,-2.8623773E-2,8.2695875E-3],"categories":[],"categories_nodes":[],"categories_segments":[],"categories_sizes":[],"default_left":[0,0,0,0,0],"id":3,"left_children":[1,-1,3,-1,-1],"loss_changes":[4.8347926E0,0E0,2.7155757E0,0E0,0E0],"parents":[2147483647,0,0,2,2],"right_children":[2,-1,4,-1,-1],"split_conditions":[2.8308943E-1,3.351126E-2,2.6648352E-1,-2.8623773E-2,8.2695875E-3],"split_indices":[4,0,10,0,0],"split_type":[0,0,0,0,0],"sum_hessian":[2.5331707E1,7.0317144E0,1.8299994E1,1.0297359E1,8.002633E0],"tree_param":{"num_deleted":"0","num_feature":"17","num_nodes":"5","size_leaf_vector":"1"}},{"base_weights":[-5.545284E-2,4.159651E-2,-5.1473635E-1,-3.2968465E-2,-1.2616637E-2],"categories":[],"categories_nodes":[],"categories_segments":[],"categories_sizes":[],"default_left":[0,0,0,0,0],"id":4,"left_children":[1,-1,3,-1,-1],"loss_changes":[1.0586429E1,0E0,3.939824E-1,0E0,0E0],"parents":[2147483647,0,0,2,2],"right_children":[2,-1,4,-1,-1],"split_conditions":[2.534894E-1,4.159651E-2,2.739726E-2,-3.2968465E-2,-1.2616637E-2],"split_indices":[6,0,14,0,0],"split_type":[0,0,0,0,0],"sum_hessian":[2.4002243E1,7.8350415E0,1.6167202E1,9.201549E0,6.965654E0],"tree_param":{"num_deleted":"0","num_feature":"17","num_nodes":"5","size_leaf_vector":"1"}},{"base_weights":[-2.5589334E-2,-3.8464576E-1,2.6902009E-2,-4.1908124E-3,-3.250933E-2],"categories":[],"categories_nodes":[],"categories_segments":[],"categories_sizes":[],"default_left":[0,0,0,0,0],"id":5,"left_children":[1,3,-1,-1,-1],"loss_changes":[5.717505E0,1.2597513E0,0E0,0E0,0E0],"parents":[2147483647,0,0,1,1],"right_children":[2,4,-1,-1,-1],"split_conditions":[8.712469E-3,6.529707E-3,2.6902009E-2,-4.1908124E-3,-3.250933E-2],"split_indices":[16,16,0,0,0],"split_type":[0,0,0,0,0],"sum_hessian":[2.6305227E1,1.6371103E1,9.934125E0,8.468935E0,7.902168E0],"tree_param":{"num_deleted":"0","num_feature":"17","num_nodes":"5","size_leaf_vector":"1"}},{"base_weights":[1.15462855E-1,3.953779E-2,-2.2198325E-1,-2.5775522E-2,4.266855E-3],"categories":[],"categories_nodes":[],"categories_segments":[],"categories_sizes":[],"default_left":[0,0,0,0,0],"id":6,"left_children":[1,-1,3,-1,-1],"loss_changes":[5.5305176E0,0E0,1.5470232E0,0E0,0E0],"parents":[2147483647,0,0,2,2],"right_children":[2,-1,4,-1,-1],"split_conditions":[2.128484E-1,3.953779E-2,4.758514E-1,-2.5775522E-2,4.266855E-3],"split_indices":[12,0,11,0,0],"split_type":[0,0,0,0,0],"sum_hessian":[2.2250055E1,7.0648847E0,1.518517E1,7.5868196E0,7.598351E0],"tree_param":{"num_deleted":"0","num_feature":"17","num_nodes":"5","size_leaf_vector":"1"}},{"base_weights":[-7.985139E-2,2.8071327E-2,-4.331346E-1,-7.972079E-3,-3.2040022E-2],"categories":[],"categories_nodes":[],"categories_segments":[],"categories_sizes":[],"default_left":[0,0,0,0,0],"id":7,"left_children":[1,-1,3,-1,-1],"loss_changes":[5.7567697E0,0E0,7.495656E-1,0E0,0E0],"parents":[2147483647,0,0,2,2],"right_children":[2,-1,4,-1,-1],"split_conditions":[2.5663292E-1,2.8071327E-2,2.8909683E-1,-7.972079E-3,-3.2040022E-2],"split_indices":[6,0,4,0,0],"split_type":[0,0,0,0,0],"sum_hessian":[2.3393553E1,7.9999166E0,1.5393637E1,7.6114516E0,7.7821846E0],"tree_param":{"num_deleted":"0","num_feature":"17","num_nodes":"5","size_leaf_vector":"1"}},{"base_weights":[-2.8957777E-2,-4.319473E-1,3.544299E-1,-3.0386869E-2,-8.787364E-3,2.9101953E-2,2.502605E-3],"categories":[],"categories_nodes":[],"categories_segments":[],"categories_sizes":[],"default_left":[0,0,0,0,0,0,0],"id":8,"left_children":[1,3,5,-1,-1,-1,-1],"loss_changes":[3.622872E0,3.328855E-1,7.324463E-1,0E0,0E0,0E0,0E0],"parents":[2147483647,0,0,1,1,2,2],"right_children":[2,4,6,-1,-1,-1,-1],"split_conditions":[4.9586776E-1,4.8589492E-1,5.123967E-1,-3.0386869E-2,-8.787364E-3,2.9101953E-2,2.502605E-3],"split_indices":[2,11,2,0,0,0,0],"split_type":[0,0,0,0,0,0,0],"sum_hessian":[2.1407757E1,1.050248E1,1.0905276E1,5.1834474E0,5.3190317E0,5.529577E0,5.3756995E0],"tree_param":{"num_deleted":"0","num_feature":"17","num_nodes":"7","size_leaf_vector":"1"}},{"base_weights":[-6.943402E-2,2.527794E-2,-2.9234138E-1,-4.3858284E-1,2.964799E-3,-3.0429475E-3,-3.1989932E-2],"categories":[],"categories_nodes":[],"categories_segments":[],"categories_sizes":[],"default_left":[0,0,0,0,0,0,0],"id":9,"left_children":[1,-1,3,5,-1,-1,-1],"loss_changes":[3.3337677E0,0E0,1.0302863E0,9.2404985E-1,0E0,0E0,0E0],"parents":[2147483647,0,0,2,2,3,3],"right_children":[2,-1,4,6,-1,-1,-1],"split_conditions":[2.0819916E-1,2.527794E-2,5.1421833E-1,3.48E2,2.964799E-3,-3.0429475E-3,-3.1989932E-2],"split_indices":[12,0,6,0,0,0,0],"split_type":[0,0,0,0,0,0,0],"sum_hessian":[2.4023724E1,6.2318745E0,1.779185E1,1.2592087E1,5.199763E0,5.0019054E0,7.5901814E0],"tree_param":{"num_deleted":"0","num_feature":"17","num_nodes":"7","size_leaf_vector":"1"}},{"base_weights":[1.2162461E-2,3.2754753E-2,-3.4924546E-1,-5.095035E-3,-2.7082657E-2],"categories":[],"categories_nodes":[],"categories_segments":[],"categories_sizes":[],"default_left":[0,0,0,0,0],"id":10,"left_children":[1,-1,3,-1,-1],"loss_changes":[6.7571063E0,0E0,7.586918E-1,0E0,0E0],"parents":[2147483647,0,0,2,2],"right_children":[2,-1,4,-1,-1],"split_conditions":[2.5663292E-1,3.2754753E-2,2.8909683E-1,-5.095035E-3,-2.7082657E-2],"split_indices":[6,0,4,0,0],"split_type":[0,0,0,0,0],"sum_hessian":[2.696396E1,9.510024E0,1.7453938E1,8.533393E0,8.920545E0],"tree_param":{"num_deleted":"0","num_feature":"17","num_nodes":"5","size_leaf_vector":"1"}},{"base_weights":[-6.7547366E-2,-4.382527E-1,2.49236E-2,-8.004944E-3,-3.158511E-2],"categories":[],"categories_nodes":[],"categories_segments":[],"categories_sizes":[],"default_left":[0,0,0,0,0],"id":11,"left_children":[1,3,-1,-1,-1],"loss_changes":[5.1895533E0,6.25304E-1,0E0,0E0,0E0],"parents":[2147483647,0,0,1,1],"right_children":[2,4,-1,-1,-1],"split_conditions":[8.712469E-3,6.093621E-3,2.49236E-2,-8.004944E-3,-3.158511E-2],"split_indices":[16,16,0,0,0],"split_type":[0,0,0,0,0],"sum_hessian":[2.2720173E1,1.3971901E1,8.748272E0,6.692924E0,7.2789764E0],"tree_param":{"num_deleted":"0","num_feature":"17","num_nodes":"5","size_leaf_vector":"1"}},{"base_weights":[-6.328545E-3,2.9081358E-2,-2.2676167E-1,-2.5600806E-2,8.5384346E-4],"categories":[],"categories_nodes":[],"categories_segments":[],"categories_sizes":[],"default_left":[0,0,0,0,0],"id":12,"left_children":[1,-1,3,-1,-1],"loss_changes":[3.2624195E0,0E0,1.3526936E0,0E0,0E0],"parents":[2147483647,0,0,2,2],"right_children":[2,-1,4,-1,-1],"split_conditions":[2.128484E-1,2.9081358E-2,4.783255E-1,-2.5600806E-2,8.5384346E-4],"split_indices":[12,0,11,0,0],"split_type":[0,0,0,0,0],"sum_hessian":[2.3428207E1,5.8179417E0,1.7610266E1,7.798032E0,9.812234E0],"tree_param":{"num_deleted":"0","num_feature":"17","num_nodes":"5","size_leaf_vector":"1"}},{"base_weights":[2.4365373E-2,-4.7613588E-1,4.5146468E-1,-1.25924265E-2,-2.9791364E-2,6.3044704E-3,3.564548E-2],"categories":[],"categories_nodes":[],"categories_segments":[],"categories_sizes":[],"default_left":[0,0,0,0,0,0,0],"id":13,"left_children":[1,3,5,-1,-1,-1,-1],"loss_changes":[5.503524E0,8.128953E-2,1.0151424E0,0E0,0E0,0E0,0E0],"parents":[2147483647,0,0,1,1,2,2],"right_children":[2,4,6,-1,-1,-1,-1],"split_conditions":[9.3396676E-1,4.2370573E-1,1.6509637E-2,-1.25924265E-2,-2.9791364E-2,6.3044704E-3,3.564548E-2],"split_indices":[7,11,8,0,0,0,0],"split_type":[0,0,0,0,0,0,0],"sum_hessian":[2.3751776E1,1.0775469E1,1.2976308E1,5.12029E0,5.655179E0,6.612118E0,6.36419E0],"tree_param":{"num_deleted":"0","num_feature":"17","num_nodes":"7","size_leaf_vector":"1"}},{"base_weights":[-1.4455931E-1,-2.594769E-2,2.067581E-1,2.7584946E-2,-1.1305671E-2],"categories":[],"categories_nodes":[],"categories_segments":[],"categories_sizes":[],"default_left":[0,0,0,0,0],"id":14,"left_children":[1,-1,3,-1,-1],"loss_changes":[3.448697E0,0E0,2.1821187E0,0E0,0E0],"parents":[2147483647,0,0,2,2],"right_children":[2,-1,4,-1,-1],"split_conditions":[4.4645557E-1,-2.594769E-2,5.1978123E-1,2.7584946E-2,-1.1305671E-2],"split_indices":[6,0,6,0,0],"split_type":[0,0,0,0,0],"sum_hessian":[2.4166481E1,1.16058035E1,1.25606785E1,6.9661183E0,5.59456E0],"tree_param":{"num_deleted":"0","num_feature":"17","num_nodes":"5","size_leaf_vector":"1"}},{"base_weights":[8.560498E-4,3.0766597E-2,-2.3307776E-1,-4.1734466E-1,6.617252E-3,-3.1056115E-2,-3.4059614E-3],"categories":[],"categories_nodes":[],"categories_segments":[],"categories_sizes":[],"default_left":[0,0,0,0,0,0,0],"id":15,"left_children":[1,-1,3,5,-1,-1,-1],"loss_changes":[3.8108797E0,0E0,1.3559203E0,8.126621E-1,0E0,0E0,0E0],"parents":[2147483647,0,0,2,2,3,3],"right_children":[2,-1,4,6,-1,-1,-1],"split_conditions":[2.8308943E-1,3.0766597E-2,2.973712E-1,5.1421833E-1,6.617252E-3,-3.1056115E-2,-3.4059614E-3],"split_indices":[4,0,4,6,0,0,0],"split_type":[0,0,0,0,0,0,0],"sum_hessian":[2.4247425E1,6.354117E0,1.7893309E1,1.1982581E1,5.910728E0,6.8945823E0,5.0879984E0],"tree_param":{"num_deleted":"0","num_feature":"17","num_nodes":"7","size_leaf_vector":"1"}},{"base_weights":[-1.2153278E-1,2.4581393E-2,-5.190422E-1,-3.155505E-2,-1.2310258E-2],"categories":[],"categories_nodes":[],"categories_segments":[],"categories_sizes":[],"default_left":[0,0,0,0,0],"id":16,"left_children":[1,-1,3,-1,-1],"loss_changes":[5.7393603E0,0E0,1.9193172E-1,0E0,0E0],"parents":[2147483647,0,0,2,2],"right_children":[2,-1,4,-1,-1],"split_conditions":[2.5663292E-1,2.4581393E-2,5.7306592E-3,-3.155505E-2,-1.2310258E-2],"split_indices":[6,0,13,0,0],"split_type":[0,0,0,0,0],"sum_hessian":[2.1489164E1,8.259893E0,1.3229271E1,8.187076E0,5.0421953E0],"tree_param":{"num_deleted":"0","num_feature":"17","num_nodes":"5","size_leaf_vector":"1"}},{"base_weights":[-8.4268965E-2,-2.5138417E-2,2.9869547E-1,3.2721072E-2,-2.4187635E-3],"categories":[],"categories_nodes":[],"categories_segments":[],"categories_sizes":[],"default_left":[0,0,0,0,0],"id":17,"left_children":[1,-1,3,-1,-1],"loss_changes":[4.0400987E0,0E0,1.7108026E0,0E0,0E0],"parents":[2147483647,0,0,2,2],"right_children":[2,-1,4,-1,-1],"split_conditions":[4.4645557E-1,-2.5138417E-2,5.158781E-1,3.2721072E-2,-2.4187635E-3],"split_indices":[6,0,6,0,0],"split_type":[0,0,0,0,0],"sum_hessian":[2.314368E1,1.1034063E1,1.2109617E1,5.685205E0,6.4244127E0],"tree_param":{"num_deleted":"0","num_feature":"17","num_nodes":"5","size_leaf_vector":"1"}},{"base_weights":[-2.0742292E-2,-2.779404E-1,3.5957627E-2,-4.9831405E-1,9.297962E-3,-1.2279626E-2,-3.0857174E-2],"categories":[],"categories_nodes":[],"categories_segments":[],"categories_sizes":[],"default_left":[0,0,0,0,0,0,0],"id":18,"left_children":[1,3,-1,5,-1,-1,-1],"loss_changes":[4.6135488E0,1.9849397E0,0E0,1.4533305E-1,0E0,0E0,0E0],"parents":[2147483647,0,0,1,1,3,3],"right_children":[2,4,-1,6,-1,-1,-1],"split_conditions":[5.231515E-1,6.3492064E-3,3.5957627E-2,9.314278E-1,9.297962E-3,-1.2279626E-2,-3.0857174E-2],"split_indices":[6,13,0,7,0,0,0],"split_type":[0,0,0,0,0,0,0],"sum_hessian":[2.2425116E1,1.7204195E1,5.2209206E0,1.1759344E1,5.444851E0,5.0108275E0,6.748517E0],"tree_param":{"num_deleted":"0","num_feature":"17","num_nodes":"7","size_leaf_vector":"1"}},{"base_weights":[-1.9153006E-1,2.5253883E-2,-5.4126704E-1,-3.1996105E-2,-1.3300846E-2],"categories":[],"categories_nodes":[],"categories_segments":[],"categories_sizes":[],"default_left":[0,0,0,0,0],"id":19,"left_children":[1,-1,3,-1,-1],"loss_changes":[6.0343075E0,0E0,1.8209696E-1,0E0,0E0],"parents":[2147483647,0,0,2,2],"right_children":[2,-1,4,-1,-1],"split_conditions":[2.534894E-1,2.5253883E-2,3.2081507E-2,-3.1996105E-2,-1.3300846E-2],"split_indices":[6,0,1,0,0],"split_type":[0,0,0,0,0],"sum_hessian":[2.2631405E1,7.3204355E0,1.5310968E1,1.0028411E1,5.282558E0],"tree_param":{"num_deleted":"0","num_feature":"17","num_nodes":"5","size_leaf_vector":"1"}},{"base_weights":[-3.5191488E-2,-4.189115E-1,4.2592067E-1,-3.851872E-4,-3.136195E-2,3.4751007E-4,3.7610218E-2],"categories":[],"categories_nodes":[],"categories_segments":[],"categories_sizes":[],"default_left":[0,0,0,0,0,0,0],"id":20,"left_children":[1,3,5,-1,-1,-1,-1],"loss_changes":[4.8163366E0,1.210778E0,1.5982189E0,0E0,0E0,0E0,0E0],"parents":[2147483647,0,0,1,1,2,2],"right_children":[2,4,6,-1,-1,-1,-1],"split_conditions":[8.712469E-3,5.8653606E-3,4.5085612E-1,-3.851872E-4,-3.136195E-2,3.4751007E-4,3.7610218E-2],"split_indices":[16,16,11,0,0,0,0],"split_type":[0,0,0,0,0,0,0],"sum_hessian":[2.5216051E1,1.3931321E1,1.128473E1,5.194713E0,8.7366085E0,5.5219517E0,5.7627783E0],"tree_param":{"num_deleted":"0","num_feature":"17","num_nodes":"7","size_leaf_vector":"1"}},{"base_weights":[1.7171899E-2,3.6985792E-2,-3.1242406E-1,-3.0819539E-2,-3.78767E-3],"categories":[],"categories_nodes":[],"categories_segments":[],"categories_sizes":[],"default_left":[0,0,0,0,0],"id":21,"left_children":[1,-1,3,-1,-1],"loss_changes":[6.1206446E0,0E0,1.1407578E0,0E0,0E0],"parents":[2147483647,0,0,2,2],"right_children":[2,-1,4,-1,-1],"split_conditions":[2.128484E-1,3.6985792E-2,6.842014E-3,-3.0819539E-2,-3.78767E-3],"split_indices":[12,0,16,0,0],"split_type":[0,0,0,0,0],"sum_hessian":[2.3551208E1,7.0829587E0,1.6468248E1,6.3218555E0,1.0146394E1],"tree_param":{"num_deleted":"0","num_feature":"17","num_nodes":"5","size_leaf_vector":"1"}},{"base_weights":[8.323194E-2,-3.721871E-1,4.5947555E-1,-2.9268706E-2,-2.7910674E-3,7.934873E-3,3.6513437E-2],"categories":[],"categories_nodes":[],"categories_segments":[],"categories_sizes":[],"default_left":[0,0,0,0,0,0,0],"id":22,"left_children":[1,3,5,-1,-1,-1,-1],"loss_changes":[4.505225E0,7.0259774E-1,9.6736145E-1,0E0,0E0,0E0,0E0],"parents":[2147483647,0,0,1,1,2,2],"right_children":[2,4,6,-1,-1,-1,-1],"split_conditions":[9.3396676E-1,9.124738E-3,1.6509637E-2,-2.9268706E-2,-2.7910674E-3,7.934873E-3,3.6513437E-2],"split_indices":[7,16,8,0,0,0,0],"split_type":[0,0,0,0,0,0,0],"sum_hessian":[2.4243788E1,1.08525095E1,1.3391278E1,5.7866826E0,5.0658264E0,7.270759E0,6.120519E0],"tree_param":{"num_deleted":"0","num_feature":"17","num_nodes":"7","size_leaf_vector":"1"}},{"base_weights":[7.499235E-2,-2.1470049E-1,4.1238433E-1,3.9548143E-3,-2.9031415E-2,3.3994352E-3,3.133874E-2],"categories":[],"categories_nodes":[],"categories_segments":[],"categories_sizes":[],"default_left":[0,0,0,0,0,0,0],"id":23,"left_children":[1,3,5,-1,-1,-1,-1],"loss_changes":[2.6102576E0,1.6303E0,7.980974E-1,0E0,0E0,0E0,0E0],"parents":[2147483647,0,0,1,1,2,2],"right_children":[2,4,6,-1,-1,-1,-1],"split_conditions":[8.712469E-3,6.529707E-3,9.231623E-1,3.9548143E-3,-2.9031415E-2,3.3994352E-3,3.133874E-2],"split_indices":[16,16,7,0,0,0,0],"split_type":[0,0,0,0,0,0,0],"sum_hessian":[2.4598003E1,1.327071E1,1.1327293E1,7.6440277E0,5.6266823E0,5.030266E0,6.297028E0],"tree_param":{"num_deleted":"0","num_feature":"17","num_nodes":"7","size_leaf_vector":"1"}},{"base_weights":[-1.5565938E-1,2.1020224E-2,-3.83093E-1,-3.2765176E-2,9.251146E-3],"categories":[],"categories_nodes":[],"categories_segments":[],"categories_sizes":[],"default_left":[0,0,0,0,0],"id":24,"left_children":[1,-1,3,-1,-1],"loss_changes":[3.158225E0,0E0,2.8079717E0,0E0,0E0],"parents":[2147483647,0,0,2,2],"right_children":[2,-1,4,-1,-1],"split_conditions":[-1.0172853E-2,2.1020224E-2,3.657587E-1,-3.2765176E-2,9.251146E-3],"split_indices":[8,0,8,0,0],"split_type":[0,0,0,0,0],"sum_hessian":[2.19048E1,5.835634E0,1.6069166E1,1.087906E1,5.1901073E0],"tree_param":{"num_deleted":"0","num_feature":"17","num_nodes":"5","size_leaf_vector":"1"}},{"base_weights":[4.1010883E-2,-3.9596188E-1,5.008799E-1,-5.208124E-3,-2.9384399E-2,7.962759E-3,3.558415E-2],"categories":[],"categories_nodes":[],"categories_segments":[],"categories_sizes":[],"default_left":[0,0,0,0,0,0,0],"id":25,"left_children":[1,3,5,-1,-1,-1,-1],"loss_changes":[5.0021095E0,5.7887924E-1,6.7636275E-1,0E0,0E0,0E0,0E0],"parents":[2147483647,0,0,1,1,2,2],"right_children":[2,4,6,-1,-1,-1,-1],"split_conditions":[9.5902675E-1,5.0276244E-1,6.529707E-3,-5.208124E-3,-2.9384399E-2,7.962759E-3,3.558415E-2],"split_indices":[7,2,16,0,0,0,0],"split_type":[0,0,0,0,0,0,0],"sum_hessian":[2.285311E1,1.1678029E1,1.1175081E1,5.449291E0,6.228738E0,5.1152387E0,6.059842E0],"tree_param":{"num_deleted":"0","num_feature":"17","num_nodes":"7","size_leaf_vector":"1"}},{"base_weights":[-1.5855558E-2,-3.4493726E-1,2.3965096E-2,-2.3255995E-3,-2.9555324E-2],"categories":[],"categories_nodes":[],"categories_segments":[],"categories_sizes":[],"default_left":[0,0,0,0,0],"id":26,"left_children":[1,3,-1,-1,-1],"loss_changes":[3.9370956E0,9.8556006E-1,0E0,0E0,0E0],"parents":[2147483647,0,0,1,1],"right_children":[2,4,-1,-1,-1],"split_conditions":[8.712469E-3,6.093621E-3,2.3965096E-2,-2.3255995E-3,-2.9555324E-2],"split_indices":[16,16,0,0,0],"split_type":[0,0,0,0,0],"sum_hessian":[2.222962E1,1.36579075E1,8.5717125E0,6.89474E0,6.7631674E0],"tree_param":{"num_deleted":"0","num_feature":"17","num_nodes":"5","size_leaf_vector":"1"}},{"base_weights":[-7.113043E-2,2.4347996E-2,-2.8031385E-1,-2.9408688E-2,-8.5703515E-2,8.010976E-3,-1.575625E-2],"categories":[],"categories_nodes":[],"categories_segments":[],"categories_sizes":[],"default_left":[0,0,0,0,0,0,0],"id":27,"left_children":[1,-1,3,-1,5,-1,-1],"loss_changes":[3.0360508E0,0E0,1.0181105E0,0E0,7.986416E-1,0E0,0E0],"parents":[2147483647,0,0,2,2,4,4],"right_children":[2,-1,4,-1,6,-1,-1],"split_conditions":[2.8308943E-1,2.4347996E-2,2.6385223E-2,-2.9408688E-2,1.8918918E-2,8.010976E-3,-1.575625E-2],"split_indices":[4,0,14,0,3,0,0],"split_type":[0,0,0,0,0,0,0],"sum_hessian":[2.4013985E1,6.0546193E0,1.7959364E1,5.973517E0,1.1985847E1,5.720089E0,6.2657585E0],"tree_param":{"num_deleted":"0","num_feature":"17","num_nodes":"7","size_leaf_vector":"1"}},{"base_weights":[-1.4810297E-1,-3.9550453E-1,9.133687E-3,-6.7771035E-3,-2.9444605E-2],"categories":[],"categories_nodes":[],"categories_segments":[],"categories_sizes":[],"default_left":[0,0,0,0,0],"id":28,"left_children":[1,3,-1,-1,-1],"loss_changes":[1.8591084E0,4.9284434E-1,0E0,0E0,0E0],"parents":[2147483647,0,0,1,1],"right_children":[2,4,-1,-1,-1],"split_conditions":[9.626418E-1,4.4764057E-1,9.133687E-3,-6.7771035E-3,-2.9444605E-2],"split_indices":[7,11,0,0,0],"split_type":[0,0,0,0,0],"sum_hessian":[2.057493E1,1.1831956E1,8.742974E0,5.9933443E0,5.8386116E0],"tree_param":{"num_deleted":"0","num_feature":"17","num_nodes":"5","size_leaf_vector":"1"}},{"base_weights":[3.0093158E-2,-2.3833172E-2,2.6346338E-1,-4.910379E-3,3.4449946E-2],"categories":[],"categories_nodes":[],"categories_segments":[],"categories_sizes":[],"default_left":[0,0,0,0,0],"id":29,"left_children":[1,-1,3,-1,-1],"loss_changes":[3.013981E0,0E0,2.839336E0,0E0,0E0],"parents":[2147483647,0,0,2,2],"right_children":[2,-1,4,-1,-1],"split_conditions":[2.5663292E-1,-2.3833172E-2,1.9283747E-2,-4.910379E-3,3.4449946E-2],"split_indices":[6,0,5,0,0],"split_type":[0,0,0,0,0],"sum_hessian":[2.3604017E1,6.9787784E0,1.6625238E1,9.2757845E0,7.349454E0],"tree_param":{"num_deleted":"0","num_feature":"17","num_nodes":"5","size_leaf_vector":"1"}},{"base_weights":[-2.0474233E-2,2.4385003E-2,-2.4712381E-1,-3.1774107E-2,1.4520411E-2],"categories":[],"categories_nodes":[],"categories_segments":[],"categories_sizes":[],"default_left":[0,0,0,0,0],"id":30,"left_children":[1,-1,3,-1,-1],"loss_changes":[2.7434042E0,0E0,3.7037597E0,0E0,0E0],"parents":[2147483647,0,0,2,2],"right_children":[2,-1,4,-1,-1],"split_conditions":[1.3283206E-2,2.4385003E-2,3.623023E-1,-3.1774107E-2,1.4520411E-2],"split_indices":[8,0,8,0,0],"split_type":[0,0,0,0,0],"sum_hessian":[2.1981398E1,6.2886143E0,1.5692784E1,9.112768E0,6.580016E0],"tree_param":{"num_deleted":"0","num_feature":"17","num_nodes":"5","size_leaf_vector":"1"}},{"base_weights":[4.182639E-2,-2.4461153E-1,3.453285E-1,5.6792595E-3,-2.9222747E-2,2.9467398E-2,1.5166103E-3],"categories":[],"categories_nodes":[],"categories_segments":[],"categories_sizes":[],"default_left":[0,0,0,0,0,0,0],"id":31,"left_children":[1,3,5,-1,-1,-1,-1],"loss_changes":[2.256764E0,1.7217168E0,8.9329624E-1,0E0,0E0,0E0,0E0],"parents":[2147483647,0,0,1,1,2,2],"right_children":[2,4,6,-1,-1,-1,-1],"split_conditions":[9.5902675E-1,4.5041502E-1,4.9112847E-1,5.6792595E-3,-2.9222747E-2,2.9467398E-2,1.5166103E-3],"split_indices":[7,11,11,0,0,0,0],"split_type":[0,0,0,0,0,0,0],"sum_hessian":[2.3871834E1,1.2211482E1,1.1660351E1,6.1260805E0,6.0854015E0,5.9007564E0,5.7595944E0],"tree_param":{"num_deleted":"0","num_feature":"17","num_nodes":"7","size_leaf_vector":"1"}},{"base_weights":[1.8488402E-3,-1.5040177E-1,2.07334E-2,-1.9719472E-2,2.3720716E-3],"categories":[],"categories_nodes":[],"categories_segments":[],"categories_sizes":[],"default_left":[0,0,0,0,0],"id":32,"left_children":[1,3,-1,-1,-1],"loss_changes":[1.6132735E0,9.3564737E-1,0E0,0E0,0E0],"parents":[2147483647,0,0,1,1],"right_children":[2,4,-1,-1,-1],"split_conditions":[9.131286E-3,3.71E2,2.07334E-2,-1.9719472E-2,2.3720716E-3],"split_indices":[16,0,0,0,0],"split_type":[0,0,0,0,0],"sum_hessian":[2.325509E1,1.7276741E1,5.978349E0,7.517672E0,9.759069E0],"tree_param":{"num_deleted":"0","num_feature":"17","num_nodes":"5","size_leaf_vector":"1"}},{"base_weights":[-0E0,2.3667129E-2,-2.0572877E-1,-2.433485E-2,1.8443022E-3],"categories":[],"categories_nodes":[],"categories_segments":[],"categories_sizes":[],"default_left":[0,0,0,0,0],"id":33,"left_children":[1,-1,3,-1,-1],"loss_changes":[2.5574849E0,0E0,1.3154778E0,0E0,0E0],"parents":[2147483647,0,0,2,2],"right_children":[2,-1,4,-1,-1],"split_conditions":[2.128484E-1,2.3667129E-2,4.783255E-1,-2.433485E-2,1.8443022E-3],"split_indices":[12,0,11,0,0],"split_type":[0,0,0,0,0],"sum_hessian":[2.4318243E1,6.9436097E0,1.7374634E1,7.77577E0,9.598864E0],"tree_param":{"num_deleted":"0","num_feature":"17","num_nodes":"5","size_leaf_vector":"1"}},{"base_weights":[-1.4340387E-2,2.6078722E-2,-4.154544E-1,-2.955466E-2,-5.2198377E-3],"categories":[],"categories_nodes":[],"categories_segments":[],"categories_sizes":[],"default_left":[0,0,0,0,0],"id":34,"left_children":[1,-1,3,-1,-1],"loss_changes":[5.1145363E0,0E0,6.184702E-1,0E0,0E0],"parents":[2147483647,0,0,2,2],"right_children":[2,-1,4,-1,-1],"split_conditions":[2.5663292E-1,2.6078722E-2,5.6179776E-3,-2.955466E-2,-5.2198377E-3],"split_indices":[6,0,13,0,0],"split_type":[0,0,0,0,0],"sum_hessian":[2.1833973E1,9.111196E0,1.2722778E1,7.3505406E0,5.3722377E0],"tree_param":{"num_deleted":"0","num_feature":"17","num_nodes":"5","size_leaf_vector":"1"}},{"base_weights":[1.9907176E-2,-2.7381518E-1,2.4730798E-2,2.7197578E-3,-2.8830303E-2],"categories":[],"categories_nodes":[],"categories_segments":[],"categories_sizes":[],"default_left":[0,0,0,0,0],"id":35,"left_children":[1,3,-1,-1,-1],"loss_changes":[3.342365E0,1.5369247E0,0E0,0E0,0E0],"parents":[2147483647,0,0,1,1],"right_children":[2,4,-1,-1,-1],"split_conditions":[8.370306E-3,6.529707E-3,2.4730798E-2,2.7197578E-3,-2.8830303E-2],"split_indices":[16,16,0,0,0],"split_type":[0,0,0,0,0],"sum_hessian":[2.1841518E1,1.3624193E1,8.217325E0,6.7728505E0,6.851342E0],"tree_param":{"num_deleted":"0","num_feature":"17","num_nodes":"5","size_leaf_vector":"1"}},{"base_weights":[-5.829694E-2,1.9574242E-2,-2.9150218E-1,-2.9049966E-2,-0E0],"categories":[],"categories_nodes":[],"categories_segments":[],"categories_sizes":[],"default_left":[0,0,0,0,0],"id":36,"left_children":[1,-1,3,-1,-1],"loss_changes":[2.339553E0,0E0,1.2317624E0,0E0,0E0],"parents":[2147483647,0,0,2,2],"right_children":[2,-1,4,-1,-1],"split_conditions":[2.8764847E-1,1.9574242E-2,4.758514E-1,-2.9049966E-2,-0E0],"split_indices":[4,0,11,0,0],"split_type":[0,0,0,0,0],"sum_hessian":[2.0311867E1,6.557305E0,1.3754561E1,6.363159E0,7.3914027E0],"tree_param":{"num_deleted":"0","num_feature":"17","num_nodes":"5","size_leaf_vector":"1"}},{"base_weights":[-6.813388E-3,2.2241015E-2,-2.6354435E-1,-0E0,-2.4038862E-2],"categories":[],"categories_nodes":[],"categories_segments":[],"categories_sizes":[],"default_left":[0,0,0,0,0],"id":37,"left_children":[1,-1,3,-1,-1],"loss_changes":[2.9200406E0,0E0,8.9559054E-1,0E0,0E0],"parents":[2147483647,0,0,2,2],"right_children":[2,-1,4,-1,-1],"split_conditions":[2.5663292E-1,2.2241015E-2,2.8909683E-1,-0E0,-2.4038862E-2],"split_indices":[6,0,4,0,0],"split_type":[0,0,0,0,0],"sum_hessian":[2.3329266E1,8.048475E0,1.5280789E1,7.5141397E0,7.76665E0],"tree_param":{"num_deleted":"0","num_feature":"17","num_nodes":"5","size_leaf_vector":"1"}},{"base_weights":[-0E0,-2.162544E-2,2.2417468E-1,-1.5458372E-2,2.8172592E-2],"categories":[],"categories_nodes":[],"categories_segments":[],"categories_sizes":[],"default_left":[0,0,0,0,0],"id":38,"left_children":[1,-1,3,-1,-1],"loss_changes":[2.4415479E0,0E0,3.1903887E0,0E0,0E0],"parents":[2147483647,0,0,2,2],"right_children":[2,-1,4,-1,-1],"split_conditions":[2.8909683E-1,-2.162544E-2,2.5663292E-1,-1.5458372E-2,2.8172592E-2],"split_indices":[4,0,6,0,0],"split_type":[0,0,0,0,0],"sum_hessian":[2.3139755E1,7.6117306E0,1.5528024E1,5.957253E0,9.570771E0],"tree_param":{"num_deleted":"0","num_feature":"17","num_nodes":"5","size_leaf_vector":"1"}},{"base_weights":[2.2660613E-2,-2.7943143E-1,3.7569836E-1,1.0491067E-3,-2.3773378E-2,6.713528E-3,2.7088298E-2],"categories":[],"categories_nodes":[],"categories_segments":[],"categories_sizes":[],"default_left":[0,0,0,0,0,0,0],"id":39,"left_children":[1,3,5,-1,-1,-1,-1],"loss_changes":[2.6921635E0,8.472111E-1,3.2969284E-1,0E0,0E0,0E0,0E0],"parents":[2147483647,0,0,1,1,2,2],"right_children":[2,4,6,-1,-1,-1,-1],"split_conditions":[2.6648352E-1,9.2226803E-1,6.093621E-3,1.0491067E-3,-2.3773378E-2,6.713528E-3,2.7088298E-2],"split_indices":[10,7,16,0,0,0,0],"split_type":[0,0,0,0,0,0,0],"sum_hessian":[2.3168379E1,1.2444737E1,1.072364E1,5.0653105E0,7.3794265E0,5.352668E0,5.370973E0],"tree_param":{"num_deleted":"0","num_feature":"17","num_nodes":"7","size_leaf_vector":"1"}},{"base_weights":[9.4210625E-2,3.1026898E-2,-2.3062381E-1,5.4904795E-4,-1.9130304E-2],"categories":[],"categories_nodes":[],"categories_segments":[],"categories_sizes":[],"default_left":[0,0,0,0,0],"id":40,"left_children":[1,-1,3,-1,-1],"loss_changes":[4.1159906E0,0E0,5.8627236E-1,0E0,0E0],"parents":[2147483647,0,0,2,2],"right_children":[2,-1,4,-1,-1],"split_conditions":[2.534894E-1,3.1026898E-2,4.6486485E-1,5.4904795E-4,-1.9130304E-2],"split_indices":[6,0,2,0,0],"split_type":[0,0,0,0,0],"sum_hessian":[2.2009338E1,8.169643E0,1.3839695E1,5.4483237E0,8.391371E0],"tree_param":{"num_deleted":"0","num_feature":"17","num_nodes":"5","size_leaf_vector":"1"}},{"base_weights":[-2.9624825E-2,-2.0350624E-2,2.1069106E-1,2.7362073E-2,-6.0820505E-3],"categories":[],"categories_nodes":[],"categories_segments":[],"categories_sizes":[],"default_left":[0,0,0,0,0],"id":41,"left_children":[1,-1,3,-1,-1],"loss_changes":[2.1903558E0,0E0,1.7356567E0,0E0,0E0],"parents":[2147483647,0,0,2,2],"right_children":[2,-1,4,-1,-1],"split_conditions":[8.1515916E-2,-2.0350624E-2,3.623023E-1,2.7362073E-2,-6.0820505E-3],"split_indices":[8,0,8,0,0],"split_type":[0,0,0,0,0],"sum_hessian":[2.1989502E1,8.446981E0,1.3542521E1,6.5567646E0,6.985757E0],"tree_param":{"num_deleted":"0","num_feature":"17","num_nodes":"5","size_leaf_vector":"1"}},{"base_weights":[-4.788551E-2,2.8277665E-2,-3.8678533E-1,-3.1084865E-2,3.375037E-3],"categories":[],"categories_nodes":[],"categories_segments":[],"categories_sizes":[],"default_left":[0,0,0,0,0],"id":42,"left_children":[1,-1,3,-1,-1],"loss_changes":[5.1534357E0,0E0,1.8095436E0,0E0,0E0],"parents":[2147483647,0,0,2,2],"right_children":[2,-1,4,-1,-1],"split_conditions":[2.128484E-1,2.8277665E-2,6.329114E-3,-3.1084865E-2,3.375037E-3],"split_indices":[12,0,13,0,0],"split_type":[0,0,0,0,0],"sum_hessian":[2.2822515E1,7.778633E0,1.5043882E1,9.818389E0,5.225493E0],"tree_param":{"num_deleted":"0","num_feature":"17","num_nodes":"5","size_leaf_vector":"1"}},{"base_weights":[-0E0,2.3054583E-2,-3.072426E-1,-2.5269708E-2,-9.156465E-4],"categories":[],"categories_nodes":[],"categories_segments":[],"categories_sizes":[],"default_left":[0,0,0,0,0],"id":43,"left_children":[1,-1,3,-1,-1],"loss_changes":[3.6210518E0,0E0,8.2414436E-1,0E0,0E0],"parents":[2147483647,0,0,2,2],"right_children":[2,-1,4,-1,-1],"split_conditions":[2.534894E-1,2.3054583E-2,8.894757E-3,-2.5269708E-2,-9.156465E-4],"split_indices":[6,0,16,0,0],"split_type":[0,0,0,0,0],"sum_hessian":[2.3633833E1,9.162372E0,1.4471461E1,7.9345493E0,6.536912E0],"tree_param":{"num_deleted":"0","num_feature":"17","num_nodes":"5","size_leaf_vector":"1"}},{"base_weights":[-3.5691682E-2,-2.5260324E-2,2.1750443E-1,-1.3091311E-2,2.6582902E-2],"categories":[],"categories_nodes":[],"categories_segments":[],"categories_sizes":[],"default_left":[0,0,0,0,0],"id":44,"left_children":[1,-1,3,-1,-1],"loss_changes":[2.715118E0,0E0,2.3708272E0,0E0,0E0],"parents":[2147483647,0,0,2,2],"right_children":[2,-1,4,-1,-1],"split_conditions":[2.890074E-1,-2.5260324E-2,2.547644E-1,-1.3091311E-2,2.6582902E-2],"split_indices":[4,0,6,0,0],"split_type":[0,0,0,0,0],"sum_hessian":[2.067293E1,7.0322657E0,1.3640664E1,5.340486E0,8.300178E0],"tree_param":{"num_deleted":"0","num_feature":"17","num_nodes":"5","size_leaf_vector":"1"}},{"base_weights":[-1.86256E-1,1.0163229E-2,-3.986962E-1,-3.089484E-2,7.592423E-4],"categories":[],"categories_nodes":[],"categories_segments":[],"categories_sizes":[],"default_left":[0,0,0,0,0],"id":45,"left_children":[1,-1,3,-1,-1],"loss_changes":[1.9535012E0,0E0,1.4298832E0,0E0,0E0],"parents":[2147483647,0,0,2,2],"right_children":[2,-1,4,-1,-1],"split_conditions":[1.6509637E-2,1.0163229E-2,3.5844317E-1,-3.089484E-2,7.592423E-4],"split_indices":[8,0,8,0,0],"split_type":[0,0,0,0,0],"sum_hessian":[2.1391798E1,7.3985767E0,1.399322E1,8.983854E0,5.009366E0],"tree_param":{"num_deleted":"0","num_feature":"17","num_nodes":"5","size_leaf_vector":"1"}},{"base_weights":[4.7728807E-2,-1.4686207E-2,2.8897744E-1,-0E0,2.7670402E-2],"categories":[],"categories_nodes":[],"categories_segments":[],"categories_sizes":[],"default_left":[0,0,0,0,0],"id":46,"left_children":[1,-1,3,-1,-1],"loss_changes":[2.0773313E0,0E0,1.0867742E0,0E0,0E0],"parents":[2147483647,0,0,2,2],"right_children":[2,-1,4,-1,-1],"split_conditions":[9.3114185E-1,-1.4686207E-2,1.6509637E-2,-0E0,2.7670402E-2],"split_indices":[7,0,8,0,0],"split_type":[0,0,0,0,0],"sum_hessian":[2.3193321E1,9.340771E0,1.3852551E1,7.254181E0,6.5983706E0],"tree_param":{"num_deleted":"0","num_feature":"17","num_nodes":"5","size_leaf_vector":"1"}},{"base_weights":[7.489126E-2,-1.8346835E-2,3.0474585E-1,3.2647878E-2,-6.2636146E-3],"categories":[],"categories_nodes":[],"categories_segments":[],"categories_sizes":[],"default_left":[0,0,0,0,0],"id":47,"left_children":[1,-1,3,-1,-1],"loss_changes":[2.5103097E0,0E0,2.570909E0,0E0,0E0],"parents":[2147483647,0,0,2,2],"right_children":[2,-1,4,-1,-1],"split_conditions":[5.9242763E-2,-1.8346835E-2,3.623023E-1,3.2647878E-2,-6.2636146E-3],"split_indices":[8,0,8,0,0],"split_type":[0,0,0,0,0],"sum_hessian":[2.2678583E1,7.407807E0,1.5270776E1,8.280037E0,6.99074E0],"tree_param":{"num_deleted":"0","num_feature":"17","num_nodes":"5","size_leaf_vector":"1"}},{"base_weights":[-1.2024297E-2,-2.6049095E-1,2.6683718E-2,-1.3349355E-4,-2.8343594E-2],"categories":[],"categories_nodes":[],"categories_segments":[],"categories_sizes":[],"default_left":[0,0,0,0,0],"id":48,"left_children":[1,3,-1,-1,-1],"loss_changes":[3.003068E0,1.1620169E0,0E0,0E0,0E0],"parents":[2147483647,0,0,1,1],"right_children":[2,4,-1,-1,-1],"split_conditions":[2.8481012E-2,1.9283747E-2,2.6683718E-2,-1.3349355E-4,-2.8343594E-2],"split_indices":[5,5,0,0,0],"split_type":[0,0,0,0,0],"sum_hessian":[2.0324678E1,1.4450842E1,5.8738365E0,8.572308E0,5.8785343E0],"tree_param":{"num_deleted":"0","num_feature":"17","num_nodes":"5","size_leaf_vector":"1"}},{"base_weights":[-1.6621428E-2,4.108391E-1,-3.491555E-1,3.393816E-2,3.040502E-3,-4.8830737E-3,-2.8938744E-2],"categories":[],"categories_nodes":[],"categories_segments":[],"categories_sizes":[],"default_left":[0,0,0,0,0,0,0],"id":49,"left_children":[1,3,5,-1,-1,-1,-1],"loss_changes":[3.665505E0,9.3402326E-1,7.208545E-1,0E0,0E0,0E0,0E0],"parents":[2147483647,0,0,1,1,2,2],"right_children":[2,4,6,-1,-1,-1,-1],"split_conditions":[2.5663292E-1,2.590943E-1,1.923077E-2,3.393816E-2,3.040502E-3,-4.8830737E-3,-2.8938744E-2],"split_indices":[6,12,5,0,0,0,0],"split_type":[0,0,0,0,0,0,0],"sum_hessian":[2.382129E1,1.0188342E1,1.3632947E1,5.077216E0,5.111126E0,7.39466E0,6.238287E0],"tree_param":{"num_deleted":"0","num_feature":"17","num_nodes":"7","size_leaf_vector":"1"}},{"base_weights":[-2.5820897E-3,-1.7072702E-2,1.3671248E-1,-9.127352E-3,2.62287E-2],"categories":[],"categories_nodes":[],"categories_segments":[],"categories_sizes":[],"default_left":[0,0,0,0,0],"id":50,"left_children":[1,-1,3,-1,-1],"loss_changes":[1.2627527E0,0E0,2.4152486E0,0E0,0E0],"parents":[2147483647,0,0,2,2],"right_children":[2,-1,4,-1,-1],"split_conditions":[2.5663292E-1,-1.7072702E-2,4.5041502E-1,-9.127352E-3,2.62287E-2],"split_indices":[6,0,11,0,0],"split_type":[0,0,0,0,0],"sum_hessian":[2.4328835E1,6.8735785E0,1.7455257E1,9.723282E0,7.731975E0],"tree_param":{"num_deleted":"0","num_feature":"17","num_nodes":"5","size_leaf_vector":"1"}},{"base_weights":[4.053351E-4,-1.9498913E-1,3.3288892E-2,-5.0999737E-1,2.177415E-2,-3.0863285E-2,-1.2826224E-2],"categories":[],"categories_nodes":[],"categories_segments":[],"categories_sizes":[],"default_left":[0,0,0,0,0,0,0],"id":51,"left_children":[1,3,-1,5,-1,-1,-1],"loss_changes":[3.5764961E0,4.3744593E0,0E0,1.480701E-1,0E0,0E0,0E0],"parents":[2147483647,0,0,1,1,3,3],"right_children":[2,4,-1,6,-1,-1,-1],"split_conditions":[5.1978123E-1,2.8571429E-2,3.3288892E-2,5.103093E-1,2.177415E-2,-3.0863285E-2,-1.2826224E-2],"split_indices":[6,5,0,2,0,0,0],"split_type":[0,0,0,0,0,0,0],"sum_hessian":[2.5148722E1,1.9870247E1,5.278476E0,1.3483211E1,6.3870354E0,8.18824E0,5.29497E0],"tree_param":{"num_deleted":"0","num_feature":"17","num_nodes":"7","size_leaf_vector":"1"}},{"base_weights":[-5.0347604E-2,1.8604843E-2,-2.5163728E-1,-1.772648E-3,-2.2609688E-2],"categories":[],"categories_nodes":[],"categories_segments":[],"categories_sizes":[],"default_left":[0,0,0,0,0],"id":52,"left_children":[1,-1,3,-1,-1],"loss_changes":[2.0267339E0,0E0,6.397462E-1,0E0,0E0],"parents":[2147483647,0,0,2,2],"right_children":[2,-1,4,-1,-1],"split_conditions":[2.5663292E-1,1.8604843E-2,2.8909683E-1,-1.772648E-3,-2.2609688E-2],"split_indices":[6,0,4,0,0],"split_type":[0,0,0,0,0],"sum_hessian":[2.1875002E1,6.625267E0,1.5249735E1,8.145213E0,7.1045218E0],"tree_param":{"num_deleted":"0","num_feature":"17","num_nodes":"5","size_leaf_vector":"1"}},{"base_weights":[-3.2732215E-2,-1.9420162E-2,1.8695417E-1,2.3212433E-2,-7.919725E-3],"categories":[],"categories_nodes":[],"categories_segments":[],"categories_sizes":[],"default_left":[0,0,0,0,0],"id":53,"left_children":[1,-1,3,-1,-1],"loss_changes":[1.8584024E0,0E0,1.48983E0,0E0,0E0],"parents":[2147483647,0,0,2,2],"right_children":[2,-1,4,-1,-1],"split_conditions":[8.1515916E-2,-1.9420162E-2,3.5844317E-1,2.3212433E-2,-7.919725E-3],"split_indices":[8,0,8,0,0],"split_type":[0,0,0,0,0],"sum_hessian":[2.1597036E1,8.126875E0,1.3470161E1,7.4408627E0,6.0292983E0],"tree_param":{"num_deleted":"0","num_feature":"17","num_nodes":"5","size_leaf_vector":"1"}},{"base_weights":[6.116299E-2,-1.7604591E-1,2.7360424E-2,1.2473113E-2,-2.9710764E-2],"categories":[],"categories_nodes":[],"categories_segments":[],"categories_sizes":[],"default_left":[0,0,0,0,0],"id":54,"left_children":[1,3,-1,-1,-1],"loss_changes":[2.9170809E0,3.1797507E0,0E0,0E0,0E0],"parents":[2147483647,0,0,1,1],"right_children":[2,4,-1,-1,-1],"split_conditions":[3.623023E-1,1.6509637E-2,2.7360424E-2,1.2473113E-2,-2.9710764E-2],"split_indices":[8,8,0,0,0],"split_type":[0,0,0,0,0],"sum_hessian":[2.3143694E1,1.5843509E1,7.3001842E0,7.9342837E0,7.9092255E0],"tree_param":{"num_deleted":"0","num_feature":"17","num_nodes":"5","size_leaf_vector":"1"}},{"base_weights":[-2.2946484E-2,2.1358041E-2,-3.809177E-1,-6.9459276E-3,-2.8076539E-2],"categories":[],"categories_nodes":[],"categories_segments":[],"categories_sizes":[],"default_left":[0,0,0,0,0],"id":55,"left_children":[1,-1,3,-1,-1],"loss_changes":[3.723057E0,0E0,4.191246E-1,0E0,0E0],"parents":[2147483647,0,0,2,2],"right_children":[2,-1,4,-1,-1],"split_conditions":[2.5663292E-1,2.1358041E-2,2.8909683E-1,-6.9459276E-3,-2.8076539E-2],"split_indices":[6,0,4,0,0],"split_type":[0,0,0,0,0],"sum_hessian":[2.112542E1,9.14899E0,1.1976429E1,6.1111135E0,5.8653154E0],"tree_param":{"num_deleted":"0","num_feature":"17","num_nodes":"5","size_leaf_vector":"1"}},{"base_weights":[-0E0,-1.694353E-2,2.9332566E-1,2.9376302E-2,-1.6873367E-3],"categories":[],"categories_nodes":[],"categories_segments":[],"categories_sizes":[],"default_left":[0,0,0,0,0],"id":56,"left_children":[1,-1,3,-1,-1],"loss_changes":[2.1879845E0,0E0,1.1958351E0,0E0,0E0],"parents":[2147483647,0,0,2,2],"right_children":[2,-1,4,-1,-1],"split_conditions":[8.712469E-3,-1.694353E-2,5.145879E-1,2.9376302E-2,-1.6873367E-3],"split_indices":[16,0,6,0,0],"split_type":[0,0,0,0,0],"sum_hessian":[1.9973688E1,9.327732E0,1.0645956E1,5.346355E0,5.299601E0],"tree_param":{"num_deleted":"0","num_feature":"17","num_nodes":"5","size_leaf_vector":"1"}},{"base_weights":[-5.2557435E-2,2.6260236E-2,-2.9517213E-1,-4.5440727E-1,2.9457011E-3,-2.8297214E-2,-1.1361978E-2],"categories":[],"categories_nodes":[],"categories_segments":[],"categories_sizes":[],"default_left":[0,0,0,0,0,0,0],"id":57,"left_children":[1,-1,3,5,-1,-1,-1],"loss_changes":[3.446909E0,0E0,1.0483338E0,1.0432768E-1,0E0,0E0,0E0],"parents":[2147483647,0,0,2,2,3,3],"right_children":[2,-1,4,6,-1,-1,-1],"split_conditions":[2.8308943E-1,2.6260236E-2,5.140599E-1,6.1728396E-3,2.9457011E-3,-2.8297214E-2,-1.1361978E-2],"split_indices":[4,0,6,13,0,0,0],"split_type":[0,0,0,0,0,0,0],"sum_hessian":[2.264844E1,6.231592E0,1.6416847E1,1.1323623E1,5.093224E0,6.299248E0,5.024374E0],"tree_param":{"num_deleted":"0","num_feature":"17","num_nodes":"7","size_leaf_vector":"1"}},{"base_weights":[-2.6288355E-2,3.062052E-2,-3.6140716E-1,-2.9274493E-2,-5.2918396E-3],"categories":[],"categories_nodes":[],"categories_segments":[],"categories_sizes":[],"default_left":[0,0,0,0,0],"id":58,"left_children":[1,-1,3,-1,-1],"loss_changes":[5.0871778E0,0E0,7.690902E-1,0E0,0E0],"parents":[2147483647,0,0,2,2],"right_children":[2,-1,4,-1,-1],"split_conditions":[2.534894E-1,3.062052E-2,-6.1971074E-1,-2.9274493E-2,-5.2918396E-3],"split_indices":[6,0,9,0,0],"split_type":[0,0,0,0,0],"sum_hessian":[2.1850632E1,7.132E0,1.4718633E1,6.946119E0,7.772514E0],"tree_param":{"num_deleted":"0","num_feature":"17","num_nodes":"5","size_leaf_vector":"1"}},{"base_weights":[1.1373891E-2,2.3357432E-1,-1.2527393E-2,2.7993957E-2,-8.712648E-3],"categories":[],"categories_nodes":[],"categories_segments":[],"categories_sizes":[],"default_left":[0,0,0,0,0],"id":59,"left_children":[1,3,-1,-1,-1],"loss_changes":[1.3402114E0,1.8201425E0,0E0,0E0,0E0],"parents":[2147483647,0,0,1,1],"right_children":[2,4,-1,-1,-1],"split_conditions":[9.3648595E-1,-5.7933116E-1,-1.2527393E-2,2.7993957E-2,-8.712648E-3],"split_indices":[7,9,0,0,0],"split_type":[0,0,0,0,0],"sum_hessian":[2.1051659E1,1.1654568E1,9.397091E0,6.403478E0,5.251089E0],"tree_param":{"num_deleted":"0","num_feature":"17","num_nodes":"5","size_leaf_vector":"1"}},{"base_weights":[1.3222831E-1,3.159592E-2,-8.729351E-2,-1.674023E-2,5.7562413E-3],"categories":[],"categories_nodes":[],"categories_segments":[],"categories_sizes":[],"default_left":[0,0,0,0,0],"id":60,"left_children":[1,-1,3,-1,-1],"loss_changes":[2.6401412E0,0E0,9.0057266E-1,0E0,0E0],"parents":[2147483647,0,0,2,2],"right_children":[2,-1,4,-1,-1],"split_conditions":[2.8308943E-1,3.159592E-2,2.4037151E-1,-1.674023E-2,5.7562413E-3],"split_indices":[4,0,12,0,0],"split_type":[0,0,0,0,0],"sum_hessian":[2.2069103E1,6.301694E0,1.5767408E1,7.021604E0,8.745805E0],"tree_param":{"num_deleted":"0","num_feature":"17","num_nodes":"5","size_leaf_vector":"1"}},{"base_weights":[-1.9188942E-2,-4.2516053E-1,3.3718282E-1,-2.8123463E-2,-9.59719E-3,2.9035897E-3,3.0708069E-2],"categories":[],"categories_nodes":[],"categories_segments":[],"categories_sizes":[],"default_left":[0,0,0,0,0,0,0],"id":61,"left_children":[1,3,5,-1,-1,-1,-1],"loss_changes":[3.5137358E0,1.8278098E-1,8.866466E-1,0E0,0E0,0E0,0E0],"parents":[2147483647,0,0,1,1,2,2],"right_children":[2,4,6,-1,-1,-1,-1],"split_conditions":[2.2167487E-2,-6.201006E-1,4.8135594E-1,-2.8123463E-2,-9.59719E-3,2.9035897E-3,3.0708069E-2],"split_indices":[5,9,2,0,0,0,0],"split_type":[0,0,0,0,0,0,0],"sum_hessian":[2.2235107E1,1.0435161E1,1.1799947E1,5.409619E0,5.025542E0,6.6596875E0,5.140259E0],"tree_param":{"num_deleted":"0","num_feature":"17","num_nodes":"7","size_leaf_vector":"1"}},{"base_weights":[-6.1860736E-3,-1.6522517E-2,1.4763726E-1,2.4046715E-2,-1.1479939E-2],"categories":[],"categories_nodes":[],"categories_segments":[],"categories_sizes":[],"default_left":[0,0,0,0,0],"id":62,"left_children":[1,-1,3,-1,-1],"loss_changes":[1.1877491E0,0E0,2.1121671E0,0E0,0E0],"parents":[2147483647,0,0,2,2],"right_children":[2,-1,4,-1,-1],"split_conditions":[5.9242763E-2,-1.6522517E-2,3.623023E-1,2.4046715E-2,-1.1479939E-2],"split_indices":[8,0,8,0,0],"split_type":[0,0,0,0,0],"sum_hessian":[2.1467804E1,6.7469263E0,1.4720877E1,7.8103995E0,6.910477E0],"tree_param":{"num_deleted":"0","num_feature":"17","num_nodes":"5","size_leaf_vector":"1"}},{"base_weights":[-8.066494E-2,-2.9615125E-1,2.4408678E-2,-4.500756E-1,1.4876522E-3,-2.884972E-2,-1.1338982E-2],"categories":[],"categories_nodes":[],"categories_segments":[],"categories_sizes":[],"default_left":[0,0,0,0,0,0,0],"id":63,"left_children":[1,3,-1,5,-1,-1,-1],"loss_changes":[2.7861147E0,8.827834E-1,0E0,1.1390948E-1,0E0,0E0,0E0],"parents":[2147483647,0,0,1,1,3,3],"right_children":[2,4,-1,6,-1,-1,-1],"split_conditions":[5.1978123E-1,2.8125E-2,2.4408678E-2,5.0385606E-1,1.4876522E-3,-2.884972E-2,-1.1338982E-2],"split_indices":[6,5,0,2,0,0,0],"split_type":[0,0,0,0,0,0,0],"sum_hessian":[2.070673E1,1.54929085E1,5.213822E0,1.047256E1,5.0203485E0,5.38179E0,5.09077E0],"tree_param":{"num_deleted":"0","num_feature":"17","num_nodes":"7","size_leaf_vector":"1"}},{"base_weights":[3.1747315E-2,-1.3977897E-2,2.769336E-1,2.5703106E-2,-4.23777E-3],"categories":[],"categories_nodes":[],"categories_segments":[],"categories_sizes":[],"default_left":[0,0,0,0,0],"id":64,"left_children":[1,-1,3,-1,-1],"loss_changes":[1.8235925E0,0E0,1.2427821E0,0E0,0E0],"parents":[2147483647,0,0,2,2],"right_children":[2,-1,4,-1,-1],"split_conditions":[9.3396676E-1,-1.3977897E-2,2.598056E-1,2.5703106E-2,-4.23777E-3],"split_indices":[7,0,12,0,0],"split_type":[0,0,0,0,0],"sum_hessian":[2.188074E1,9.399039E0,1.2481701E1,7.4515533E0,5.0301476E0],"tree_param":{"num_deleted":"0","num_feature":"17","num_nodes":"5","size_leaf_vector":"1"}},{"base_weights":[6.1026476E-2,-2.3751275E-1,3.4363773E-1,-2.122155E-2,-0E0,-0E0,2.9980678E-2],"categories":[],"categories_nodes":[],"categories_segments":[],"categories_sizes":[],"default_left":[0,0,0,0,0,0,0],"id":65,"left_children":[1,3,5,-1,-1,-1,-1],"loss_changes":[2.0642042E0,5.5041677E-1,1.0995795E0,0E0,0E0,0E0,0E0],"parents":[2147483647,0,0,1,1,2,2],"right_children":[2,4,6,-1,-1,-1,-1],"split_conditions":[4.9586776E-1,2.6385223E-2,4.5768803E-1,-2.122155E-2,-0E0,-0E0,2.9980678E-2],"split_indices":[2,14,11,0,0,0,0],"split_type":[0,0,0,0,0,0,0],"sum_hessian":[2.237277E1,1.0785322E1,1.1587447E1,5.746101E0,5.0392213E0,5.3948746E0,6.1925726E0],"tree_param":{"num_deleted":"0","num_feature":"17","num_nodes":"7","size_leaf_vector":"1"}},{"base_weights":[-1.0599008E-1,1.2335134E-2,-3.4549507E-1,-2.765281E-2,-3.0008485E-4],"categories":[],"categories_nodes":[],"categories_segments":[],"categories_sizes":[],"default_left":[0,0,0,0,0],"id":66,"left_children":[1,-1,3,-1,-1],"loss_changes":[1.8580693E0,0E0,8.578944E-1,0E0,0E0],"parents":[2147483647,0,0,2,2],"right_children":[2,-1,4,-1,-1],"split_conditions":[1.6509637E-2,1.2335134E-2,3.5714364E-1,-2.765281E-2,-3.0008485E-4],"split_indices":[8,0,8,0,0],"split_type":[0,0,0,0,0],"sum_hessian":[1.9870377E1,7.8552423E0,1.2015134E1,6.883219E0,5.131915E0],"tree_param":{"num_deleted":"0","num_feature":"17","num_nodes":"5","size_leaf_vector":"1"}},{"base_weights":[3.9633453E-2,3.4493512E-1,-1.8970892E-1,3.0045617E-2,1.0253979E-3,3.2105788E-3,-2.1363746E-2],"categories":[],"categories_nodes":[],"categories_segments":[],"categories_sizes":[],"default_left":[0,0,0,0,0,0,0],"id":67,"left_children":[1,3,5,-1,-1,-1,-1],"loss_changes":[1.8146949E0,8.5261357E-1,9.4431263E-1,0E0,0E0,0E0,0E0],"parents":[2147483647,0,0,1,1,2,2],"right_children":[2,4,6,-1,-1,-1,-1],"split_conditions":[2.5663292E-1,2.5941536E-1,2.8909683E-1,3.0045617E-2,1.0253979E-3,3.2105788E-3,-2.1363746E-2],"split_indices":[6,12,4,0,0,0,0],"split_type":[0,0,0,0,0,0,0],"sum_hessian":[2.376106E1,1.0163445E1,1.3597616E1,5.0323753E0,5.1310697E0,6.7218237E0,6.875792E0],"tree_param":{"num_deleted":"0","num_feature":"17","num_nodes":"7","size_leaf_vector":"1"}},{"base_weights":[4.6598706E-3,-2.1959674E-2,2.316278E-1,-3.439466E-3,2.6996171E-2],"categories":[],"categories_nodes":[],"categories_segments":[],"categories_sizes":[],"default_left":[0,0,0,0,0],"id":68,"left_children":[1,-1,3,-1,-1],"loss_changes":[2.371328E0,0E0,1.5519307E0,0E0,0E0],"parents":[2147483647,0,0,2,2],"right_children":[2,-1,4,-1,-1],"split_conditions":[5.9242763E-2,-2.1959674E-2,4.520565E-1,-3.439466E-3,2.6996171E-2],"split_indices":[8,0,11,0,0],"split_type":[0,0,0,0,0],"sum_hessian":[2.1735207E1,6.8885255E0,1.4846681E1,7.7486024E0,7.0980787E0],"tree_param":{"num_deleted":"0","num_feature":"17","num_nodes":"5","size_leaf_vector":"1"}},{"base_weights":[-8.015106E-3,-1.6785726E-1,2.2066383E-2,-4.3968466E-1,1.4328362E-2,-2.8775567E-2,-9.876474E-3],"categories":[],"categories_nodes":[],"categories_segments":[],"categories_sizes":[],"default_left":[0,0,0,0,0,0,0],"id":69,"left_children":[1,3,-1,5,-1,-1,-1],"loss_changes":[1.7368352E0,2.3950899E0,0E0,2.0202231E-1,0E0,0E0,0E0],"parents":[2147483647,0,0,1,1,3,3],"right_children":[2,4,-1,6,-1,-1,-1],"split_conditions":[5.1957303E-1,2.8571429E-2,2.2066383E-2,5.097493E-1,1.4328362E-2,-2.8775567E-2,-9.876474E-3],"split_indices":[6,5,0,2,0,0,0],"split_type":[0,0,0,0,0,0,0],"sum_hessian":[2.2531189E1,1.7245523E1,5.2856665E0,1.0948719E1,6.296804E0,5.8678293E0,5.08089E0],"tree_param":{"num_deleted":"0","num_feature":"17","num_nodes":"7","size_leaf_vector":"1"}},{"base_weights":[-4.471015E-2,1.5669414E-1,-1.5835224E-2,2.2255883E-2,-5.364464E-3],"categories":[],"categories_nodes":[],"categories_segments":[],"categories_sizes":[],"default_left":[0,0,0,0,0],"id":70,"left_children":[1,3,-1,-1,-1],"loss_changes":[1.1854726E0,1.0106653E0,0E0,0E0,0E0],"parents":[2147483647,0,0,1,1],"right_children":[2,4,-1,-1,-1],"split_conditions":[3.71E2,2.6610646E-1,-1.5835224E-2,2.2255883E-2,-5.364464E-3],"split_indices":[0,10,0,0,0],"split_type":[0,0,0,0,0],"sum_hessian":[1.94423E1,1.1203022E1,8.239278E0,5.20681E0,5.996212E0],"tree_param":{"num_deleted":"0","num_feature":"17","num_nodes":"5","size_leaf_vector":"1"}},{"base_weights":[2.9527364E-2,-1.6951414E-2,3.717334E-1,3.6781423E-2,-8.6766994E-4],"categories":[],"categories_nodes":[],"categories_segments":[],"categories_sizes":[],"default_left":[0,0,0,0,0],"id":71,"left_children":[1,-1,3,-1,-1],"loss_changes":[2.864913E0,0E0,1.7644997E0,0E0,0E0],"parents":[2147483647,0,0,2,2],"right_children":[2,-1,4,-1,-1],"split_conditions":[4.520565E-1,-1.6951414E-2,9.5427126E-1,3.6781423E-2,-8.6766994E-4],"split_indices":[11,0,7,0,0],"split_type":[0,0,0,0,0],"sum_hessian":[2.069023E1,9.825374E0,1.0864856E1,5.2867546E0,5.5781007E0],"tree_param":{"num_deleted":"0","num_feature":"17","num_nodes":"5","size_leaf_vector":"1"}},{"base_weights":[-0E0,2.1055639E-2,-1.4044409E-1,-1.8492496E-2,1.5660765E-3],"categories":[],"categories_nodes":[],"categories_segments":[],"categories_sizes":[],"default_left":[0,0,0,0,0],"id":72,"left_children":[1,-1,3,-1,-1],"loss_changes":[1.4442679E0,0E0,7.549224E-1,0E0,0E0],"parents":[2147483647,0,0,2,2],"right_children":[2,-1,4,-1,-1],"split_conditions":[9.2044044E-1,2.1055639E-2,6.842014E-3,-1.8492496E-2,1.5660765E-3],"split_indices":[7,0,16,0,0],"split_type":[0,0,0,0,0],"sum_hessian":[2.2146963E1,5.1415606E0,1.7005402E1,7.0365405E0,9.968862E0],"tree_param":{"num_deleted":"0","num_feature":"17","num_nodes":"5","size_leaf_vector":"1"}},{"base_weights":[-0E0,1.8359682E-1,-1.2900236E-2,2.5395513E-2,-3.7709635E-3],"categories":[],"categories_nodes":[],"categories_segments":[],"categories_sizes":[],"default_left":[0,0,0,0,0],"id":73,"left_children":[1,3,-1,-1,-1],"loss_changes":[1.0754036E0,1.2097207E0,0E0,0E0,0E0],"parents":[2147483647,0,0,1,1],"right_children":[2,4,-1,-1,-1],"split_conditions":[3.71E2,2.658228E-1,-1.2900236E-2,2.5395513E-2,-3.7709635E-3],"split_indices":[0,10,0,0,0],"split_type":[0,0,0,0,0],"sum_hessian":[2.0784761E1,1.2430157E1,8.354605E0,5.264119E0,7.166037E0],"tree_param":{"num_deleted":"0","num_feature":"17","num_nodes":"5","size_leaf_vector":"1"}},{"base_weights":[2.7411092E-2,-1.3788653E-2,1.8177438E-1,2.2585915E-2,-3.2012665E-3],"categories":[],"categories_nodes":[],"categories_segments":[],"categories_sizes":[],"default_left":[0,0,0,0,0],"id":74,"left_children":[1,-1,3,-1,-1],"loss_changes":[9.536076E-1,0E0,9.797907E-1,0E0,0E0],"parents":[2147483647,0,0,2,2],"right_children":[2,-1,4,-1,-1],"split_conditions":[5.9242763E-2,-1.3788653E-2,3.5183525E-1,2.2585915E-2,-3.2012665E-3],"split_indices":[8,0,8,0,0],"split_type":[0,0,0,0,0],"sum_hessian":[1.8505754E1,5.7594013E0,1.2746352E1,5.869449E0,6.876903E0],"tree_param":{"num_deleted":"0","num_feature":"17","num_nodes":"5","size_leaf_vector":"1"}},{"base_weights":[-2.8767738E-2,1.8397357E-2,-2.4569012E-1,-2.8911019E-2,8.456635E-3],"categories":[],"categories_nodes":[],"categories_segments":[],"categories_sizes":[],"default_left":[0,0,0,0,0],"id":75,"left_children":[1,-1,3,-1,-1],"loss_changes":[2.1119037E0,0E0,2.351411E0,0E0,0E0],"parents":[2147483647,0,0,2,2],"right_children":[2,-1,4,-1,-1],"split_conditions":[1.6509637E-2,1.8397357E-2,3.623023E-1,-2.8911019E-2,8.456635E-3],"split_indices":[8,0,8,0,0],"split_type":[0,0,0,0,0],"sum_hessian":[2.2632524E1,7.5915804E0,1.5040944E1,8.263737E0,6.7772074E0],"tree_param":{"num_deleted":"0","num_feature":"17","num_nodes":"5","size_leaf_vector":"1"}},{"base_weights":[9.257634E-2,-8.5547715E-2,1.672705E-2,6.315405E-3,-1.4952809E-2],"categories":[],"categories_nodes":[],"categories_segments":[],"categories_sizes":[],"default_left":[0,0,0,0,0],"id":76,"left_children":[1,3,-1,-1,-1],"loss_changes":[9.169937E-1,6.0226756E-1,0E0,0E0,0E0],"parents":[2147483647,0,0,1,1],"right_children":[2,4,-1,-1,-1],"split_conditions":[6.0975607E-3,4.5041502E-1,1.672705E-2,6.315405E-3,-1.4952809E-2],"split_indices":[13,11,0,0,0],"split_type":[0,0,0,0,0],"sum_hessian":[1.9034351E1,1.1097793E1,7.9365582E0,5.5403643E0,5.5574284E0],"tree_param":{"num_deleted":"0","num_feature":"17","num_nodes":"5","size_leaf_vector":"1"}},{"base_weights":[3.893667E-2,-1.9991517E-1,2.5109214E-1,-1.6877009E-2,-5.825933E-4,2.4981117E-2,-2.484905E-4],"categories":[],"categories_nodes":[],"categories_segments":[],"categories_sizes":[],"default_left":[0,0,0,0,0,0,0],"id":77,"left_children":[1,3,5,-1,-1,-1,-1],"loss_changes":[1.2174569E0,2.4934596E-1,8.6720747E-1,0E0,0E0,0E0,0E0],"parents":[2147483647,0,0,1,1,2,2],"right_children":[2,4,6,-1,-1,-1,-1],"split_conditions":[4.520565E-1,2.710027E-2,4.8275542E-1,-1.6877009E-2,-5.825933E-4,2.4981117E-2,-2.484905E-4],"split_indices":[11,14,11,0,0,0,0],"split_type":[0,0,0,0,0,0,0],"sum_hessian":[2.1933823E1,1.0123163E1,1.1810659E1,5.0831633E0,5.0399995E0,5.708967E0,6.101692E0],"tree_param":{"num_deleted":"0","num_feature":"17","num_nodes":"7","size_leaf_vector":"1"}},{"base_weights":[3.5515852E-2,2.2934474E-2,-1.6111259E-1,-2.0611165E-2,2.6181806E-3],"categories":[],"categories_nodes":[],"categories_segments":[],"categories_sizes":[],"default_left":[0,0,0,0,0],"id":78,"left_children":[1,-1,3,-1,-1],"loss_changes":[1.8980179E0,0E0,8.778627E-1,0E0,0E0],"parents":[2147483647,0,0,2,2],"right_children":[2,-1,4,-1,-1],"split_conditions":[2.8308943E-1,2.2934474E-2,2.6648352E-1,-2.0611165E-2,2.6181806E-3],"split_indices":[4,0,10,0,0],"split_type":[0,0,0,0,0],"sum_hessian":[2.0564754E1,6.2625713E0,1.4302183E1,6.3592596E0,7.942924E0],"tree_param":{"num_deleted":"0","num_feature":"17","num_nodes":"5","size_leaf_vector":"1"}},{"base_weights":[5.0260283E-2,1.9641006E-2,-1.9215074E-1,-2.088159E-2,4.1536157E-4],"categories":[],"categories_nodes":[],"categories_segments":[],"categories_sizes":[],"default_left":[0,0,0,0,0],"id":79,"left_children":[1,-1,3,-1,-1],"loss_changes":[2.114975E0,0E0,7.1071476E-1,0E0,0E0],"parents":[2147483647,0,0,2,2],"right_children":[2,-1,4,-1,-1],"split_conditions":[2.5663292E-1,1.9641006E-2,-6.201006E-1,-2.088159E-2,4.1536157E-4],"split_indices":[6,0,9,0,0],"split_type":[0,0,0,0,0],"sum_hessian":[2.3318647E1,9.577038E0,1.374161E1,6.192064E0,7.5495453E0],"tree_param":{"num_deleted":"0","num_feature":"17","num_nodes":"5","size_leaf_vector":"1"}},{"base_weights":[-0E0,-1.36658875E-2,2.4831037E-1,2.5439424E-2,-4.190109E-3],"categories":[],"categories_nodes":[],"categories_segments":[],"categories_sizes":[],"default_left":[0,0,0,0,0],"id":80,"left_children":[1,-1,3,-1,-1],"loss_changes":[1.5439796E0,0E0,1.1308562E0,0E0,0E0],"parents":[2147483647,0,0,2,2],"right_children":[2,-1,4,-1,-1],"split_conditions":[4.4645557E-1,-1.36658875E-2,5.158781E-1,2.5439424E-2,-4.190109E-3],"split_indices":[6,0,6,0,0],"split_type":[0,0,0,0,0],"sum_hessian":[2.077918E1,9.691057E0,1.1088122E1,6.0848556E0,5.003267E0],"tree_param":{"num_deleted":"0","num_feature":"17","num_nodes":"5","size_leaf_vector":"1"}},{"base_weights":[2.1015918E-2,2.0741647E-2,-1.785145E-1,-2.2486677E-2,5.094841E-3],"categories":[],"categories_nodes":[],"categories_segments":[],"categories_sizes":[],"default_left":[0,0,0,0,0],"id":81,"left_children":[1,-1,3,-1,-1],"loss_changes":[1.907531E0,0E0,1.2835875E0,0E0,0E0],"parents":[2147483647,0,0,2,2],"right_children":[2,-1,4,-1,-1],"split_conditions":[2.8308943E-1,2.0741647E-2,2.6648352E-1,-2.2486677E-2,5.094841E-3],"split_indices":[4,0,10,0,0],"split_type":[0,0,0,0,0],"sum_hessian":[2.2032331E1,7.21469E0,1.4817642E1,7.4066124E0,7.41103E0],"tree_param":{"num_deleted":"0","num_feature":"17","num_nodes":"5","size_leaf_vector":"1"}},{"base_weights":[-9.565855E-2,1.33331185E-2,-3.585643E-1,-1.5603955E-3,-2.8001184E-2],"categories":[],"categories_nodes":[],"categories_segments":[],"categories_sizes":[],"default_left":[0,0,0,0,0],"id":82,"left_children":[1,-1,3,-1,-1],"loss_changes":[2.0655646E0,0E0,7.487494E-1,0E0,0E0],"parents":[2147483647,0,0,2,2],"right_children":[2,-1,4,-1,-1],"split_conditions":[2.534894E-1,1.33331185E-2,2.865962E-1,-1.5603955E-3,-2.8001184E-2],"split_indices":[6,0,4,0,0],"split_type":[0,0,0,0,0],"sum_hessian":[1.9584044E1,8.069076E0,1.1514968E1,5.015859E0,6.4991093E0],"tree_param":{"num_deleted":"0","num_feature":"17","num_nodes":"5","size_leaf_vector":"1"}},{"base_weights":[-5.7095673E-2,-2.0885753E-2,1.488187E-1,-1.9155672E-2,2.36456E-2],"categories":[],"categories_nodes":[],"categories_segments":[],"categories_sizes":[],"default_left":[0,0,0,0,0],"id":83,"left_children":[1,-1,3,-1,-1],"loss_changes":[1.8743207E0,0E0,2.925096E0,0E0,0E0],"parents":[2147483647,0,0,2,2],"right_children":[2,-1,4,-1,-1],"split_conditions":[2.8909683E-1,-2.0885753E-2,2.5663292E-1,-1.9155672E-2,2.36456E-2],"split_indices":[4,0,6,0,0],"split_type":[0,0,0,0,0],"sum_hessian":[2.3041832E1,8.177525E0,1.4864306E1,5.441897E0,9.422409E0],"tree_param":{"num_deleted":"0","num_feature":"17","num_nodes":"5","size_leaf_vector":"1"}},{"base_weights":[1.4436048E-3,-1.6790883E-1,2.209898E-2,4.9750335E-3,-2.3004703E-2],"categories":[],"categories_nodes":[],"categories_segments":[],"categories_sizes":[],"default_left":[0,0,0,0,0],"id":84,"left_children":[1,3,-1,-1,-1],"loss_changes":[1.8627821E0,1.4579217E0,0E0,0E0,0E0],"parents":[2147483647,0,0,1,1],"right_children":[2,4,-1,-1,-1],"split_conditions":[2.8571429E-2,1.9178081E-2,2.209898E-2,4.9750335E-3,-2.3004703E-2],"split_indices":[5,5,0,0,0],"split_type":[0,0,0,0,0],"sum_hessian":[2.2606232E1,1.6612032E1,5.9941998E0,8.839388E0,7.7726436E0],"tree_param":{"num_deleted":"0","num_feature":"17","num_nodes":"5","size_leaf_vector":"1"}},{"base_weights":[-1.0348692E-2,7.653814E-3,-9.395689E-3],"categories":[],"categories_nodes":[],"categories_segments":[],"categories_sizes":[],"default_left":[0,0,0],"id":85,"left_children":[1,-1,-1],"loss_changes":[6.184169E-1,0E0,0E0],"parents":[2147483647,0,0],"right_children":[2,-1,-1],"split_conditions":[4.9226007E-1,7.653814E-3,-9.395689E-3],"split_indices":[2,0,0],"split_type":[0,0,0],"sum_hessian":[1.9199759E1,9.776519E0,9.423241E0],"tree_param":{"num_deleted":"0","num_feature":"17","num_nodes":"3","size_leaf_vector":"1"}},{"base_weights":[-2.8432135E-2,-1.9734357E-2,1.07545E-1,-9.0084765E-3,2.3123706E-2],"categories":[],"categories_nodes":[],"categories_segments":[],"categories_sizes":[],"default_left":[0,0,0,0,0],"id":86,"left_children":[1,-1,3,-1,-1],"loss_changes":[1.2762043E0,0E0,1.9733937E0,0E0,0E0],"parents":[2147483647,0,0,2,2],"right_children":[2,-1,4,-1,-1],"split_conditions":[2.547644E-1,-1.9734357E-2,4.5085612E-1,-9.0084765E-3,2.3123706E-2],"split_indices":[6,0,11,0,0],"split_type":[0,0,0,0,0],"sum_hessian":[2.319654E1,5.9643526E0,1.723219E1,9.63359E0,7.5985994E0],"tree_param":{"num_deleted":"0","num_feature":"17","num_nodes":"5","size_leaf_vector":"1"}},{"base_weights":[2.2264631E-2,-1.7048222E-1,1.9597182E-2,1.34607E-2,-2.8469717E-2],"categories":[],"categories_nodes":[],"categories_segments":[],"categories_sizes":[],"default_left":[0,0,0,0,0],"id":87,"left_children":[1,3,-1,-1,-1],"loss_changes":[1.8265668E0,3.0857852E0,0E0,0E0,0E0],"parents":[2147483647,0,0,1,1],"right_children":[2,4,-1,-1,-1],"split_conditions":[3.623023E-1,1.6509637E-2,1.9597182E-2,1.34607E-2,-2.8469717E-2],"split_indices":[8,8,0,0,0],"split_type":[0,0,0,0,0],"sum_hessian":[2.3385859E1,1.5547751E1,7.838107E0,7.431222E0,8.116529E0],"tree_param":{"num_deleted":"0","num_feature":"17","num_nodes":"5","size_leaf_vector":"1"}},{"base_weights":[2.1029275E-2,-1.9594448E-2,1.9624919E-1,3.0140236E-2,-3.585947E-3],"categories":[],"categories_nodes":[],"categories_segments":[],"categories_sizes":[],"default_left":[0,0,0,0,0],"id":88,"left_children":[1,-1,3,-1,-1],"loss_changes":[1.6331557E0,0E0,1.8533396E0,0E0,0E0],"parents":[2147483647,0,0,2,2],"right_children":[2,-1,4,-1,-1],"split_conditions":[4.1434804E-1,-1.9594448E-2,4.729412E-1,3.0140236E-2,-3.585947E-3],"split_indices":[11,0,11,0,0],"split_type":[0,0,0,0,0],"sum_hessian":[2.077995E1,5.6523995E0,1.5127549E1,5.661572E0,9.465978E0],"tree_param":{"num_deleted":"0","num_feature":"17","num_nodes":"5","size_leaf_vector":"1"}},{"base_weights":[-4.5079775E-2,-2.4028975E-1,2.2802802E-2,4.77189E-3,-4.1337055E-1,-2.5994381E-2,-1.1181556E-2],"categories":[],"categories_nodes":[],"categories_segments":[],"categories_sizes":[],"default_left":[0,0,0,0,0,0,0],"id":89,"left_children":[1,3,-1,-1,5,-1,-1],"loss_changes":[2.1935518E0,1.0177088E0,0E0,0E0,3.435719E-2,0E0,0E0],"parents":[2147483647,0,0,1,1,4,4],"right_children":[2,4,-1,-1,6,-1,-1],"split_conditions":[9.131286E-3,6.093621E-3,2.2802802E-2,4.77189E-3,-6.333711E-1,-2.5994381E-2,-1.1181556E-2],"split_indices":[16,16,0,0,9,0,0],"split_type":[0,0,0,0,0,0,0],"sum_hessian":[2.052319E1,1.5288024E1,5.235165E0,5.1565714E0,1.0131453E1,5.0368104E0,5.094642E0],"tree_param":{"num_deleted":"0","num_feature":"17","num_nodes":"7","size_leaf_vector":"1"}},{"base_weights":[-1.0844334E-1,-3.307704E-1,2.0964751E-2,-2.456977E-2,-0E0],"categories":[],"categories_nodes":[],"categories_segments":[],"categories_sizes":[],"default_left":[0,0,0,0,0],"id":90,"left_children":[1,3,-1,-1,-1],"loss_changes":[2.517914E0,7.606827E-1,0E0,0E0,0E0],"parents":[2147483647,0,0,1,1],"right_children":[2,4,-1,-1,-1],"split_conditions":[5.158781E-1,2.7777778E-2,2.0964751E-2,-2.456977E-2,-0E0],"split_indices":[6,5,0,0,0],"split_type":[0,0,0,0,0],"sum_hessian":[1.935341E1,1.4012784E1,5.340626E0,8.952469E0,5.0603147E0],"tree_param":{"num_deleted":"0","num_feature":"17","num_nodes":"5","size_leaf_vector":"1"}},{"base_weights":[-1.1434286E-1,-2.231214E-2,1.2409177E-1,1.6591636E-2,-7.257419E-3],"categories":[],"categories_nodes":[],"categories_segments":[],"categories_sizes":[],"default_left":[0,0,0,0,0],"id":91,"left_children":[1,-1,3,-1,-1],"loss_changes":[1.8200494E0,0E0,8.1335664E-1,0E0,0E0],"parents":[2147483647,0,0,2,2],"right_children":[2,-1,4,-1,-1],"split_conditions":[9.3396676E-1,-2.231214E-2,9.646333E-1,1.6591636E-2,-7.257419E-3],"split_indices":[7,0,7,0,0],"split_type":[0,0,0,0,0],"sum_hessian":[2.0892056E1,8.545127E0,1.2346929E1,7.04786E0,5.2990685E0],"tree_param":{"num_deleted":"0","num_feature":"17","num_nodes":"5","size_leaf_vector":"1"}},{"base_weights":[5.5416215E-2,-1.6868372E-2,3.2174343E-1,2.928471E-2,-1.984251E-3],"categories":[],"categories_nodes":[],"categories_segments":[],"categories_sizes":[],"default_left":[0,0,0,0,0],"id":92,"left_children":[1,-1,3,-1,-1],"loss_changes":[2.2833114E0,0E0,1.323906E0,0E0,0E0],"parents":[2147483647,0,0,2,2],"right_children":[2,-1,4,-1,-1],"split_conditions":[4.5085612E-1,-1.6868372E-2,2.425876E-2,2.928471E-2,-1.984251E-3],"split_indices":[11,0,5,0,0],"split_type":[0,0,0,0,0],"sum_hessian":[1.9804413E1,7.742876E0,1.2061536E1,6.7720776E0,5.2894583E0],"tree_param":{"num_deleted":"0","num_feature":"17","num_nodes":"5","size_leaf_vector":"1"}},{"base_weights":[2.5029488E-2,-1.4610267E-1,1.814028E-2,-2.1258451E-2,8.704555E-3],"categories":[],"categories_nodes":[],"categories_segments":[],"categories_sizes":[],"default_left":[0,0,0,0,0],"id":93,"left_children":[1,3,-1,-1,-1],"loss_changes":[1.2597207E0,1.3611298E0,0E0,0E0,0E0],"parents":[2147483647,0,0,1,1],"right_children":[2,4,-1,-1,-1],"split_conditions":[2.8571429E-2,2.6648352E-1,1.814028E-2,-2.1258451E-2,8.704555E-3],"split_indices":[5,10,0,0,0],"split_type":[0,0,0,0,0],"sum_hessian":[1.9500938E1,1.3123435E1,6.3775034E0,7.003748E0,6.1196866E0],"tree_param":{"num_deleted":"0","num_feature":"17","num_nodes":"5","size_leaf_vector":"1"}},{"base_weights":[2.818093E-2,-1.7034002E-2,2.9214913E-1,2.6448661E-2,-0E0],"categories":[],"categories_nodes":[],"categories_segments":[],"categories_sizes":[],"default_left":[0,0,0,0,0],"id":94,"left_children":[1,-1,3,-1,-1],"loss_changes":[2.2581272E0,0E0,9.0196204E-1,0E0,0E0],"parents":[2147483647,0,0,2,2],"right_children":[2,-1,4,-1,-1],"split_conditions":[9.3396676E-1,-1.7034002E-2,4.9112847E-1,2.6448661E-2,-0E0],"split_indices":[7,0,11,0,0],"split_type":[0,0,0,0,0],"sum_hessian":[2.1219421E1,8.571888E0,1.2647534E1,6.386349E0,6.2611847E0],"tree_param":{"num_deleted":"0","num_feature":"17","num_nodes":"5","size_leaf_vector":"1"}},{"base_weights":[8.877308E-3,-2.2376318E-1,1.6042588E-2,2.177583E-3,-2.6343206E-2],"categories":[],"categories_nodes":[],"categories_segments":[],"categories_sizes":[],"default_left":[0,0,0,0,0],"id":95,"left_children":[1,3,-1,-1,-1],"loss_changes":[1.7554418E0,1.1746044E0,0E0,0E0,0E0],"parents":[2147483647,0,0,1,1],"right_children":[2,4,-1,-1,-1],"split_conditions":[8.712469E-3,6.529707E-3,1.6042588E-2,2.177583E-3,-2.6343206E-2],"split_indices":[16,16,0,0,0],"split_type":[0,0,0,0,0],"sum_hessian":[2.2064022E1,1.2617395E1,9.446626E0,6.984193E0,5.633203E0],"tree_param":{"num_deleted":"0","num_feature":"17","num_nodes":"5","size_leaf_vector":"1"}},{"base_weights":[5.656844E-2,-1.1821024E-1,2.7268788E-2,-3.0852416E-1,1.2713812E-2,-2.8439686E-2,1.8636994E-3],"categories":[],"categories_nodes":[],"categories_segments":[],"categories_sizes":[],"default_left":[0,0,0,0,0,0,0],"id":96,"left_children":[1,3,-1,5,-1,-1,-1],"loss_changes":[2.070119E0,1.3312318E0,0E0,1.1791294E0,0E0,0E0,0E0],"parents":[2147483647,0,0,1,1,3,3],"right_children":[2,4,-1,6,-1,-1,-1],"split_conditions":[5.231515E-1,2.8481012E-2,2.7268788E-2,5.123967E-1,1.2713812E-2,-2.8439686E-2,1.8636994E-3],"split_indices":[6,5,0,2,0,0,0],"split_type":[0,0,0,0,0,0,0],"sum_hessian":[2.1976263E1,1.6595823E1,5.3804407E0,1.127519E1,5.320632E0,6.2302356E0,5.0449553E0],"tree_param":{"num_deleted":"0","num_feature":"17","num_nodes":"7","size_leaf_vector":"1"}},{"base_weights":[-0E0,-3.072965E-1,3.1321645E-1,-2.6649455E-2,-1.7755669E-4,4.062654E-3,2.4142079E-2],"categories":[],"categories_nodes":[],"categories_segments":[],"categories_sizes":[],"default_left":[0,0,0,0,0,0,0],"id":97,"left_children":[1,3,5,-1,-1,-1,-1],"loss_changes":[2.229488E0,7.3704743E-1,3.6065483E-1,0E0,0E0,0E0,0E0],"parents":[2147483647,0,0,1,1,2,2],"right_children":[2,4,6,-1,-1,-1,-1],"split_conditions":[9.5902675E-1,9.059379E-3,-7.543418E-1,-2.6649455E-2,-1.7755669E-4,4.062654E-3,2.4142079E-2],"split_indices":[7,16,9,0,0,0,0],"split_type":[0,0,0,0,0,0,0],"sum_hessian":[2.1158548E1,1.0561759E1,1.0596789E1,5.4375434E0,5.1242156E0,5.349655E0,5.2471337E0],"tree_param":{"num_deleted":"0","num_feature":"17","num_nodes":"7","size_leaf_vector":"1"}},{"base_weights":[-3.9025664E-2,-2.3657243E-1,1.8565493E-2,-1.1644395E-3,-1.7766958E-2],"categories":[],"categories_nodes":[],"categories_segments":[],"categories_sizes":[],"default_left":[0,0,0,0,0],"id":98,"left_children":[1,3,-1,-1,-1],"loss_changes":[1.7705945E0,3.3130693E-1,0E0,0E0,0E0],"parents":[2147483647,0,0,1,1],"right_children":[2,4,-1,-1,-1],"split_conditions":[9.124738E-3,6.093621E-3,1.8565493E-2,-1.1644395E-3,-1.7766958E-2],"split_indices":[16,16,0,0,0],"split_type":[0,0,0,0,0],"sum_hessian":[1.9925453E1,1.3900527E1,6.0249257E0,5.700868E0,8.199658E0],"tree_param":{"num_deleted":"0","num_feature":"17","num_nodes":"5","size_leaf_vector":"1"}},{"base_weights":[8.683235E-2,2.8509164E-2,-1.8947925E-1,-2.5450265E-2,1.7065838E-3],"categories":[],"categories_nodes":[],"categories_segments":[],"categories_sizes":[],"default_left":[0,0,0,0,0],"id":99,"left_children":[1,-1,3,-1,-1],"loss_changes":[3.083663E0,0E0,1.1090038E0,0E0,0E0],"parents":[2147483647,0,0,2,2],"right_children":[2,-1,4,-1,-1],"split_conditions":[2.128484E-1,2.8509164E-2,4.783255E-1,-2.5450265E-2,1.7065838E-3],"split_indices":[12,0,11,0,0],"split_type":[0,0,0,0,0],"sum_hessian":[2.0995016E1,7.381297E0,1.3613719E1,5.263464E0,8.350255E0],"tree_param":{"num_deleted":"0","num_feature":"17","num_nodes":"5","size_leaf_vector":"1"}},{"base_weights":[-0E0,-1.5302369E-2,1.8584268E-1,-7.910169E-3,2.9894752E-2],"categories":[],"categories_nodes":[],"categories_segments":[],"categories_sizes":[],"default_left":[0,0,0,0,0],"id":100,"left_children":[1,-1,3,-1,-1],"loss_changes":[1.1711819E0,0E0,1.999369E0,0E0,0E0],"parents":[2147483647,0,0,2,2],"right_children":[2,-1,4,-1,-1],"split_conditions":[5.449591E-3,-1.5302369E-2,3.65E2,-7.910169E-3,2.9894752E-2],"split_indices":[13,0,0,0,0],"split_type":[0,0,0,0,0],"sum_hessian":[1.8789955E1,6.663927E0,1.2126028E1,6.811821E0,5.3142066E0],"tree_param":{"num_deleted":"0","num_feature":"17","num_nodes":"5","size_leaf_vector":"1"}},{"base_weights":[-2.4448173E-2,-2.5376802E-2,1.5054806E-1,-7.967895E-3,2.7600273E-2],"categories":[],"categories_nodes":[],"categories_segments":[],"categories_sizes":[],"default_left":[0,0,0,0,0],"id":101,"left_children":[1,-1,3,-1,-1],"loss_changes":[1.9439628E0,0E0,2.1832993E0,0E0,0E0],"parents":[2147483647,0,0,2,2],"right_children":[2,-1,4,-1,-1],"split_conditions":[2.5663292E-1,-2.5376802E-2,2.9034424E-1,-7.967895E-3,2.7600273E-2],"split_indices":[6,0,4,0,0],"split_type":[0,0,0,0,0],"sum_hessian":[2.0668877E1,5.1428623E0,1.5526015E1,8.961852E0,6.5641627E0],"tree_param":{"num_deleted":"0","num_feature":"17","num_nodes":"5","size_leaf_vector":"1"}},{"base_weights":[1.0903317E-1,2.7302727E-2,-1.0703192E-1,-1.9943012E-2,3.6749651E-3],"categories":[],"categories_nodes":[],"categories_segments":[],"categories_sizes":[],"default_left":[0,0,0,0,0],"id":102,"left_children":[1,-1,3,-1,-1],"loss_changes":[2.2341897E0,0E0,8.937736E-1,0E0,0E0],"parents":[2147483647,0,0,2,2],"right_children":[2,-1,4,-1,-1],"split_conditions":[2.8308943E-1,2.7302727E-2,2.9281402E-1,-1.9943012E-2,3.6749651E-3],"split_indices":[4,0,4,0,0],"split_type":[0,0,0,0,0],"sum_hessian":[2.1577084E1,6.7863374E0,1.4790747E1,5.4023733E0,9.388373E0],"tree_param":{"num_deleted":"0","num_feature":"17","num_nodes":"5","size_leaf_vector":"1"}},{"base_weights":[6.777701E-3,1.9909355E-1,-1.1899872E-2,2.3486758E-2,-5.0494703E-3],"categories":[],"categories_nodes":[],"categories_segments":[],"categories_sizes":[],"default_left":[0,0,0,0,0],"id":103,"left_children":[1,3,-1,-1,-1],"loss_changes":[9.802153E-1,1.0521386E0,0E0,0E0,0E0],"parents":[2147483647,0,0,1,1],"right_children":[2,4,-1,-1,-1],"split_conditions":[4.729412E-1,2.0057306E-2,-1.1899872E-2,2.3486758E-2,-5.0494703E-3],"split_indices":[11,3,0,0,0],"split_type":[0,0,0,0,0],"sum_hessian":[1.8898867E1,1.0916844E1,7.9820223E0,5.617958E0,5.2988863E0],"tree_param":{"num_deleted":"0","num_feature":"17","num_nodes":"5","size_leaf_vector":"1"}},{"base_weights":[-1.6593948E-1,-2.207027E-2,4.0270787E-2,1.9885931E-2,-1.35144135E-2],"categories":[],"categories_nodes":[],"categories_segments":[],"categories_sizes":[],"default_left":[0,0,0,0,0],"id":104,"left_children":[1,-1,3,-1,-1],"loss_changes":[1.2020416E0,0E0,1.4776425E0,0E0,0E0],"parents":[2147483647,0,0,2,2],"right_children":[2,-1,4,-1,-1],"split_conditions":[4.520565E-1,-2.207027E-2,4.783255E-1,1.9885931E-2,-1.35144135E-2],"split_indices":[11,0,11,0,0],"split_type":[0,0,0,0,0],"sum_hessian":[1.9142147E1,7.9142632E0,1.1227884E1,5.23911E0,5.9887743E0],"tree_param":{"num_deleted":"0","num_feature":"17","num_nodes":"5","size_leaf_vector":"1"}},{"base_weights":[-2.9346213E-2,-2.0798585E-1,2.1478487E-2,-2.0548146E-2,6.0180863E-3],"categories":[],"categories_nodes":[],"categories_segments":[],"categories_sizes":[],"default_left":[0,0,0,0,0],"id":105,"left_children":[1,3,-1,-1,-1],"loss_changes":[1.8310387E0,1.1660433E0,0E0,0E0,0E0],"parents":[2147483647,0,0,1,1],"right_children":[2,4,-1,-1,-1],"split_conditions":[5.1978123E-1,2.8571429E-2,2.1478487E-2,-2.0548146E-2,6.0180863E-3],"split_indices":[6,5,0,0,0],"split_type":[0,0,0,0,0],"sum_hessian":[2.0515495E1,1.53175955E1,5.197901E0,9.498675E0,5.81892E0],"tree_param":{"num_deleted":"0","num_feature":"17","num_nodes":"5","size_leaf_vector":"1"}},{"base_weights":[-0E0,1.7164867E-2,-2.2368045E-1,-2.7101893E-2,1.6722201E-3],"categories":[],"categories_nodes":[],"categories_segments":[],"categories_sizes":[],"default_left":[0,0,0,0,0],"id":106,"left_children":[1,-1,3,-1,-1],"loss_changes":[1.7318819E0,0E0,1.1878333E0,0E0,0E0],"parents":[2147483647,0,0,2,2],"right_children":[2,-1,4,-1,-1],"split_conditions":[2.534894E-1,1.7164867E-2,-6.201006E-1,-2.7101893E-2,1.6722201E-3],"split_indices":[6,0,9,0,0],"split_type":[0,0,0,0,0],"sum_hessian":[2.0560812E1,7.8926134E0,1.2668198E1,5.338819E0,7.3293786E0],"tree_param":{"num_deleted":"0","num_feature":"17","num_nodes":"5","size_leaf_vector":"1"}},{"base_weights":[-2.9848672E-2,-1.703728E-1,1.465043E-2,-2.0712813E-2,1.9517367E-3],"categories":[],"categories_nodes":[],"categories_segments":[],"categories_sizes":[],"default_left":[0,0,0,0,0],"id":107,"left_children":[1,3,-1,-1,-1],"loss_changes":[9.315423E-1,7.9808635E-1,0E0,0E0,0E0],"parents":[2147483647,0,0,1,1],"right_children":[2,4,-1,-1,-1],"split_conditions":[9.131286E-3,3.77E2,1.465043E-2,-2.0712813E-2,1.9517367E-3],"split_indices":[16,0,0,0,0],"split_type":[0,0,0,0,0],"sum_hessian":[1.870245E1,1.3575657E1,5.126794E0,6.0402617E0,7.5353947E0],"tree_param":{"num_deleted":"0","num_feature":"17","num_nodes":"5","size_leaf_vector":"1"}},{"base_weights":[7.581936E-2,-1.1577113E-2,1.8903336E-2],"categories":[],"categories_nodes":[],"categories_segments":[],"categories_sizes":[],"default_left":[0,0,0],"id":108,"left_children":[1,-1,-1],"loss_changes":[1.8475341E0,0E0,0E0],"parents":[2147483647,0,0],"right_children":[2,-1,-1],"split_conditions":[2.6648352E-1,-1.1577113E-2,1.8903336E-2],"split_indices":[10,0,0],"split_type":[0,0,0],"sum_hessian":[1.7787489E1,8.771075E0,9.016414E0],"tree_param":{"num_deleted":"0","num_feature":"17","num_nodes":"3","size_leaf_vector":"1"}},{"base_weights":[1.5171301E-2,-1.2830354E-2,1.9433813E-1,2.5486097E-2,-6.462235E-3],"categories":[],"categories_nodes":[],"categories_segments":[],"categories_sizes":[],"default_left":[0,0,0,0,0],"id":109,"left_children":[1,-1,3,-1,-1],"loss_changes":[1.0890126E0,0E0,1.5050554E0,0E0,0E0],"parents":[2147483647,0,0,2,2],"right_children":[2,-1,4,-1,-1],"split_conditions":[5.449591E-3,-1.2830354E-2,2.6912928E-1,2.5486097E-2,-6.462235E-3],"split_indices":[13,0,10,0,0],"split_type":[0,0,0,0,0],"sum_hessian":[2.0468315E1,7.738862E0,1.2729453E1,6.311587E0,6.417866E0],"tree_param":{"num_deleted":"0","num_feature":"17","num_nodes":"5","size_leaf_vector":"1"}},{"base_weights":[2.173235E-2,-2.0054806E-2,2.396132E-1,2.6550813E-2,-0E0],"categories":[],"categories_nodes":[],"categories_segments":[],"categories_sizes":[],"default_left":[0,0,0,0,0],"id":110,"left_children":[1,-1,3,-1,-1],"loss_changes":[2.0065172E0,0E0,1.0704408E0,0E0,0E0],"parents":[2147483647,0,0,2,2],"right_children":[2,-1,4,-1,-1],"split_conditions":[5.9242763E-2,-2.0054806E-2,5.054645E-1,2.6550813E-2,-0E0],"split_indices":[8,0,2,0,0],"split_type":[0,0,0,0,0],"sum_hessian":[1.9912153E1,6.329331E0,1.3582822E1,5.765437E0,7.8173842E0],"tree_param":{"num_deleted":"0","num_feature":"17","num_nodes":"5","size_leaf_vector":"1"}},{"base_weights":[-3.0338125E-2,1.4962136E-2,-2.0688073E-1,-1.857692E-2,2.7693806E-3],"categories":[],"categories_nodes":[],"categories_segments":[],"categories_sizes":[],"default_left":[0,0,0,0,0],"id":111,"left_children":[1,-1,3,-1,-1],"loss_changes":[1.2955184E0,0E0,6.869337E-1,0E0,0E0],"parents":[2147483647,0,0,2,2],"right_children":[2,-1,4,-1,-1],"split_conditions":[2.8308943E-1,1.4962136E-2,2.7472528E-2,-1.857692E-2,2.7693806E-3],"split_indices":[4,0,14,0,0],"split_type":[0,0,0,0,0],"sum_hessian":[2.0360245E1,6.6619134E0,1.3698331E1,8.393418E0,5.3049126E0],"tree_param":{"num_deleted":"0","num_feature":"17","num_nodes":"5","size_leaf_vector":"1"}},{"base_weights":[-4.659236E-2,1.30733745E-2,-3.2904834E-1,-2.593633E-2,-3.2967594E-3],"categories":[],"categories_nodes":[],"categories_segments":[],"categories_sizes":[],"default_left":[0,0,0,0,0],"id":112,"left_children":[1,-1,3,-1,-1],"loss_changes":[1.9927338E0,0E0,5.0636387E-1,0E0,0E0],"parents":[2147483647,0,0,2,2],"right_children":[2,-1,4,-1,-1],"split_conditions":[2.5663292E-1,1.30733745E-2,5.479452E-3,-2.593633E-2,-3.2967594E-3],"split_indices":[6,0,13,0,0],"split_type":[0,0,0,0,0],"sum_hessian":[2.0835047E1,9.832034E0,1.1003013E1,5.608374E0,5.394638E0],"tree_param":{"num_deleted":"0","num_feature":"17","num_nodes":"5","size_leaf_vector":"1"}},{"base_weights":[-0E0,-1.1243986E-2,1.8076494E-1,2.4282573E-2,-4.1287863E-3],"categories":[],"categories_nodes":[],"categories_segments":[],"categories_sizes":[],"default_left":[0,0,0,0,0],"id":113,"left_children":[1,-1,3,-1,-1],"loss_changes":[9.0697694E-1,0E0,1.0649843E0,0E0,0E0],"parents":[2147483647,0,0,2,2],"right_children":[2,-1,4,-1,-1],"split_conditions":[4.520565E-1,-1.1243986E-2,2.654321E-1,2.4282573E-2,-4.1287863E-3],"split_indices":[11,0,10,0,0],"split_type":[0,0,0,0,0],"sum_hessian":[2.027408E1,9.01121E0,1.126287E1,5.004444E0,6.258426E0],"tree_param":{"num_deleted":"0","num_feature":"17","num_nodes":"5","size_leaf_vector":"1"}},{"base_weights":[-5.5272423E-2,-2.3065428E-1,1.5069785E-2,1.0154116E-2,-2.362871E-2],"categories":[],"categories_nodes":[],"categories_segments":[],"categories_sizes":[],"default_left":[0,0,0,0,0],"id":114,"left_children":[1,3,-1,-1,-1],"loss_changes":[1.4173789E0,1.7257111E0,0E0,0E0,0E0],"parents":[2147483647,0,0,1,1],"right_children":[2,4,-1,-1,-1],"split_conditions":[2.8481012E-2,2.128484E-1,1.5069785E-2,1.0154116E-2,-2.362871E-2],"split_indices":[5,12,0,0,0],"split_type":[0,0,0,0,0],"sum_hessian":[2.066055E1,1.4274923E1,6.385626E0,5.0206366E0,9.254287E0],"tree_param":{"num_deleted":"0","num_feature":"17","num_nodes":"5","size_leaf_vector":"1"}},{"base_weights":[-1.3427868E-2,1.3372487E-2,-1.977828E-1,-2.65378E-2,4.012653E-3],"categories":[],"categories_nodes":[],"categories_segments":[],"categories_sizes":[],"default_left":[0,0,0,0,0],"id":115,"left_children":[1,-1,3,-1,-1],"loss_changes":[1.0963541E0,0E0,1.2946005E0,0E0,0E0],"parents":[2147483647,0,0,2,2],"right_children":[2,-1,4,-1,-1],"split_conditions":[2.534894E-1,1.3372487E-2,-6.1971074E-1,-2.65378E-2,4.012653E-3],"split_indices":[6,0,9,0,0],"split_type":[0,0,0,0,0],"sum_hessian":[1.9285828E1,7.2487245E0,1.2037102E1,5.227461E0,6.8096414E0],"tree_param":{"num_deleted":"0","num_feature":"17","num_nodes":"5","size_leaf_vector":"1"}},{"base_weights":[-4.1066445E-2,-2.1350482E-2,1.17594354E-1,-2.07509E-3,1.7755792E-2],"categories":[],"categories_nodes":[],"categories_segments":[],"categories_sizes":[],"default_left":[0,0,0,0,0],"id":116,"left_children":[1,-1,3,-1,-1],"loss_changes":[1.4628068E0,0E0,6.7303133E-1,0E0,0E0],"parents":[2147483647,0,0,2,2],"right_children":[2,-1,4,-1,-1],"split_conditions":[2.890074E-1,-2.1350482E-2,3.71E2,-2.07509E-3,1.7755792E-2],"split_indices":[4,0,0,0,0],"split_type":[0,0,0,0,0],"sum_hessian":[2.1563446E1,5.97301E0,1.5590437E1,9.578705E0,6.011732E0],"tree_param":{"num_deleted":"0","num_feature":"17","num_nodes":"5","size_leaf_vector":"1"}},{"base_weights":[1.0106251E-2,-1.3782763E-1,1.3754698E-2,-1.8339489E-2,2.9939024E-3],"categories":[],"categories_nodes":[],"categories_segments":[],"categories_sizes":[],"default_left":[0,0,0,0,0],"id":117,"left_children":[1,3,-1,-1,-1],"loss_changes":[9.2943865E-1,7.2233975E-1,0E0,0E0,0E0],"parents":[2147483647,0,0,1,1],"right_children":[2,4,-1,-1,-1],"split_conditions":[3.79E2,2.6648352E-1,1.3754698E-2,-1.8339489E-2,2.9939024E-3],"split_indices":[0,10,0,0,0],"split_type":[0,0,0,0,0],"sum_hessian":[2.1392385E1,1.3794095E1,7.5982914E0,6.2298746E0,7.5642204E0],"tree_param":{"num_deleted":"0","num_feature":"17","num_nodes":"5","size_leaf_vector":"1"}},{"base_weights":[-2.5939932E-2,2.0198623E-2,-2.3023981E-1,1.1553544E-3,-2.1932382E-2],"categories":[],"categories_nodes":[],"categories_segments":[],"categories_sizes":[],"default_left":[0,0,0,0,0],"id":118,"left_children":[1,-1,3,-1,-1],"loss_changes":[1.8619645E0,0E0,8.2157385E-1,0E0,0E0],"parents":[2147483647,0,0,2,2],"right_children":[2,-1,4,-1,-1],"split_conditions":[2.4551395E-1,2.0198623E-2,4.6486485E-1,1.1553544E-3,-2.1932382E-2],"split_indices":[6,0,2,0,0],"split_type":[0,0,0,0,0],"sum_hessian":[1.933822E1,5.7569427E0,1.3581278E1,6.3144894E0,7.2667885E0],"tree_param":{"num_deleted":"0","num_feature":"17","num_nodes":"5","size_leaf_vector":"1"}},{"base_weights":[-4.784632E-2,-2.3245494E-1,9.474027E-3,-1.4552724E-3,-1.7255591E-2],"categories":[],"categories_nodes":[],"categories_segments":[],"categories_sizes":[],"default_left":[0,0,0,0,0],"id":119,"left_children":[1,3,-1,-1,-1],"loss_changes":[1.0293765E0,2.5677794E-1,0E0,0E0,0E0],"parents":[2147483647,0,0,1,1],"right_children":[2,4,-1,-1,-1],"split_conditions":[2.0057306E-2,9.3648595E-1,9.474027E-3,-1.4552724E-3,-1.7255591E-2],"split_indices":[3,7,0,0,0],"split_type":[0,0,0,0,0],"sum_hessian":[2.139159E1,1.2280719E1,9.110872E0,5.143155E0,7.137563E0],"tree_param":{"num_deleted":"0","num_feature":"17","num_nodes":"5","size_leaf_vector":"1"}},{"base_weights":[-2.4962742E-2,-1.8133071E-1,1.48288775E-2,-2.0899378E-2,1.2236884E-2],"categories":[],"categories_nodes":[],"categories_segments":[],"categories_sizes":[],"default_left":[0,0,0,0,0],"id":120,"left_children":[1,3,-1,-1,-1],"loss_changes":[1.1486076E0,1.6960893E0,0E0,0E0,0E0],"parents":[2147483647,0,0,1,1],"right_children":[2,4,-1,-1,-1],"split_conditions":[2.8571429E-2,5.1957303E-1,1.48288775E-2,-2.0899378E-2,1.2236884E-2],"split_indices":[5,6,0,0,0],"split_type":[0,0,0,0,0],"sum_hessian":[2.1004465E1,1.463459E1,6.3698745E0,9.571714E0,5.0628753E0],"tree_param":{"num_deleted":"0","num_feature":"17","num_nodes":"5","size_leaf_vector":"1"}},{"base_weights":[2.4192365E-2,1.8565655E-1,-9.860777E-3,2.2681996E-2,-7.206492E-3],"categories":[],"categories_nodes":[],"categories_segments":[],"categories_sizes":[],"default_left":[0,0,0,0,0],"id":121,"left_children":[1,3,-1,-1,-1],"loss_changes":[7.672934E-1,1.2111615E0,0E0,0E0,0E0],"parents":[2147483647,0,0,1,1],"right_children":[2,4,-1,-1,-1],"split_conditions":[4.6249133E-1,4.9112847E-1,-9.860777E-3,2.2681996E-2,-7.206492E-3],"split_indices":[6,11,0,0,0],"split_type":[0,0,0,0,0],"sum_hessian":[1.9471224E1,1.1614412E1,7.8568125E0,6.367705E0,5.246707E0],"tree_param":{"num_deleted":"0","num_feature":"17","num_nodes":"5","size_leaf_vector":"1"}},{"base_weights":[-2.526985E-2,-1.4270789E-2,1.3854277E-1,-4.55078E-3,2.062287E-2],"categories":[],"categories_nodes":[],"categories_segments":[],"categories_sizes":[],"default_left":[0,0,0,0,0],"id":122,"left_children":[1,-1,3,-1,-1],"loss_changes":[1.0076354E0,0E0,9.60392E-1,0E0,0E0],"parents":[2147483647,0,0,2,2],"right_children":[2,-1,4,-1,-1],"split_conditions":[2.9034424E-1,-1.4270789E-2,3.0818457E-2,-4.55078E-3,2.062287E-2],"split_indices":[4,0,1,0,0],"split_type":[0,0,0,0,0],"sum_hessian":[2.1372444E1,8.207107E0,1.31653385E1,7.32726E0,5.838078E0],"tree_param":{"num_deleted":"0","num_feature":"17","num_nodes":"5","size_leaf_vector":"1"}},{"base_weights":[-2.6393423E-2,-2.4164319E-1,1.7478397E-2,6.0556186E-3,-2.764838E-2],"categories":[],"categories_nodes":[],"categories_segments":[],"categories_sizes":[],"default_left":[0,0,0,0,0],"id":123,"left_children":[1,3,-1,-1,-1],"loss_changes":[1.7833761E0,1.7132988E0,0E0,0E0,0E0],"parents":[2147483647,0,0,1,1],"right_children":[2,4,-1,-1,-1],"split_conditions":[3.623023E-1,1.6509637E-2,1.7478397E-2,6.0556186E-3,-2.764838E-2],"split_indices":[8,8,0,0,0],"split_type":[0,0,0,0,0],"sum_hessian":[2.0126787E1,1.3195308E1,6.93148E0,6.228094E0,6.9672136E0],"tree_param":{"num_deleted":"0","num_feature":"17","num_nodes":"5","size_leaf_vector":"1"}},{"base_weights":[-3.7166674E-2,-1.3766301E-2,1.2332665E-1,1.7582692E-2,-5.8187293E-3],"categories":[],"categories_nodes":[],"categories_segments":[],"categories_sizes":[],"default_left":[0,0,0,0,0],"id":124,"left_children":[1,-1,3,-1,-1],"loss_changes":[7.5821096E-1,0E0,6.95058E-1,0E0,0E0],"parents":[2147483647,0,0,2,2],"right_children":[2,-1,4,-1,-1],"split_conditions":[9.3396676E-1,-1.3766301E-2,4.872043E-1,1.7582692E-2,-5.8187293E-3],"split_indices":[7,0,11,0,0],"split_type":[0,0,0,0,0],"sum_hessian":[1.7550512E1,7.028443E0,1.052207E1,5.3633504E0,5.158719E0],"tree_param":{"num_deleted":"0","num_feature":"17","num_nodes":"5","size_leaf_vector":"1"}},{"base_weights":[-8.189444E-3,-1.1826202E-2,1.0675453E-2],"categories":[],"categories_nodes":[],"categories_segments":[],"categories_sizes":[],"default_left":[0,0,0],"id":125,"left_children":[1,-1,-1],"loss_changes":[1.0403845E0,0E0,0E0],"parents":[2147483647,0,0],"right_children":[2,-1,-1],"split_conditions":[8.712469E-3,-1.1826202E-2,1.0675453E-2],"split_indices":[16,0,0],"split_type":[0,0,0],"sum_hessian":[1.8509188E1,9.30739E0,9.2017975E0],"tree_param":{"num_deleted":"0","num_feature":"17","num_nodes":"3","size_leaf_vector":"1"}},{"base_weights":[6.780556E-2,-1.686781E-1,3.0574217E-1,-9.994933E-4,-1.3677249E-2,2.4531199E-2,2.8959939E-3],"categories":[],"categories_nodes":[],"categories_segments":[],"categories_sizes":[],"default_left":[0,0,0,0,0,0,0],"id":126,"left_children":[1,3,5,-1,-1,-1,-1],"loss_changes":[1.2666866E0,1.389114E-1,4.3031824E-1,0E0,0E0,0E0,0E0],"parents":[2147483647,0,0,1,1,2,2],"right_children":[2,4,6,-1,-1,-1,-1],"split_conditions":[2.6648352E-1,5.479452E-3,4.5085612E-1,-9.994933E-4,-1.3677249E-2,2.4531199E-2,2.8959939E-3],"split_indices":[10,13,11,0,0,0,0],"split_type":[0,0,0,0,0,0,0],"sum_hessian":[2.035149E1,1.0142111E1,1.0209378E1,5.0814524E0,5.0606585E0,5.054979E0,5.1543994E0],"tree_param":{"num_deleted":"0","num_feature":"17","num_nodes":"7","size_leaf_vector":"1"}},{"base_weights":[-7.534201E-2,8.792067E-2,-1.4170251E-2,1.8637002E-2,-1.0120435E-2],"categories":[],"categories_nodes":[],"categories_segments":[],"categories_sizes":[],"default_left":[0,0,0,0,0],"id":127,"left_children":[1,3,-1,-1,-1],"loss_changes":[7.440666E-1,1.0875866E0,0E0,0E0,0E0],"parents":[2147483647,0,0,1,1],"right_children":[2,4,-1,-1,-1],"split_conditions":[4.729412E-1,4.6249133E-1,-1.4170251E-2,1.8637002E-2,-1.0120435E-2],"split_indices":[11,6,0,0,0],"split_type":[0,0,0,0,0],"sum_hessian":[1.9595324E1,1.1033991E1,8.561334E0,5.6004314E0,5.4335594E0],"tree_param":{"num_deleted":"0","num_feature":"17","num_nodes":"5","size_leaf_vector":"1"}},{"base_weights":[1.7523965E-2,-1.7755046E-2,1.6353187E-1,2.3215413E-2,-1.3329997E-2],"categories":[],"categories_nodes":[],"categories_segments":[],"categories_sizes":[],"default_left":[0,0,0,0,0],"id":128,"left_children":[1,-1,3,-1,-1],"loss_changes":[1.1956179E0,0E0,2.233283E0,0E0,0E0],"parents":[2147483647,0,0,2,2],"right_children":[2,-1,4,-1,-1],"split_conditions":[2.5663292E-1,-1.7755046E-2,5.158781E-1,2.3215413E-2,-1.3329997E-2],"split_indices":[6,0,6,0,0],"split_type":[0,0,0,0,0],"sum_hessian":[2.0260534E1,5.107863E0,1.5152671E1,9.007245E0,6.145426E0],"tree_param":{"num_deleted":"0","num_feature":"17","num_nodes":"5","size_leaf_vector":"1"}},{"base_weights":[-1.3638437E-2,2.061941E-2,-2.880198E-1,-2.59083E-2,6.9782414E-5],"categories":[],"categories_nodes":[],"categories_segments":[],"categories_sizes":[],"default_left":[0,0,0,0,0],"id":129,"left_children":[1,-1,3,-1,-1],"loss_changes":[2.3187015E0,0E0,8.6791706E-1,0E0,0E0],"parents":[2147483647,0,0,2,2],"right_children":[2,-1,4,-1,-1],"split_conditions":[1.6509637E-2,2.061941E-2,3.623023E-1,-2.59083E-2,6.9782414E-5],"split_indices":[8,0,8,0,0],"split_type":[0,0,0,0,0],"sum_hessian":[1.7926266E1,6.6827145E0,1.1243551E1,6.0152764E0,5.228275E0],"tree_param":{"num_deleted":"0","num_feature":"17","num_nodes":"5","size_leaf_vector":"1"}},{"base_weights":[2.7022554E-2,2.2278915E-1,-1.8169641E-1,2.2507759E-2,-0E0,-1.3711752E-2,-2.1047185E-3],"categories":[],"categories_nodes":[],"categories_segments":[],"categories_sizes":[],"default_left":[0,0,0,0,0,0,0],"id":130,"left_children":[1,3,5,-1,-1,-1,-1],"loss_changes":[9.577696E-1,6.534157E-1,1.0048041E-1,0E0,0E0,0E0,0E0],"parents":[2147483647,0,0,1,1,2,2],"right_children":[2,4,6,-1,-1,-1,-1],"split_conditions":[3.7E2,2.6610646E-1,6.793504E-3,2.2507759E-2,-0E0,-1.3711752E-2,-2.1047185E-3],"split_indices":[0,10,16,0,0,0,0],"split_type":[0,0,0,0,0,0,0],"sum_hessian":[2.1348894E1,1.1228704E1,1.012019E1,5.219846E0,6.008859E0,5.075225E0,5.044965E0],"tree_param":{"num_deleted":"0","num_feature":"17","num_nodes":"7","size_leaf_vector":"1"}},{"base_weights":[1.8862318E-2,-1.997224E-2,2.2714455E-1,2.5769949E-2,-5.6402246E-3],"categories":[],"categories_nodes":[],"categories_segments":[],"categories_sizes":[],"default_left":[0,0,0,0,0],"id":131,"left_children":[1,-1,3,-1,-1],"loss_changes":[1.9400628E0,0E0,1.5780184E0,0E0,0E0],"parents":[2147483647,0,0,2,2],"right_children":[2,-1,4,-1,-1],"split_conditions":[5.9242763E-2,-1.997224E-2,3.623023E-1,2.5769949E-2,-5.6402246E-3],"split_indices":[8,0,8,0,0],"split_type":[0,0,0,0,0],"sum_hessian":[2.0423712E1,6.324291E0,1.4099421E1,7.5097237E0,6.589697E0],"tree_param":{"num_deleted":"0","num_feature":"17","num_nodes":"5","size_leaf_vector":"1"}},{"base_weights":[5.459683E-4,1.481202E-2,-1.8491805E-1,-2.1464849E-2,4.841962E-3],"categories":[],"categories_nodes":[],"categories_segments":[],"categories_sizes":[],"default_left":[0,0,0,0,0],"id":132,"left_children":[1,-1,3,-1,-1],"loss_changes":[1.2085283E0,0E0,9.845415E-1,0E0,0E0],"parents":[2147483647,0,0,2,2],"right_children":[2,-1,4,-1,-1],"split_conditions":[1.9283747E-2,1.481202E-2,2.8571429E-2,-2.1464849E-2,4.841962E-3],"split_indices":[5,0,5,0,0],"split_type":[0,0,0,0,0],"sum_hessian":[1.983519E1,7.623139E0,1.221205E1,6.4494605E0,5.7625904E0],"tree_param":{"num_deleted":"0","num_feature":"17","num_nodes":"5","size_leaf_vector":"1"}},{"base_weights":[4.3399576E-2,1.2423478E-2,-1.0158671E-2],"categories":[],"categories_nodes":[],"categories_segments":[],"categories_sizes":[],"default_left":[0,0,0],"id":133,"left_children":[1,-1,-1],"loss_changes":[9.036798E-1,0E0,0E0],"parents":[2147483647,0,0],"right_children":[2,-1,-1],"split_conditions":[1.9337017E-2,1.2423478E-2,-1.0158671E-2],"split_indices":[3,0,0],"split_type":[0,0,0],"sum_hessian":[1.5783792E1,8.834323E0,6.9494686E0],"tree_param":{"num_deleted":"0","num_feature":"17","num_nodes":"3","size_leaf_vector":"1"}},{"base_weights":[7.694425E-2,-1.1250854E-2,2.0702565E-1,2.1650365E-2,-3.5286085E-3],"categories":[],"categories_nodes":[],"categories_segments":[],"categories_sizes":[],"default_left":[0,0,0,0,0],"id":134,"left_children":[1,-1,3,-1,-1],"loss_changes":[8.384909E-1,0E0,9.999388E-1,0E0,0E0],"parents":[2147483647,0,0,2,2],"right_children":[2,-1,4,-1,-1],"split_conditions":[5.9242763E-2,-1.1250854E-2,3.623023E-1,2.1650365E-2,-3.5286085E-3],"split_indices":[8,0,8,0,0],"split_type":[0,0,0,0,0],"sum_hessian":[1.9206589E1,5.331612E0,1.3874976E1,7.53854E0,6.3364367E0],"tree_param":{"num_deleted":"0","num_feature":"17","num_nodes":"5","size_leaf_vector":"1"}},{"base_weights":[-2.252445E-2,-2.0247538E-1,2.3075078E-2,-3.4324512E-1,3.4316373E-3,-2.6477331E-2,-3.3261438E-3],"categories":[],"categories_nodes":[],"categories_segments":[],"categories_sizes":[],"default_left":[0,0,0,0,0,0,0],"id":135,"left_children":[1,3,-1,5,-1,-1,-1],"loss_changes":[2.05936E0,7.194945E-1,0E0,5.206592E-1,0E0,0E0,0E0],"parents":[2147483647,0,0,1,1,3,3],"right_children":[2,4,-1,6,-1,-1,-1],"split_conditions":[5.1978123E-1,2.7027028E-2,2.3075078E-2,2.5647473E-1,3.4316373E-3,-2.6477331E-2,-3.3261438E-3],"split_indices":[6,3,0,12,0,0,0],"split_type":[0,0,0,0,0,0,0],"sum_hessian":[2.1867958E1,1.6515951E1,5.3520064E0,1.0938853E1,5.577098E0,5.7755127E0,5.16334E0],"tree_param":{"num_deleted":"0","num_feature":"17","num_nodes":"7","size_leaf_vector":"1"}},{"base_weights":[-2.8994344E-2,1.0290276E-1,-1.5804006E-2,-1.0175177E-2,1.6793776E-2],"categories":[],"categories_nodes":[],"categories_segments":[],"categories_sizes":[],"default_left":[0,0,0,0,0],"id":136,"left_children":[1,3,-1,-1,-1],"loss_changes":[8.4427595E-1,1.1394284E0,0E0,0E0,0E0],"parents":[2147483647,0,0,1,1],"right_children":[2,4,-1,-1,-1],"split_conditions":[2.0057306E-2,3.62E2,-1.5804006E-2,-1.0175177E-2,1.6793776E-2],"split_indices":[3,0,0,0,0],"split_type":[0,0,0,0,0],"sum_hessian":[1.9874592E1,1.3818931E1,6.0556617E0,5.838016E0,7.9809146E0],"tree_param":{"num_deleted":"0","num_feature":"17","num_nodes":"5","size_leaf_vector":"1"}},{"base_weights":[-3.4167342E-2,1.3936122E-2,-2.02893E-1,-2.249001E-2,5.226E-3],"categories":[],"categories_nodes":[],"categories_segments":[],"categories_sizes":[],"default_left":[0,0,0,0,0],"id":137,"left_children":[1,-1,3,-1,-1],"loss_changes":[1.1524664E0,0E0,1.1719608E0,0E0,0E0],"parents":[2147483647,0,0,2,2],"right_children":[2,-1,4,-1,-1],"split_conditions":[2.5980392E-1,1.3936122E-2,2.7548209E-2,-2.249001E-2,5.226E-3],"split_indices":[10,0,14,0,0],"split_type":[0,0,0,0,0],"sum_hessian":[1.990255E1,6.5364895E0,1.336606E1,7.336037E0,6.030023E0],"tree_param":{"num_deleted":"0","num_feature":"17","num_nodes":"5","size_leaf_vector":"1"}},{"base_weights":[-7.071989E-2,8.2921935E-3,-2.7886036E-1,7.082756E-4,-2.6892168E-2],"categories":[],"categories_nodes":[],"categories_segments":[],"categories_sizes":[],"default_left":[0,0,0,0,0],"id":138,"left_children":[1,-1,3,-1,-1],"loss_changes":[1.058857E0,0E0,9.263036E-1,0E0,0E0],"parents":[2147483647,0,0,2,2],"right_children":[2,-1,4,-1,-1],"split_conditions":[2.6954178E-2,8.2921935E-3,3.6254594E-1,7.082756E-4,-2.6892168E-2],"split_indices":[14,0,6,0,0],"split_type":[0,0,0,0,0],"sum_hessian":[1.933588E1,8.920257E0,1.0415624E1,5.148988E0,5.266636E0],"tree_param":{"num_deleted":"0","num_feature":"17","num_nodes":"5","size_leaf_vector":"1"}},{"base_weights":[4.4824857E-2,-1.5003435E-2,2.3049515E-1,2.1465192E-2,-1.4998143E-3],"categories":[],"categories_nodes":[],"categories_segments":[],"categories_sizes":[],"default_left":[0,0,0,0,0],"id":139,"left_children":[1,-1,3,-1,-1],"loss_changes":[1.4464408E0,0E0,8.195685E-1,0E0,0E0],"parents":[2147483647,0,0,2,2],"right_children":[2,-1,4,-1,-1],"split_conditions":[5.449591E-3,-1.5003435E-2,6.430868E-3,2.1465192E-2,-1.4998143E-3],"split_indices":[13,0,13,0,0],"split_type":[0,0,0,0,0],"sum_hessian":[2.0616327E1,6.810568E0,1.380576E1,7.6800976E0,6.1256623E0],"tree_param":{"num_deleted":"0","num_feature":"17","num_nodes":"5","size_leaf_vector":"1"}},{"base_weights":[3.794092E-2,-1.4098318E-2,2.1936029E-1,2.167623E-2,-0E0],"categories":[],"categories_nodes":[],"categories_segments":[],"categories_sizes":[],"default_left":[0,0,0,0,0],"id":140,"left_children":[1,-1,3,-1,