{"learner":{"attributes":{"scikit_learn":"{\"_estimator_type\": \"classifier\"}"},"feature_names":[],"feature_types":[],"gradient_booster":{"model":{"cats":{"enc":[],"feature_segments":[],"sorted_idx":[]},"gbtree_model_param":{"num_parallel_tree":"1","num_trees":"900"},"iteration_indptr":[0,3,6,9,12,15,18,21,24,27,30,33,36,39,42,45,48,51,54,57,60,63,66,69,72,75,78,81,84,87,90,93,96,99,102,105,108,111,114,117,120,123,126,129,132,135,138,141,144,147,150,153,156,159,162,165,168,171,174,177,180,183,186,189,192,195,198,201,204,207,210,213,216,219,222,225,228,231,234,237,240,243,246,249,252,255,258,261,264,267,270,273,276,279,282,285,288,291,294,297,300,303,306,309,312,315,318,321,324,327,330,333,336,339,342,345,348,351,354,357,360,363,366,369,372,375,378,381,384,387,390,393,396,399,402,405,408,411,414,417,420,423,426,429,432,435,438,441,444,447,450,453,456,459,462,465,468,471,474,477,480,483,486,489,492,495,498,501,504,507,510,513,516,519,522,525,528,531,534,537,540,543,546,549,552,555,558,561,564,567,570,573,576,579,582,585,588,591,594,597,600,603,606,609,612,615,618,621,624,627,630,633,636,639,642,645,648,651,654,657,660,663,666,669,672,675,678,681,684,687,690,693,696,699,702,705,708,711,714,717,720,723,726,729,732,735,738,741,744,747,750,753,756,759,762,765,768,771,774,777,780,783,786,789,792,795,798,801,804,807,810,813,816,819,822,825,828,831,834,837,840,843,846,849,852,855,858,861,864,867,870,873,876,879,882,885,888,891,894,897,900],"tree_info":[0,1,2,0,1,2,0,1,2,0,1,2,0,1,2,0,1,2,0,1,2,0,1,2,0,1,2,0,1,2,0,1,2,0,1,2,0,1,2,0,1,2,0,1,2,0,1,2,0,1,2,0,1,2,0,1,2,0,1,2,0,1,2,0,1,2,0,1,2,0,1,2,0,1,2,0,1,2,0,1,2,0,1,2,0,1,2,0,1,2,0,1,2,0,1,2,0,1,2,0,1,2,0,1,2,0,1,2,0,1,2,0,1,2,0,1,2,0,1,2,0,1,2,0,1,2,0,1,2,0,1,2,0,1,2,0,1,2,0,1,2,0,1,2,0,1,2,0,1,2,0,1,2,0,1,2,0,1,2,0,1,2,0,1,2,0,1,2,0,1,2,0,1,2,0,1,2,0,1,2,0,1,2,0,1,2,0,1,2,0,1,2,0,1,2,0,1,2,0,1,2,0,1,2,0,1,2,0,1,2,0,1,2,0,1,2,0,1,2,0,1,2,0,1,2,0,1,2,0,1,2,0,1,2,0,1,2,0,1,2,0,1,2,0,1,2,0,1,2,0,1,2,0,1,2,0,1,2,0,1,2,0,1,2,0,1,2,0,1,2,0,1,2,0,1,2,0,1,2,0,1,2,0,1,2,0,1,2,0,1,2,0,1,2,0,1,2,0,1,2,0,1,2,0,1,2,0,1,2,0,1,2,0,1,2,0,1,2,0,1,2,0,1,2,0,1,2,0,1,2,0,1,2,0,1,2,0,1,2,0,1,2,0,1,2,0,1,2,0,1,2,0,1,2,0,1,2,0,1,2,0,1,2,0,1,2,0,1,2,0,1,2,0,1,2,0,1,2,0,1,2,0,1,2,0,1,2,0,1,2,0,1,2,0,1,2,0,1,2,0,1,2,0,1,2,0,1,2,0,1,2,0,1,2,0,1,2,0,1,2,0,1,2,0,1,2,0,1,2,0,1,2,0,1,2,0,1,2,0,1,2,0,1,2,0,1,2,0,1,2,0,1,2,0,1,2,0,1,2,0,1,2,0,1,2,0,1,2,0,1,2,0,1,2,0,1,2,0,1,2,0,1,2,0,1,2,0,1,2,0,1,2,0,1,2,0,1,2,0,1,2,0,1,2,0,1,2,0,1,2,0,1,2,0,1,2,0,1,2,0,1,2,0,1,2,0,1,2,0,1,2,0,1,2,0,1,2,0,1,2,0,1,2,0,1,2,0,1,2,0,1,2,0,1,2,0,1,2,0,1,2,0,1,2,0,1,2,0,1,2,0,1,2,0,1,2,0,1,2,0,1,2,0,1,2,0,1,2,0,1,2,0,1,2,0,1,2,0,1,2,0,1,2,0,1,2,0,1,2,0,1,2,0,1,2,0,1,2,0,1,2,0,1,2,0,1,2,0,1,2,0,1,2,0,1,2,0,1,2,0,1,2,0,1,2,0,1,2,0,1,2,0,1,2,0,1,2,0,1,2,0,1,2,0,1,2,0,1,2,0,1,2,0,1,2,0,1,2,0,1,2,0,1,2,0,1,2,0,1,2,0,1,2,0,1,2,0,1,2,0,1,2,0,1,2,0,1,2,0,1,2,0,1,2,0,1,2,0,1,2,0,1,2,0,1,2,0,1,2,0,1,2,0,1,2,0,1,2,0,1,2,0,1,2,0,1,2,0,1,2,0,1,2,0,1,2,0,1,2,0,1,2,0,1,2,0,1,2,0,1,2,0,1,2,0,1,2,0,1,2,0,1,2,0,1,2,0,1,2,0,1,2,0,1,2,0,1,2,0,1,2,0,1,2,0,1,2,0,1,2,0,1,2,0,1,2,0,1,2,0,1,2,0,1,2,0,1,2,0,1,2,0,1,2,0,1,2,0,1,2,0,1,2,0,1,2,0,1,2,0,1,2,0,1,2,0,1,2,0,1,2,0,1,2,0,1,2,0,1,2,0,1,2,0,1,2,0,1,2,0,1,2,0,1,2,0,1,2,0,1,2,0,1,2,0,1,2,0,1,2],"trees":[{"base_weights":[-1.4902782E-2,2.6327503E-1,-5.602798E-1,-0E0,5.920073E-1,-7.8895456E-1,-1.3309424E-1,9.8127514E-2,-3.347391E-2,-1.3620178E-1,6.9510454E-1,-4.17529E-2,-1.10948E-2,2.9468873E-1,-3.5496533E-2,3.445758E-1,-3.020043E-1,1.1712959E-2,-2.4602752E-2,4.7773894E-2,3.56745E-1,-2.4602752E-2,5.907757E-1,-4.8937565E-1,5.9813184E-1,-5.1368785E-1,7.7191606E-2,-2.4602752E-2,5.349678E-1,3.8988184E-2,1.0117968E-2,-3.0300338E-2,-4.427357E-3,3.9665814E-2,-6.810089E-3,-3.4586053E-2,-6.810089E-3,-1.586523E-2,3.1888355E-2,-1.4301199E-3,3.635211E-2],"categories":[],"categories_nodes":[],"categories_segments":[],"categories_sizes":[],"default_left":[0,0,0,0,0,0,0,0,0,0,0,0,0,0,0,0,0,0,0,0,0,0,0,0,0,0,0,0,0,0,0,0,0,0,0,0,0,0,0,0,0],"id":0,"left_children":[1,3,5,7,9,11,13,15,-1,17,19,-1,-1,21,-1,23,25,-1,-1,-1,27,-1,29,31,33,35,37,-1,39,-1,-1,-1,-1,-1,-1,-1,-1,-1,-1,-1,-1],"loss_changes":[1.3486116E1,5.0926185E0,2.7404757E0,2.2837448E0,2.1123505E0,2.1179676E-1,3.1725335E0,3.0738313E0,0E0,6.626367E-1,1.56954E0,0E0,0E0,2.0257123E0,0E0,4.370249E0,1.033743E0,0E0,0E0,0E0,2.0587206E0,0E0,1.7911339E-1,1.0792029E-1,2.3652725E0,3.5381866E-1,1.3273203E0,0E0,1.2123368E0,0E0,0E0,0E0,0E0,0E0,0E0,0E0,0E0,0E0,0E0,0E0,0E0],"parents":[2147483647,0,0,1,1,2,2,3,3,4,4,5,5,6,6,7,7,9,9,10,10,13,13,15,15,16,16,20,20,22,22,23,23,24,24,25,25,26,26,28,28],"right_children":[2,4,6,8,10,12,14,16,-1,18,20,-1,-1,22,-1,24,26,-1,-1,-1,28,-1,30,32,34,36,38,-1,40,-1,-1,-1,-1,-1,-1,-1,-1,-1,-1,-1,-1],"split_conditions":[1E0,2.82E-3,1.6595E-2,2.7505E-3,-3.9762515E-1,9.9999E-1,4.269427E-1,2.8864747E-1,-3.347391E-2,9.99984E-1,4.6887594E-1,-4.17529E-2,-1.10948E-2,1.6626175E-1,-3.5496533E-2,4.9899498E-1,4.9866232E-1,1.1712959E-2,-2.4602752E-2,4.7773894E-2,4.7114706E-1,-2.4602752E-2,-3.6852292E-5,3.0101E-2,1.8033278E-3,9.614796E-1,9.9999136E-1,-2.4602752E-2,2.2502433E-1,3.8988184E-2,1.0117968E-2,-3.0300338E-2,-4.427357E-3,3.9665814E-2,-6.810089E-3,-3.4586053E-2,-6.810089E-3,-1.586523E-2,3.1888355E-2,-1.4301199E-3,3.635211E-2],"split_indices":[9,13,2,13,7,6,1,3,0,2,5,0,0,3,0,1,5,0,0,0,5,0,7,2,7,1,6,0,10,0,0,0,0,0,0,0,0,0,0,0,0],"split_type":[0,0,0,0,0,0,0,0,0,0,0,0,0,0,0,0,0,0,0,0,0,0,0,0,0,0,0,0,0,0,0,0,0,0,0,0,0,0,0,0,0],"sum_hessian":[8.672496E1,5.7652386E1,2.907257E1,3.252186E1,2.5130527E1,1.823195E1,1.084062E1,2.907257E1,3.4492881E0,2.9565327E0,2.2173994E1,1.626093E1,1.9710218E0,6.405821E0,4.434799E0,1.823195E1,1.084062E1,1.4782664E0,1.4782664E0,1.1333375E1,1.084062E1,1.4782664E0,4.9275546E0,3.9420435E0,1.4289907E1,6.8985763E0,3.9420435E0,1.4782664E0,9.362353E0,2.4637773E0,2.4637773E0,2.4637773E0,1.4782664E0,1.1333375E1,2.9565327E0,3.9420435E0,2.9565327E0,2.4637773E0,1.4782664E0,2.4637773E0,6.8985763E0],"tree_param":{"num_deleted":"0","num_feature":"16","num_nodes":"41","size_leaf_vector":"1"}},{"base_weights":[-5.107129E-2,9.063915E-2,-3.3261348E-2,1.890177E-1,-3.0682778E-2,-2.9957876E-2,2.9572144E-1,1.708201E-1,7.395905E-1,2.7939485E-2,6.799826E-1,1.0463738E0,9.461185E-2,7.3395865E-3,-2.8429825E-2,-2.10332E-2,5.2318692E-2,6.12466E-2,2.1484094E-2,-2.10332E-2,3.0593732E-2],"categories":[],"categories_nodes":[],"categories_segments":[],"categories_sizes":[],"default_left":[0,0,0,0,0,0,0,0,0,0,0,0,0,0,0,0,0,0,0,0,0],"id":1,"left_children":[1,3,-1,5,-1,-1,7,9,11,13,15,17,19,-1,-1,-1,-1,-1,-1,-1,-1],"loss_changes":[6.4246435E0,4.204994E0,0E0,4.621764E0,0E0,0E0,2.4240828E0,2.722615E0,1.7629681E0,2.2663844E0,3.8397758E0,3.0919552E-2,1.4555304E0,0E0,0E0,0E0,0E0,0E0,0E0,0E0,0E0],"parents":[2147483647,0,0,1,1,3,3,6,6,7,7,8,8,9,9,10,10,11,11,12,12],"right_children":[2,4,-1,6,-1,-1,8,10,12,14,16,18,20,-1,-1,-1,-1,-1,-1,-1,-1],"split_conditions":[1E0,3.14876E-1,-3.3261348E-2,8.338016E-3,-3.0682778E-2,-2.9957876E-2,2.8875238E-1,2.808E-3,2.9009885E-1,-7.48357E-2,1.6572349E-1,9.9999E-1,2.9510894E-1,7.3395865E-3,-2.8429825E-2,-2.10332E-2,5.2318692E-2,6.12466E-2,2.1484094E-2,-2.10332E-2,3.0593732E-2],"split_indices":[1,13,0,1,0,0,3,14,3,8,3,6,3,0,0,0,0,0,0,0,0],"split_type":[0,0,0,0,0,0,0,0,0,0,0,0,0,0,0,0,0,0,0,0,0],"sum_hessian":[7.14661E1,5.862788E1,1.2838222E1,5.2208767E1,6.419111E0,5.5632296E0,4.664554E1,3.7658783E1,8.986755E0,3.0383791E1,7.2749925E0,5.5632296E0,3.4235258E0,2.6104383E1,4.2794075E0,1.7117629E0,5.5632296E0,3.4235258E0,2.1397038E0,1.7117629E0,1.7117629E0],"tree_param":{"num_deleted":"0","num_feature":"16","num_nodes":"21","size_leaf_vector":"1"}},{"base_weights":[-0E0,1.25549E0,-3.241792E-2,9.086949E-2,5.528081E-1,8.212759E-2,-2.7200013E-2],"categories":[],"categories_nodes":[],"categories_segments":[],"categories_sizes":[],"default_left":[0,0,0,0,0,0,0],"id":2,"left_children":[1,3,-1,-1,5,-1,-1],"loss_changes":[5.1689484E1,7.2966614E0,0E0,0E0,1.4300456E1,0E0,0E0],"parents":[2147483647,0,0,1,1,4,4],"right_children":[2,4,-1,-1,6,-1,-1],"split_conditions":[4.7E-3,2.5E-1,-3.241792E-2,9.086949E-2,1.7784392E-2,8.212759E-2,-2.7200013E-2],"split_indices":[4,0,0,0,5,0,0],"split_type":[0,0,0,0,0,0,0],"sum_hessian":[6.150004E1,2.0625013E1,4.0875027E1,1.0500007E1,1.0125007E1,4.875003E0,5.2500033E0],"tree_param":{"num_deleted":"0","num_feature":"16","num_nodes":"7","size_leaf_vector":"1"}},{"base_weights":[9.378954E-3,-6.26635E-1,3.773462E-1,-4.10241E-1,-7.627233E-1,5.051714E-1,4.7377262E-2,-5.0702035E-1,1.16640655E-2,-1.0504646E-2,-4.052901E-2,6.608778E-1,5.1767766E-2,3.1267765E-1,-4.1576993E-1,2.4640923E-3,-6.170898E-1,-1.3857217E-1,7.6010895E-1,3.490763E-2,-1.4870685E-1,4.061464E-2,2.7895333E-2,-3.132611E-2,-1.3561421E-3,-4.198834E-3,-6.783833E-1,1.1405914E-2,-2.4515627E-2,3.6119452E-1,4.607718E-2,3.0060977E-1,-4.195901E-1,2.793557E-2,-3.4590372E-1,-3.8037688E-2,-4.3077986E-3,4.3936223E-2,-7.913749E-3,-4.930476E-3,3.0931547E-2,1.1779759E-2,-3.4201723E-2,-3.0493105E-2,2.2327804E-3],"categories":[],"categories_nodes":[],"categories_segments":[],"categories_sizes":[],"default_left":[0,0,0,0,0,0,0,0,0,0,0,0,0,0,0,0,0,0,0,0,0,0,0,0,0,0,0,0,0,0,0,0,0,0,0,0,0,0,0,0,0,0,0,0,0],"id":3,"left_children":[1,3,5,7,9,11,13,15,-1,-1,-1,17,19,21,23,-1,25,27,29,-1,31,-1,33,-1,-1,-1,35,-1,-1,37,-1,39,41,-1,43,-1,-1,-1,-1,-1,-1,-1,-1,-1,-1],"loss_changes":[2.038351E1,5.0823784E-1,2.2543888E0,1.0643306E0,2.0674706E-1,2.68711E0,2.1802955E0,8.999033E-1,0E0,0E0,0E0,2.4835606E0,1.6309531E0,1.5111368E0,4.4182658E-1,0E0,2.361803E-1,6.48602E-1,1.2285013E0,0E0,1.2794232E0,0E0,1.8823286E0,0E0,0E0,0E0,3.2925224E-1,0E0,0E0,2.7333565E0,0E0,6.171572E-1,1.3160484E0,0E0,6.44495E-1,0E0,0E0,0E0,0E0,0E0,0E0,0E0,0E0,0E0,0E0],"parents":[2147483647,0,0,1,1,2,2,3,3,4,4,5,5,6,6,7,7,11,11,12,12,13,13,14,14,16,16,17,17,18,18,20,20,22,22,26,26,29,29,31,31,32,32,34,34],"right_children":[2,4,6,8,10,12,14,16,-1,-1,-1,18,20,22,24,-1,26,28,30,-1,32,-1,34,-1,-1,-1,36,-1,-1,38,-1,40,42,-1,44,-1,-1,-1,-1,-1,-1,-1,-1,-1,-1],"split_conditions":[4.8369775E-3,1.00001E-5,9.999482E-1,2.8871673E-1,-1.6491184E-2,2.7435E-3,2.8875238E-1,-2.6851478E-3,1.16640655E-2,-1.0504646E-2,-4.052901E-2,-3.9762515E-1,8.890902E-1,-7.886272E-1,2.5E-1,2.4640923E-3,8.508E-3,1.7432387E-1,2.6E-3,3.490763E-2,2.749E-3,4.061464E-2,4.9975598E-1,-3.132611E-2,-1.3561421E-3,-4.198834E-3,5.66475E-2,1.1405914E-2,-2.4515627E-2,2.5526399E-2,4.607718E-2,1.37E-3,5.0305254E-3,2.793557E-2,1.5408738E-4,-3.8037688E-2,-4.3077986E-3,4.3936223E-2,-7.913749E-3,-4.930476E-3,3.0931547E-2,1.1779759E-2,-3.4201723E-2,-3.0493105E-2,2.2327804E-3],"split_indices":[15,15,6,3,7,14,3,7,0,0,0,7,6,8,0,0,2,11,13,0,13,0,10,0,0,0,2,0,0,15,0,12,15,0,7,0,0,0,0,0,0,0,0,0,0],"split_type":[0,0,0,0,0,0,0,0,0,0,0,0,0,0,0,0,0,0,0,0,0,0,0,0,0,0,0,0,0,0,0,0,0,0,0,0,0,0,0,0,0,0,0,0,0],"sum_hessian":[8.519315E1,3.0866734E1,5.432642E1,1.3750853E1,1.7115881E1,3.855625E1,1.5770165E1,1.22726755E1,1.4781766E0,1.9601754E0,1.5155706E1,2.819535E1,1.0360903E1,1.0370517E1,5.399649E0,1.9683228E0,1.0304353E1,2.958241E0,2.5237108E1,1.9831154E0,8.377787E0,2.965116E0,7.4054008E0,2.937412E0,2.4622371E0,1.4751849E0,8.829168E0,1.481221E0,1.4770199E0,8.381869E0,1.685524E1,2.9709468E0,5.4068403E0,2.9661448E0,4.439256E0,7.3530455E0,1.4761231E0,3.9487681E0,4.433101E0,1.4837921E0,1.4871548E0,1.4773965E0,3.9294436E0,2.4666867E0,1.9725692E0],"tree_param":{"num_deleted":"0","num_feature":"16","num_nodes":"45","size_leaf_vector":"1"}},{"base_weights":[4.066015E-2,1.9312772E-1,-3.2908525E-2,-3.083829E-2,3.0624428E-1,4.2124695E-1,-4.7946894E-1,5.201772E-1,-8.1092596E-2,-2.9420692E-2,-0E0,7.101645E-1,2.8867826E-1,3.3685914E-1,-2.7306845E-2,-1.8212115E-2,3.9830238E-2,3.1523306E-2,-7.3350295E-3,-6.7302166E-4,4.1921794E-2],"categories":[],"categories_nodes":[],"categories_segments":[],"categories_sizes":[],"default_left":[0,0,0,0,0,0,0,0,0,0,0,0,0,0,0,0,0,0,0,0,0],"id":4,"left_children":[1,3,-1,-1,5,7,9,11,13,-1,-1,15,17,19,-1,-1,-1,-1,-1,-1,-1],"loss_changes":[8.383216E0,6.099578E0,0E0,0E0,5.4085774E0,2.6188135E0,4.6204972E-1,1.5810299E0,1.9705521E0,0E0,0E0,2.4350138E0,3.3030756E0,1.0232263E0,0E0,0E0,0E0,0E0,0E0,0E0,0E0],"parents":[2147483647,0,0,1,1,4,4,5,5,6,6,7,7,8,8,11,11,12,12,13,13],"right_children":[2,4,-1,-1,6,8,10,12,14,-1,-1,16,18,20,-1,-1,-1,-1,-1,-1,-1],"split_conditions":[9.6171963E-1,8.338016E-3,-3.2908525E-2,-3.083829E-2,3.14876E-1,-7.5467855E-2,5.3273064E-1,4.973682E-1,2.2495358E-1,-2.9420692E-2,-0E0,1.661517E-1,5.276E-3,2.246235E-1,-2.7306845E-2,-1.8212115E-2,3.9830238E-2,3.1523306E-2,-7.3350295E-3,-6.7302166E-4,4.1921794E-2],"split_indices":[1,1,0,0,13,8,1,5,10,0,0,3,4,10,0,0,0,0,0,0,0],"split_type":[0,0,0,0,0,0,0,0,0,0,0,0,0,0,0,0,0,0,0,0,0],"sum_hessian":[7.6922905E1,6.385751E1,1.30653925E1,7.171852E0,5.6685658E1,4.9963745E1,6.7219157E0,4.187958E1,8.084162E0,5.4617133E0,1.2602023E0,2.1629204E1,2.0250378E1,4.289576E0,3.794586E0,1.2851233E0,2.034408E1,1.1222174E1,9.028205E0,2.9811938E0,1.3083824E0],"tree_param":{"num_deleted":"0","num_feature":"16","num_nodes":"21","size_leaf_vector":"1"}},{"base_weights":[1.5371924E-2,1.2893574E0,-3.217387E-2,1.5066988E0,7.538427E-2,7.913068E-2,3.3820763E-3,4.727699E-2,-2.2497158E-2],"categories":[],"categories_nodes":[],"categories_segments":[],"categories_sizes":[],"default_left":[0,0,0,0,0,0,0,0,0],"id":5,"left_children":[1,3,-1,5,7,-1,-1,-1,-1],"loss_changes":[5.934122E1,6.0922966E0,0E0,1.9494553E0,2.6623712E0,0E0,0E0,0E0,0E0],"parents":[2147483647,0,0,1,1,3,3,4,4],"right_children":[2,4,-1,6,8,-1,-1,-1,-1],"split_conditions":[4.375112E-3,1E0,-3.217387E-2,5.66475E-2,2.5E-1,7.913068E-2,3.3820763E-3,4.727699E-2,-2.2497158E-2],"split_indices":[15,5,0,2,0,0,0,0,0],"split_type":[0,0,0,0,0,0,0,0,0],"sum_hessian":[6.86324E1,2.3120392E1,4.551201E1,1.933524E1,3.7851524E0,1.8205591E1,1.1296495E0,1.1954514E0,2.589701E0],"tree_param":{"num_deleted":"0","num_feature":"16","num_nodes":"9","size_leaf_vector":"1"}},{"base_weights":[1.8821454E-2,-5.371967E-1,3.2271296E-1,-1.8831041E-1,-4.000615E-2,3.7562764E-1,-2.8482312E-1,-6.181364E-1,3.0542877E-1,4.7989935E-1,9.262469E-3,-2.9896919E-2,1.1268599E-2,-3.5374083E-2,-4.102335E-3,-2.3535559E-2,5.9318274E-1,6.7345315E-1,2.3733608E-1,3.1732807E-1,-3.8787302E-1,1.0391257E-2,3.8886428E-2,7.347672E-2,7.9615E-1,3.2630908E-1,-2.3964731E-2,3.1604867E-2,-1.3484767E-1,-3.3250645E-2,1.1188879E-2,3.5374716E-2,-2.7700087E-2,4.6126336E-2,9.215685E-3,-7.1243295E-3,2.7176058E-2,-2.4075516E-2,1.1212439E-2],"categories":[],"categories_nodes":[],"categories_segments":[],"categories_sizes":[],"default_left":[0,0,0,0,0,0,0,0,0,0,0,0,0,0,0,0,0,0,0,0,0,0,0,0,0,0,0,0,0,0,0,0,0,0,0,0,0,0,0],"id":6,"left_children":[1,3,5,7,-1,9,11,13,15,17,19,-1,-1,-1,-1,-1,21,23,25,27,29,-1,-1,31,33,35,-1,-1,37,-1,-1,-1,-1,-1,-1,-1,-1,-1,-1],"loss_changes":[1.4701695E1,2.56571E0,1.9298077E0,3.3312864E0,0E0,1.9515171E0,9.607934E-1,2.5941324E-1,1.9405568E0,1.6562452E0,1.6893321E0,0E0,0E0,0E0,0E0,0E0,1.6104579E-1,1.4608192E0,1.403689E0,1.2641857E0,1.1974556E0,0E0,0E0,2.3744566E0,1.1014309E0,1.9844717E0,0E0,0E0,6.254175E-1,0E0,0E0,0E0,0E0,0E0,0E0,0E0,0E0,0E0,0E0],"parents":[2147483647,0,0,1,1,2,2,3,3,5,5,6,6,7,7,8,8,9,9,10,10,16,16,17,17,18,18,19,19,20,20,23,23,24,24,25,25,28,28],"right_children":[2,4,6,8,-1,10,12,14,16,18,20,-1,-1,-1,-1,-1,22,24,26,28,30,-1,-1,32,34,36,-1,-1,38,-1,-1,-1,-1,-1,-1,-1,-1,-1,-1],"split_conditions":[5.1965E-3,4.3414342E-1,6.67166E-1,1.6231015E-2,-4.000615E-2,9.6147925E-1,9.997447E-1,2.5E-1,1.6626175E-1,6.459785E-1,2.5526399E-2,-2.9896919E-2,1.1268599E-2,-3.5374083E-2,-4.102335E-3,-2.3535559E-2,1.349E-3,2.2496511E-1,2.806E-3,2.5E-1,1E0,1.0391257E-2,3.8886428E-2,1.6606812E-1,9.999163E-1,6.4706E-1,-2.3964731E-2,3.1604867E-2,7.5319E-2,-3.3250645E-2,1.1188879E-2,3.5374716E-2,-2.7700087E-2,4.6126336E-2,9.215685E-3,-7.1243295E-3,2.7176058E-2,-2.4075516E-2,1.1212439E-2],"split_indices":[4,1,4,1,0,1,6,0,3,4,15,0,0,0,0,0,12,10,14,0,0,0,0,3,6,4,0,0,4,0,0,0,0,0,0,0,0,0,0],"split_type":[0,0,0,0,0,0,0,0,0,0,0,0,0,0,0,0,0,0,0,0,0,0,0,0,0,0,0,0,0,0,0,0,0,0,0,0,0,0,0],"sum_hessian":[8.510909E1,2.9689894E1,5.5419197E1,1.3660213E1,1.602968E1,5.1481613E1,3.937584E0,7.276352E0,6.383861E0,3.9621918E1,1.18596945E1,2.4549587E0,1.4826254E0,5.802979E0,1.473373E0,1.4606947E0,4.9231668E0,2.0819942E1,1.8801977E1,6.9337854E0,4.925909E0,2.458172E0,2.4649947E0,3.9446814E0,1.6875261E1,1.7334076E1,1.4679011E0,3.9838161E0,2.9499693E0,3.4424007E0,1.4835083E0,1.9779583E0,1.966723E0,1.3430009E1,3.4452515E0,5.451682E0,1.1882394E1,1.4692119E0,1.4807574E0],"tree_param":{"num_deleted":"0","num_feature":"16","num_nodes":"39","size_leaf_vector":"1"}},{"base_weights":[-1.7106978E-2,-3.2703217E-2,1.4006136E-1,-1.6738473E-1,4.0438607E-1,-3.204838E-1,6.1423635E-1,5.4913825E-1,-1.1545483E-1,1.8309268E-1,-5.5025095E-1,-0E0,4.135888E-2,-1.8120838E-2,6.145537E-1,-3.8290533E-1,2.8456435E-1,4.3008275E-2,-3.683379E-1,4.5534407E-4,-6.00323E-1,-1.7607158E-2,6.8493414E-1,-2.6058799E-2,-0E0,-1.783519E-2,4.1649636E-2,-0E0,-2.5291001E-2,-3.2636177E-2,-7.2475555E-3,3.72876E-2,-1.7192304E-3],"categories":[],"categories_nodes":[],"categories_segments":[],"categories_sizes":[],"default_left":[0,0,0,0,0,0,0,0,0,0,0,0,0,0,0,0,0,0,0,0,0,0,0,0,0,0,0,0,0,0,0,0,0],"id":7,"left_children":[1,-1,3,5,7,9,11,13,15,17,19,-1,-1,-1,21,23,25,-1,27,-1,29,-1,31,-1,-1,-1,-1,-1,-1,-1,-1,-1,-1],"loss_changes":[7.6232176E0,0E0,5.018504E0,3.5852413E0,2.5951343E0,2.9892595E0,6.135849E-1,1.8096666E0,9.6166694E-1,3.4784255E0,5.4943323E-1,0E0,0E0,0E0,1.9692707E0,3.1188864E-1,1.604042E0,0E0,2.9808968E-1,0E0,2.0901823E-1,0E0,1.1316481E0,0E0,0E0,0E0,0E0,0E0,0E0,0E0,0E0,0E0,0E0],"parents":[2147483647,0,0,2,2,3,3,4,4,5,5,6,6,7,7,8,8,9,9,10,10,14,14,15,15,16,16,18,18,20,20,22,22],"right_children":[2,-1,4,6,8,10,12,14,16,18,20,-1,-1,-1,22,24,26,-1,28,-1,30,-1,32,-1,-1,-1,-1,-1,-1,-1,-1,-1,-1],"split_conditions":[1.9363683E-2,-3.2703217E-2,2.5E-1,6.6512E-1,6.6598E-1,1.276E-3,-7.8931284E-1,1.6610312E-1,-7.728901E-2,1.02E-2,-8.6930853E-1,-0E0,4.135888E-2,-1.8120838E-2,5.5E-6,2.8866363E-1,1.8786384E-1,4.3008275E-2,9.994969E-1,4.5534407E-4,2.96E-3,-1.7607158E-2,6.3129E-2,-2.6058799E-2,-0E0,-1.783519E-2,4.1649636E-2,-0E0,-2.5291001E-2,-3.2636177E-2,-7.2475555E-3,3.72876E-2,-1.7192304E-3],"split_indices":[5,0,0,4,4,12,8,3,8,9,8,0,0,0,9,3,15,0,6,0,14,0,12,0,0,0,0,0,0,0,0,0,0],"split_type":[0,0,0,0,0,0,0,0,0,0,0,0,0,0,0,0,0,0,0,0,0,0,0,0,0,0,0,0,0,0,0,0,0],"sum_hessian":[7.372024E1,1.4090455E1,5.9629787E1,2.7560984E1,3.20688E1,2.364706E1,3.9139242E0,2.5190418E1,6.878385E0,7.33625E0,1.631081E1,1.3075821E0,2.606342E0,1.2803264E0,2.3910091E1,4.297723E0,2.580662E0,3.1230664E0,4.2131834E0,1.2432628E0,1.5067547E1,1.2545254E0,2.2655565E1,3.0078216E0,1.2899014E0,1.2667371E0,1.3139249E0,1.283687E0,2.9294963E0,1.2927026E1,2.1405215E0,2.0983685E1,1.6718819E0],"tree_param":{"num_deleted":"0","num_feature":"16","num_nodes":"33","size_leaf_vector":"1"}},{"base_weights":[3.6410112E-2,1.1633494E0,-3.1744048E-2,7.806555E-2,5.2553606E-1,-2.6622152E-2,7.116505E-2],"categories":[],"categories_nodes":[],"categories_segments":[],"categories_sizes":[],"default_left":[0,0,0,0,0,0,0],"id":8,"left_children":[1,3,-1,-1,5,-1,-1],"loss_changes":[5.061722E1,5.315361E0,0E0,0E0,1.1492203E1,0E0,0E0],"parents":[2147483647,0,0,1,1,4,4],"right_children":[2,4,-1,-1,6,-1,-1],"split_conditions":[4.7E-3,5.73E-3,-3.1744048E-2,7.806555E-2,4.269427E-1,-2.6622152E-2,7.116505E-2],"split_indices":[4,2,0,0,1,0,0],"split_type":[0,0,0,0,0,0,0],"sum_hessian":[6.486319E1,2.3995825E1,4.0867363E1,1.3788091E1,1.0207734E1,4.821422E0,5.3863125E0],"tree_param":{"num_deleted":"0","num_feature":"16","num_nodes":"7","size_leaf_vector":"1"}},{"base_weights":[2.2522463E-2,2.986283E-1,-5.417852E-1,1.3239168E-1,5.6741315E-1,-3.872537E-2,-2.1826209E-1,6.161489E-1,-5.984594E-3,-1.602496E-2,6.949506E-1,-6.2472177E-1,4.3194026E-1,2.0418202E-3,7.5867194E-1,7.436672E-2,-3.0775666E-2,4.5669E-2,4.3493456E-1,-3.5293866E-2,-3.9457455E-3,-2.3124402E-2,4.2484146E-2,1.0246322E-2,4.266801E-2,2.7713558E-1,-3.0202618E-1,1.6411257E-1,3.980316E-2,2.3548095E-2,-0E0,-3.1475104E-2,3.3789907E-2,3.0046254E-2,-2.0126758E-2],"categories":[],"categories_nodes":[],"categories_segments":[],"categories_sizes":[],"default_left":[0,0,0,0,0,0,0,0,0,0,0,0,0,0,0,0,0,0,0,0,0,0,0,0,0,0,0,0,0,0,0,0,0,0,0],"id":9,"left_children":[1,3,5,7,9,-1,11,13,15,-1,17,19,21,-1,23,25,-1,-1,27,-1,-1,-1,-1,-1,-1,29,31,33,-1,-1,-1,-1,-1,-1,-1],"loss_changes":[1.4193115E1,2.5955544E0,1.9809093E0,2.7043204E0,2.8539615E0,0E0,4.0077653E0,6.2218475E-1,1.64222E0,0E0,6.2892056E-1,2.7163577E-1,2.6395726E0,0E0,8.473301E-2,2.2617521E0,0E0,0E0,8.932357E-1,0E0,0E0,0E0,0E0,0E0,0E0,1.0468824E0,3.7217653E0,2.2323406E0,0E0,0E0,0E0,0E0,0E0,0E0,0E0],"parents":[2147483647,0,0,1,1,2,2,3,3,4,4,6,6,7,7,8,8,10,10,11,11,12,12,14,14,15,15,18,18,25,25,26,26,27,27],"right_children":[2,4,6,8,10,-1,12,14,16,-1,18,20,22,-1,24,26,-1,-1,28,-1,-1,-1,-1,-1,-1,30,32,34,-1,-1,-1,-1,-1,-1,-1],"split_conditions":[1E0,2.82E-3,9.999935E-1,8E-5,-3.9762515E-1,-3.872537E-2,1.6595E-2,-1.7201045E-3,1.406E-3,-1.602496E-2,4.6887594E-1,2.5E-1,1.1239592E-1,2.0418202E-3,1.6622946E-1,2.8867474E-1,-3.0775666E-2,4.5669E-2,2.39E-4,-3.5293866E-2,-3.9457455E-3,-2.3124402E-2,4.2484146E-2,1.0246322E-2,4.266801E-2,5E-1,1.002E-2,7.7486175E-1,3.980316E-2,2.3548095E-2,-0E0,-3.1475104E-2,3.3789907E-2,3.0046254E-2,-2.0126758E-2],"split_indices":[9,13,5,9,7,0,2,7,12,0,5,0,11,0,3,3,0,0,9,0,0,0,0,0,0,0,9,6,0,0,0,0,0,0,0],"split_type":[0,0,0,0,0,0,0,0,0,0,0,0,0,0,0,0,0,0,0,0,0,0,0,0,0,0,0,0,0,0,0,0,0,0,0],"sum_hessian":[8.921091E1,6.033706E1,2.887385E1,3.843227E1,2.1904787E1,1.5803053E1,1.3070797E1,7.940967E0,3.0491302E1,2.4626703E0,1.9442116E1,8.161686E0,4.909111E0,1.9713851E0,5.969582E0,2.7570717E1,2.9205863E0,8.991407E0,1.0450709E1,6.6904073E0,1.4712784E0,1.4525542E0,3.456557E0,1.4879915E0,4.4815903E0,1.8262047E1,9.308669E0,6.9614477E0,3.4892616E0,1.038967E1,7.872377E0,7.316758E0,1.9919114E0,3.996582E0,2.9648657E0],"tree_param":{"num_deleted":"0","num_feature":"16","num_nodes":"35","size_leaf_vector":"1"}},{"base_weights":[-3.7480963E-3,2.5195646E-1,-4.0250885E-1,4.0578878E-1,-4.9390796E-1,-5.732028E-1,-3.1159444E-2,-1.3935901E-1,4.9659997E-1,-2.9605845E-2,5.663854E-4,-1.2258274E-1,-3.280416E-2,-2.8346663E-2,4.5935822E-1,-2.7353352E-2,2.9367346E-2,6.571172E-1,1.492669E-2,2.1494772E-2,-2.3820294E-2,4.538187E-2,5.9220795E-2,3.509302E-1,8.880954E-1,3.350275E-2,-2.4452728E-1,-1.8598072E-2,1.8979594E-2,-5.192744E-3,3.3027586E-2,5.1908113E-2,-4.033276E-3,-2.2394253E-2,1.9602759E-2],"categories":[],"categories_nodes":[],"categories_segments":[],"categories_sizes":[],"default_left":[0,0,0,0,0,0,0,0,0,0,0,0,0,0,0,0,0,0,0,0,0,0,0,0,0,0,0,0,0,0,0,0,0,0,0],"id":10,"left_children":[1,3,5,7,9,11,13,15,17,-1,-1,19,-1,-1,21,-1,-1,23,25,-1,-1,-1,27,29,31,-1,33,-1,-1,-1,-1,-1,-1,-1,-1],"loss_changes":[8.266698E0,5.83259E0,1.9353638E0,2.155345E0,4.9875402E-1,6.4549685E-1,3.226673E0,2.2543526E0,2.6971216E0,0E0,0E0,1.1400696E0,0E0,0E0,9.842541E-1,0E0,0E0,1.4550476E0,1.9311893E0,0E0,0E0,0E0,7.677335E-1,2.0019073E0,2.2727118E0,0E0,1.202821E0,0E0,0E0,0E0,0E0,0E0,0E0,0E0,0E0],"parents":[2147483647,0,0,1,1,2,2,3,3,4,4,5,5,6,6,7,7,8,8,11,11,14,14,17,17,18,18,22,22,23,23,24,24,26,26],"right_children":[2,4,6,8,10,12,14,16,18,-1,-1,20,-1,-1,22,-1,-1,24,26,-1,-1,-1,28,30,32,-1,34,-1,-1,-1,-1,-1,-1,-1,-1],"split_conditions":[1.02E-2,3.14876E-1,9.9999547E-1,1.1231315E-1,7.499588E-1,9.2E-4,8.338016E-3,6.66818E-1,6.654E-1,-2.9605845E-2,5.663854E-4,2.8810844E-1,-3.280416E-2,-2.8346663E-2,2.2495233E-1,-2.7353352E-2,2.9367346E-2,1.6394E-2,-1.8588685E-3,2.1494772E-2,-2.3820294E-2,4.538187E-2,9.9999994E-1,2.883114E-1,9.999974E-1,3.350275E-2,5.001715E-1,-1.8598072E-2,1.8979594E-2,-5.192744E-3,3.3027586E-2,5.1908113E-2,-4.033276E-3,-2.2394253E-2,1.9602759E-2],"split_indices":[9,13,5,11,6,2,1,4,4,0,0,3,0,0,10,0,0,2,7,0,0,0,5,3,6,0,1,0,0,0,0,0,0,0,0],"split_type":[0,0,0,0,0,0,0,0,0,0,0,0,0,0,0,0,0,0,0,0,0,0,0,0,0,0,0,0,0,0,0,0,0,0,0],"sum_hessian":[7.893166E1,4.816398E1,3.0767683E1,4.0417923E1,7.7460556E0,2.0521805E1,1.0245877E1,5.53786E0,3.4880062E1,6.5071464E0,1.2389092E0,3.7606707E0,1.6761135E1,4.9200134E0,5.325864E0,3.79406E0,1.7437999E0,2.5732786E1,9.147277E0,1.273903E0,2.4867678E0,1.7957895E0,3.5300741E0,1.2334419E1,1.3398366E1,2.2553427E0,6.8919344E0,1.3030924E0,2.2269819E0,5.1343985E0,7.200021E0,1.1628611E1,1.7697561E0,5.5670414E0,1.324893E0],"tree_param":{"num_deleted":"0","num_feature":"16","num_nodes":"35","size_leaf_vector":"1"}},{"base_weights":[5.1966226E-3,9.850796E-1,-3.1321928E-2,4.3598646E-1,7.200722E-2,6.655634E-2,-2.7273962E-2],"categories":[],"categories_nodes":[],"categories_segments":[],"categories_sizes":[],"default_left":[0,0,0,0,0,0,0],"id":11,"left_children":[1,3,-1,5,-1,-1,-1],"loss_changes":[3.9507362E1,5.4453697E0,0E0,1.2128071E1,0E0,0E0,0E0],"parents":[2147483647,0,0,1,1,3,3],"right_children":[2,4,-1,6,-1,-1,-1],"split_conditions":[4.7E-3,4.269427E-1,-3.1321928E-2,2.5E-1,7.200722E-2,6.655634E-2,-2.7273962E-2],"split_indices":[4,1,0,0,0,0,0],"split_type":[0,0,0,0,0,0,0],"sum_hessian":[6.1776882E1,2.4056202E1,3.772068E1,1.1888748E1,1.2167454E1,6.084781E0,5.8039675E0],"tree_param":{"num_deleted":"0","num_feature":"16","num_nodes":"7","size_leaf_vector":"1"}},{"base_weights":[3.028676E-2,-5.296176E-1,3.1143332E-1,-2.2197199E-1,-3.7901994E-2,2.2702909E-1,4.204788E-2,-6.029225E-1,3.083439E-1,1.3593082E-1,7.354306E-1,-3.422543E-2,-4.1556032E-3,-2.2913089E-2,3.2173898E-2,6.263203E-1,3.576669E-2,8.227356E-3,4.1701995E-2,3.9199132E-2,2.6600584E-1,2.630227E-1,-2.0842072E-1,-5.379898E-3,2.8534377E-2,2.110499E-2,-7.1154246E-3,-0E0,-3.4567516E-2],"categories":[],"categories_nodes":[],"categories_segments":[],"categories_sizes":[],"default_left":[0,0,0,0,0,0,0,0,0,0,0,0,0,0,0,0,0,0,0,0,0,0,0,0,0,0,0,0,0],"id":12,"left_children":[1,3,5,7,-1,9,-1,11,13,15,17,-1,-1,-1,-1,19,21,-1,-1,-1,23,25,27,-1,-1,-1,-1,-1,-1],"loss_changes":[1.3774899E1,1.7856569E0,2.3123403E0,3.0523133E0,0E0,2.216725E0,0E0,2.3192692E-1,1.9634037E0,2.1418505E0,1.847372E-1,0E0,0E0,0E0,0E0,1.1092329E-1,2.221012E0,0E0,0E0,0E0,5.608631E-1,1.4306198E0,1.9668014E0,0E0,0E0,0E0,0E0,0E0,0E0],"parents":[2147483647,0,0,1,1,2,2,3,3,5,5,7,7,8,8,9,9,10,10,15,15,16,16,20,20,21,21,22,22],"right_children":[2,4,6,8,-1,10,-1,12,14,16,18,-1,-1,-1,-1,20,22,-1,-1,-1,24,26,28,-1,-1,-1,-1,-1,-1],"split_conditions":[4.8043462E-3,4.3414342E-1,3.1624E-1,1.6595017E-2,-3.7901994E-2,1.002E-2,4.204788E-2,9.999889E-1,8.9075726E-1,1.1231315E-1,2.5417741E-2,-3.422543E-2,-4.1556032E-3,-2.2913089E-2,3.2173898E-2,1.4776171E-2,2.56E-4,8.227356E-3,4.1701995E-2,3.9199132E-2,1.6501E-2,3.137725E-1,1.6902E-2,-5.379898E-3,2.8534377E-2,2.110499E-2,-7.1154246E-3,-0E0,-3.4567516E-2],"split_indices":[15,1,13,1,0,9,0,6,6,11,5,0,0,0,0,15,9,0,0,0,2,13,2,0,0,0,0,0,0],"split_type":[0,0,0,0,0,0,0,0,0,0,0,0,0,0,0,0,0,0,0,0,0,0,0,0,0,0,0,0,0],"sum_hessian":[8.5597595E1,2.8199242E1,5.739835E1,1.3042622E1,1.5156621E1,5.0902298E1,6.496051E0,7.620277E0,5.422344E0,4.440892E1,6.4933777E0,6.1463637E0,1.4739132E0,1.4468794E0,3.9754646E0,6.4719357E0,3.7936985E1,1.4988414E0,4.9945364E0,3.4910135E0,2.9809222E0,1.9821888E1,1.8115097E1,1.4821429E0,1.498779E0,1.4382606E1,5.4392834E0,1.3262902E1,4.852195E0],"tree_param":{"num_deleted":"0","num_feature":"16","num_nodes":"29","size_leaf_vector":"1"}},{"base_weights":[3.0621989E-2,-3.1433135E-2,1.636351E-1,-2.963652E-2,2.6814902E-1,3.6293727E-1,-4.3513444E-1,1.2275273E-1,5.7790387E-1,-2.7646903E-2,1.1607611E-3,-6.665727E-2,6.58824E-1,6.766975E-1,-2.088249E-1,-2.0145213E-2,2.0519434E-2,5.317394E-2,-6.6855694E-3,4.144299E-2,2.7794165E-3,-1.8063452E-2,-0E0],"categories":[],"categories_nodes":[],"categories_segments":[],"categories_sizes":[],"default_left":[0,0,0,0,0,0,0,0,0,0,0,0,0,0,0,0,0,0,0,0,0,0,0],"id":13,"left_children":[1,-1,3,-1,5,7,9,11,13,-1,-1,15,17,19,21,-1,-1,-1,-1,-1,-1,-1,-1],"loss_changes":[6.596735E0,0E0,5.105155E0,0E0,3.8931227E0,2.447916E0,4.4362557E-1,2.6589658E0,2.2066422E0,0E0,0E0,3.2716284E0,2.4164424E0,2.0790834E0,1.4241806E-1,0E0,0E0,0E0,0E0,0E0,0E0,0E0,0E0],"parents":[2147483647,0,0,2,2,4,4,5,5,6,6,7,7,8,8,11,11,12,12,13,13,14,14],"right_children":[2,-1,4,-1,6,8,10,12,14,-1,-1,16,18,20,22,-1,-1,-1,-1,-1,-1,-1,-1],"split_conditions":[1.9363683E-2,-3.1433135E-2,8.338016E-3,-2.963652E-2,3.1624E-1,1.7021088E-1,4.7992545E-1,2.824E-3,6.667005E-1,-2.7646903E-2,1.1607611E-3,4.7370399E-4,2.96E-3,2.5075573E-1,4.991876E-1,-2.0145213E-2,2.0519434E-2,5.317394E-2,-6.6855694E-3,4.144299E-2,2.7794165E-3,-1.8063452E-2,-0E0],"split_indices":[5,0,1,0,13,11,5,14,4,0,0,7,13,11,5,0,0,0,0,0,0,0,0],"split_type":[0,0,0,0,0,0,0,0,0,0,0,0,0,0,0,0,0,0,0,0,0,0,0],"sum_hessian":[7.358211E1,1.1601365E1,6.1980747E1,6.841416E0,5.513933E1,4.914211E1,5.997223E0,2.4171383E1,2.4970726E1,4.780389E0,1.2168336E0,1.8369871E1,5.8015103E0,2.242204E1,2.5486836E0,1.098917E1,7.3807015E0,3.6977909E0,2.1037195E0,1.7611906E1,4.810135E0,1.276886E0,1.2717977E0],"tree_param":{"num_deleted":"0","num_feature":"16","num_nodes":"23","size_leaf_vector":"1"}},{"base_weights":[2.2079263E-2,1.1139777E0,-3.108625E-2,6.798347E-2,5.111468E-1,-2.3555312E-2,5.933537E-2],"categories":[],"categories_nodes":[],"categories_segments":[],"categories_sizes":[],"default_left":[0,0,0,0,0,0,0],"id":14,"left_children":[1,3,-1,-1,5,-1,-1],"loss_changes":[4.5458344E1,2.6741066E0,0E0,0E0,6.385439E0,0E0,0E0],"parents":[2147483647,0,0,1,1,4,4],"right_children":[2,4,-1,-1,6,-1,-1],"split_conditions":[4.7E-3,8.488E-3,-3.108625E-2,6.798347E-2,4.269427E-1,-2.3555312E-2,5.933537E-2],"split_indices":[4,2,0,0,1,0,0],"split_type":[0,0,0,0,0,0,0],"sum_hessian":[6.261097E1,2.3010296E1,3.9600674E1,1.5337811E1,7.6724854E0,3.1895523E0,4.482933E0],"tree_param":{"num_deleted":"0","num_feature":"16","num_nodes":"7","size_leaf_vector":"1"}},{"base_weights":[-1.0516641E-2,-5.024469E-1,2.6160714E-1,-7.062823E-1,-1.19476214E-1,6.213167E-1,1.4049748E-1,-3.7369285E-2,-8.997857E-3,2.8254092E-1,-3.2004572E-2,1.1843817E-3,7.1334225E-1,1.5412653E-2,7.1636E-1,-1.4543093E-2,3.2002877E-2,4.2767495E-2,2.0747694E-1,1.2137589E-1,-3.354642E-2,4.0619865E-2,7.951554E-3,-7.904178E-3,2.6492914E-2,2.4090645E-1,-5.084441E-1,1.958754E-2,-1.8892452E-2,-3.115496E-2,-3.8418267E-3],"categories":[],"categories_nodes":[],"categories_segments":[],"categories_sizes":[],"default_left":[0,0,0,0,0,0,0,0,0,0,0,0,0,0,0,0,0,0,0,0,0,0,0,0,0,0,0,0,0,0,0],"id":15,"left_children":[1,3,5,7,9,11,13,-1,-1,15,-1,-1,17,19,21,-1,-1,-1,23,25,-1,-1,-1,-1,-1,27,29,-1,-1,-1,-1],"loss_changes":[1.1558208E1,2.2382197E0,2.2486417E0,1.9969177E-1,2.7441869E0,6.4890814E-1,3.0075831E0,0E0,0E0,1.7380636E0,0E0,0E0,5.4041386E-1,2.675764E0,1.7482448E-1,0E0,0E0,0E0,5.9107864E-1,2.5446043E0,0E0,0E0,0E0,0E0,0E0,2.777017E0,1.4820623E-1,0E0,0E0,0E0,0E0],"parents":[2147483647,0,0,1,1,2,2,3,3,4,4,5,5,6,6,9,9,12,12,13,13,14,14,18,18,19,19,25,25,26,26],"right_children":[2,4,6,8,10,12,14,-1,-1,16,-1,-1,18,20,22,-1,-1,-1,24,26,-1,-1,-1,-1,-1,28,30,-1,-1,-1,-1],"split_conditions":[5.185E-3,1.6308E-2,7.748879E-1,9.9999E-1,4.269427E-1,-3.9762515E-1,1.002E-2,-3.7369285E-2,-8.997857E-3,1.662978E-1,-3.2004572E-2,1.1843817E-3,3.327967E-1,2.8888524E-1,9.615975E-1,-1.4543093E-2,3.2002877E-2,4.2767495E-2,4.376205E-1,2.824E-3,-3.354642E-2,4.0619865E-2,7.951554E-3,-7.904178E-3,2.6492914E-2,2.6084196E-3,5.003665E-1,1.958754E-2,-1.8892452E-2,-3.115496E-2,-3.8418267E-3],"split_indices":[4,2,6,6,1,7,9,0,0,3,0,0,7,3,1,0,0,0,7,14,0,0,0,0,0,7,1,0,0,0,0],"split_type":[0,0,0,0,0,0,0,0,0,0,0,0,0,0,0,0,0,0,0,0,0,0,0,0,0,0,0,0,0,0,0],"sum_hessian":[8.4179855E1,2.9810741E1,5.436911E1,1.8734175E1,1.1076568E1,1.2446298E1,4.1922813E1,1.6811293E1,1.9228811E0,6.3998446E0,4.676723E0,1.9735835E0,1.0472713E1,3.542784E1,6.4949713E0,2.4220204E0,3.9778242E0,7.4834085E0,2.9893055E0,3.1528982E1,3.8988602E0,4.9968405E0,1.498131E0,1.4943036E0,1.4950019E0,2.7152174E1,4.3768077E0,2.2255154E1,4.897022E0,2.9245486E0,1.4522591E0],"tree_param":{"num_deleted":"0","num_feature":"16","num_nodes":"31","size_leaf_vector":"1"}},{"base_weights":[2.6478268E-2,-3.0834561E-2,1.523264E-1,3.5435343E-1,-3.3371496E-1,-2.6416186E-2,4.600313E-1,-5.4399824E-1,4.985209E-2,-2.315862E-1,5.644323E-1,-3.0776221E-2,-0E0,-2.0830583E-2,2.9116985E-1,-2.5336886E-2,1.0368432E-2,-2.0425586E-2,6.2979734E-1,5.822315E-1,-1.7091734E-2,5.6822E-3,3.625382E-2,4.2853538E-2,-0E0],"categories":[],"categories_nodes":[],"categories_segments":[],"categories_sizes":[],"default_left":[0,0,0,0,0,0,0,0,0,0,0,0,0,0,0,0,0,0,0,0,0,0,0,0,0],"id":16,"left_children":[1,-1,3,5,7,-1,9,11,13,15,17,-1,-1,-1,19,-1,-1,-1,21,23,-1,-1,-1,-1,-1],"loss_changes":[5.7571692E0,0E0,6.0049214E0,4.243788E0,1.5255988E0,0E0,2.9803782E0,4.9442482E-1,9.090266E-1,8.2335174E-1,2.4611473E0,0E0,0E0,0E0,1.2207989E0,0E0,0E0,0E0,1.4387217E0,6.7499495E-1,0E0,0E0,0E0,0E0,0E0],"parents":[2147483647,0,0,2,2,3,3,4,4,6,6,7,7,8,8,9,9,10,10,14,14,18,18,19,19],"right_children":[2,-1,4,6,8,-1,10,12,14,16,18,-1,-1,-1,20,-1,-1,-1,22,24,-1,-1,-1,-1,-1],"split_conditions":[1.9363683E-2,-3.0834561E-2,2.82E-3,8.338016E-3,2.5E-1,-2.6416186E-2,1.2E-5,6.561E-1,3.137725E-1,-7.728901E-2,-7.908322E-1,-3.0776221E-2,-0E0,-2.0830583E-2,3.14876E-1,-2.5336886E-2,1.0368432E-2,-2.0425586E-2,1.7E-5,1.9792779E-1,-1.7091734E-2,5.6822E-3,3.625382E-2,4.2853538E-2,-0E0],"split_indices":[5,0,13,1,0,0,9,4,13,8,8,0,0,0,13,0,0,0,13,11,0,0,0,0,0],"split_type":[0,0,0,0,0,0,0,0,0,0,0,0,0,0,0,0,0,0,0,0,0,0,0,0,0],"sum_hessian":[6.9540504E1,1.0611851E1,5.8928658E1,4.196306E1,1.6965601E1,3.958012E0,3.8005043E1,1.0856295E1,6.1093063E0,4.699111E0,3.3305935E1,9.565902E0,1.2903929E0,1.6940118E0,4.4152946E0,2.933617E0,1.7654938E0,1.6699238E0,3.163601E1,3.187731E0,1.2275636E0,5.435062E0,2.6200949E1,1.851475E0,1.3362559E0],"tree_param":{"num_deleted":"0","num_feature":"16","num_nodes":"25","size_leaf_vector":"1"}},{"base_weights":[-0E0,9.6712995E-1,-3.0761395E-2,6.344472E-2,3.6825797E-1,-2.5029276E-2,5.60094E-2],"categories":[],"categories_nodes":[],"categories_segments":[],"categories_sizes":[],"default_left":[0,0,0,0,0,0,0],"id":17,"left_children":[1,3,-1,-1,5,-1,-1],"loss_changes":[3.7695415E1,3.8245487E0,0E0,0E0,7.012489E0,0E0,0E0],"parents":[2147483647,0,0,1,1,4,4],"right_children":[2,4,-1,-1,6,-1,-1],"split_conditions":[4.7E-3,8.338E-3,-3.0761395E-2,6.344472E-2,5.6772027E-2,-2.5029276E-2,5.60094E-2],"split_indices":[4,2,0,0,1,0,0],"split_type":[0,0,0,0,0,0,0],"sum_hessian":[6.1319683E1,2.3654655E1,3.7665028E1,1.4874024E1,8.780631E0,4.167001E0,4.61363E0],"tree_param":{"num_deleted":"0","num_feature":"16","num_nodes":"7","size_leaf_vector":"1"}},{"base_weights":[1.206455E-3,-4.737783E-1,3.2453343E-1,-2.0831972E-1,-6.880138E-1,-4.152995E-2,4.621146E-1,-6.09593E-1,3.273774E-1,-2.5470394E-3,-3.6653277E-2,4.0278557E-1,-4.997022E-1,1.8917324E-2,5.845651E-1,-3.3927716E-2,-3.8269495E-3,-1.3999528E-2,6.635301E-1,3.959375E-2,-1.53587675E-2,-3.554332E-2,1.0009626E-2,-3.620832E-1,2.6648728E-2,6.9825053E-1,-9.7566694E-2,3.8327854E-2,9.626684E-3,1.0051933E-2,-3.11468E-2,-1.0814494E-2,7.8822124E-1,2.8782133E-2,-2.9379223E-2,4.263239E-2,1.7881028E-2],"categories":[],"categories_nodes":[],"categories_segments":[],"categories_sizes":[],"default_left":[0,0,0,0,0,0,0,0,0,0,0,0,0,0,0,0,0,0,0,0,0,0,0,0,0,0,0,0,0,0,0,0,0,0,0,0,0],"id":18,"left_children":[1,3,5,7,9,11,13,15,17,-1,-1,19,21,23,25,-1,-1,-1,27,-1,-1,-1,-1,29,-1,31,33,-1,-1,-1,-1,-1,35,-1,-1,-1,-1],"loss_changes":[1.3210911E1,1.7435985E0,2.6480665E0,3.9175434E0,4.1782665E-1,3.2136426E0,1.9698467E0,2.5007343E-1,1.8360403E0,0E0,0E0,2.4825773E0,1.3489413E0,2.0418453E0,2.3972988E0,0E0,0E0,0E0,2.2660494E-2,0E0,0E0,0E0,0E0,1.0275112E0,0E0,2.3117743E0,1.9663274E0,0E0,0E0,0E0,0E0,0E0,2.2251987E-1,0E0,0E0,0E0,0E0],"parents":[2147483647,0,0,1,1,2,2,3,3,4,4,5,5,6,6,7,7,8,8,11,11,12,12,13,13,14,14,18,18,23,23,25,25,26,26,32,32],"right_children":[2,4,6,8,10,12,14,16,18,-1,-1,20,22,24,26,-1,-1,-1,28,-1,-1,-1,-1,30,-1,32,34,-1,-1,-1,-1,-1,36,-1,-1,-1,-1],"split_conditions":[5.1965E-3,4.3414342E-1,2.2503349E-1,1.6595017E-2,5.13E-4,1.1231133E-1,1.88E-3,9.9999E-1,2.2495233E-1,-2.5470394E-3,-3.6653277E-2,6.66818E-1,6.6498E-1,1.002E-2,9.615379E-1,-3.3927716E-2,-3.8269495E-3,-1.3999528E-2,3.2696016E-2,3.959375E-2,-1.53587675E-2,-3.554332E-2,1.0009626E-2,2.886871E-1,2.6648728E-2,-3.9762515E-1,9.9994135E-1,3.8327854E-2,9.626684E-3,1.0051933E-2,-3.11468E-2,-1.0814494E-2,3.0322945E-1,2.8782133E-2,-2.9379223E-2,4.263239E-2,1.7881028E-2],"split_indices":[4,1,10,1,9,11,2,6,10,0,0,4,4,9,1,0,0,0,1,0,0,0,0,3,0,7,6,0,0,0,0,0,3,0,0,0,0],"split_type":[0,0,0,0,0,0,0,0,0,0,0,0,0,0,0,0,0,0,0,0,0,0,0,0,0,0,0,0,0,0,0,0,0,0,0,0,0],"sum_hessian":[8.4118324E1,3.3755325E1,5.0363E1,1.616477E1,1.7590555E1,1.3749881E1,3.661312E1,9.269796E0,6.894973E0,1.4491138E0,1.6141441E1,6.9310637E0,6.8188167E0,8.352658E0,2.8260462E1,7.800136E0,1.4696605E0,2.4100437E0,4.484929E0,4.493762E0,2.4373016E0,5.336079E0,1.4827378E0,4.855238E0,3.4974203E0,2.4328753E1,3.9317095E0,2.9908626E0,1.4940666E0,1.488294E0,3.3669438E0,1.9537417E0,2.237501E1,1.4966834E0,2.4350262E0,1.8408377E1,3.9666328E0],"tree_param":{"num_deleted":"0","num_feature":"16","num_nodes":"37","size_leaf_vector":"1"}},{"base_weights":[2.5748569E-3,-3.0489186E-2,1.2146755E-1,-2.8177205E-2,2.0238653E-1,3.8470978E-1,-8.2531124E-2,4.747143E-1,-2.3716552E-2,-3.1321654E-1,1.3409781E-1,3.6359918E-1,5.143104E-2,-2.976795E-2,2.145391E-2,-2.7862996E-1,5.3719425E-1,2.285214E-2,-1.4720338E-2,1.8996604E-2,-2.1812284E-2,-2.559301E-2,5.9729107E-3,-1.8191177E-2,4.17197E-2],"categories":[],"categories_nodes":[],"categories_segments":[],"categories_sizes":[],"default_left":[0,0,0,0,0,0,0,0,0,0,0,0,0,0,0,0,0,0,0,0,0,0,0,0,0],"id":19,"left_children":[1,-1,3,-1,5,7,9,11,-1,13,15,17,-1,-1,19,21,23,-1,-1,-1,-1,-1,-1,-1,-1],"loss_changes":[5.4281545E0,0E0,3.576468E0,0E0,3.0392637E0,2.9576125E0,1.2079948E0,1.492825E0,0E0,1.1701508E0,2.2259698E0,1.9243872E0,0E0,0E0,1.1661798E0,7.155338E-1,2.1445467E0,0E0,0E0,0E0,0E0,0E0,0E0,0E0,0E0],"parents":[2147483647,0,0,2,2,4,4,5,5,6,6,7,7,9,9,10,10,11,11,14,14,15,15,16,16],"right_children":[2,-1,4,-1,6,8,10,12,-1,14,16,18,-1,-1,20,22,24,-1,-1,-1,-1,-1,-1,-1,-1],"split_conditions":[1.8807404E-2,-3.0489186E-2,8.338016E-3,-2.8177205E-2,1.876047E-1,3E-3,2.8866363E-1,2.575932E-2,-2.3716552E-2,5.001715E-1,4.7677088E-1,7.54025E-2,5.143104E-2,-2.976795E-2,5.3125775E-1,5.8962166E-1,8E-6,2.285214E-2,-1.4720338E-2,1.8996604E-2,-2.1812284E-2,-2.559301E-2,5.9729107E-3,-1.8191177E-2,4.17197E-2],"split_indices":[5,0,1,0,15,13,3,15,0,1,5,4,0,0,1,10,12,0,0,0,0,0,0,0,0],"split_type":[0,0,0,0,0,0,0,0,0,0,0,0,0,0,0,0,0,0,0,0,0,0,0,0,0],"sum_hessian":[7.321084E1,1.1095151E1,6.2115685E1,5.8017163E0,5.631397E1,3.434E1,2.197397E1,3.159363E1,2.7463694E0,1.0649358E1,1.1324614E1,2.7844843E1,3.748786E0,5.5176163E0,5.1317415E0,5.6254497E0,5.699164E0,2.4782816E1,3.0620277E0,3.0956044E0,2.036137E0,3.5254047E0,2.1000447E0,1.2745318E0,4.424632E0],"tree_param":{"num_deleted":"0","num_feature":"16","num_nodes":"25","size_leaf_vector":"1"}},{"base_weights":[-1.6249698E-2,8.256173E-1,-3.0510211E-2,5.8310587E-2,2.6593968E-1,5.3523313E-2,-2.6431495E-2],"categories":[],"categories_nodes":[],"categories_segments":[],"categories_sizes":[],"default_left":[0,0,0,0,0,0,0],"id":20,"left_children":[1,3,-1,-1,5,-1,-1],"loss_changes":[3.2991188E1,4.7410355E0,0E0,0E0,8.10931E0,0E0,0E0],"parents":[2147483647,0,0,1,1,4,4],"right_children":[2,4,-1,-1,6,-1,-1],"split_conditions":[4.7E-3,9.99995E-1,-3.0510211E-2,5.8310587E-2,2.5E-1,5.3523313E-2,-2.6431495E-2],"split_indices":[4,5,0,0,0,0,0],"split_type":[0,0,0,0,0,0,0],"sum_hessian":[6.401387E1,2.6249548E1,3.7764324E1,1.5533916E1,1.07156315E1,5.2144566E0,5.501175E0],"tree_param":{"num_deleted":"0","num_feature":"16","num_nodes":"7","size_leaf_vector":"1"}},{"base_weights":[-3.3483983E-3,-5.0416285E-1,2.3651409E-1,-2.0507991E-1,-3.5488047E-2,1.5375583E-1,3.8488414E-2,-3.2607365E-2,2.9364383E-1,6.4179875E-2,6.66619E-1,-9.620602E-3,2.8410217E-2,1.3234165E-1,-4.7215173E-1,3.830344E-2,7.0307963E-3,4.2666945E-1,-3.4099523E-2,-2.937972E-2,-3.7687009E-3,-1.5028995E-2,3.0451238E-2,-1.539132E-2,1.2577846E-2],"categories":[],"categories_nodes":[],"categories_segments":[],"categories_sizes":[],"default_left":[0,0,0,0,0,0,0,0,0,0,0,0,0,0,0,0,0,0,0,0,0,0,0,0,0],"id":21,"left_children":[1,3,5,7,-1,9,-1,-1,11,13,15,-1,-1,17,19,-1,-1,21,23,-1,-1,-1,-1,-1,-1],"loss_changes":[9.767803E0,1.3858967E0,2.2034416E0,2.9824173E0,0E0,2.124488E0,0E0,0E0,1.0042906E0,1.5927241E0,1.6666341E-1,0E0,0E0,1.9599358E0,1.1286175E-1,0E0,0E0,2.116475E0,2.0819325E0,0E0,0E0,0E0,0E0,0E0,0E0],"parents":[2147483647,0,0,1,1,2,2,3,3,5,5,8,8,9,9,10,10,13,13,14,14,17,17,18,18],"right_children":[2,4,6,8,-1,10,-1,-1,12,14,16,-1,-1,18,20,-1,-1,22,24,-1,-1,-1,-1,-1,-1],"split_conditions":[4.8043462E-3,4.3414342E-1,3.1624E-1,1.6595017E-2,-3.5488047E-2,1.002E-2,3.8488414E-2,-3.2607365E-2,1.662978E-1,2.824E-3,9.615975E-1,-9.620602E-3,2.8410217E-2,5.001635E-1,5.003665E-1,3.830344E-2,7.0307963E-3,5.1714377E-3,2.71E-3,-2.937972E-2,-3.7687009E-3,-1.5028995E-2,3.0451238E-2,-1.539132E-2,1.2577846E-2],"split_indices":[15,1,13,1,0,9,0,0,3,14,1,0,0,1,1,0,0,15,13,0,0,0,0,0,0],"split_type":[0,0,0,0,0,0,0,0,0,0,0,0,0,0,0,0,0,0,0,0,0,0,0,0,0],"sum_hessian":[7.909714E1,2.539317E1,5.3703968E1,1.1356608E1,1.4036562E1,4.776669E1,5.9372787E0,5.931951E0,5.424658E0,4.1788155E1,5.9785347E0,1.9346747E0,3.4899828E0,3.7909924E1,3.8782303E0,4.48421E0,1.4943247E0,1.3346263E1,2.4563662E1,2.4364097E0,1.4418207E0,2.435715E0,1.0910548E1,1.2682891E1,1.188077E1],"tree_param":{"num_deleted":"0","num_feature":"16","num_nodes":"25","size_leaf_vector":"1"}},{"base_weights":[1.408991E-2,-3.028757E-2,1.3147368E-1,-3.892697E-1,2.47817E-1,1.802975E-2,-5.248525E-1,4.2487124E-1,4.9637657E-2,-2.98743E-2,-2.1433686E-3,-2.1332292E-2,5.087891E-1,4.0966856E-1,-7.5344324E-2,6.234753E-1,-1.2828447E-1,6.096388E-1,-4.860798E-3,-2.1057889E-1,3.7408018E-1,-1.7380005E-2,3.5038393E-2,-2.1007225E-2,9.794597E-3,4.8622068E-2,-3.8114383E-3,-1.5760725E-2,1.0835847E-2,-1.710042E-2,3.629012E-2],"categories":[],"categories_nodes":[],"categories_segments":[],"categories_sizes":[],"default_left":[0,0,0,0,0,0,0,0,0,0,0,0,0,0,0,0,0,0,0,0,0,0,0,0,0,0,0,0,0,0,0],"id":22,"left_children":[1,-1,3,5,7,-1,9,11,13,-1,-1,-1,15,17,19,21,23,25,-1,27,29,-1,-1,-1,-1,-1,-1,-1,-1,-1,-1],"loss_changes":[5.627834E0,0E0,4.0577884E0,1.447572E0,1.8403771E0,0E0,2.907095E-1,2.249971E0,1.2823262E0,0E0,0E0,0E0,2.055108E0,8.54185E-1,1.322468E0,1.9780598E0,5.510238E-1,1.5423536E0,0E0,8.269474E-1,1.5420403E0,0E0,0E0,0E0,0E0,0E0,0E0,0E0,0E0,0E0,0E0],"parents":[2147483647,0,0,2,2,3,3,4,4,6,6,7,7,8,8,12,12,13,13,14,14,15,15,16,16,17,17,19,19,20,20],"right_children":[2,-1,4,6,8,-1,10,12,14,-1,-1,-1,16,18,20,22,24,26,-1,28,30,-1,-1,-1,-1,-1,-1,-1,-1,-1,-1],"split_conditions":[1.9363683E-2,-3.028757E-2,-1.1460196E-2,-5.0181144E-1,4.9866232E-1,1.802975E-2,9.99992E-1,7.155498E-1,1E-5,-2.98743E-2,-2.1433686E-3,-2.1332292E-2,-7.48357E-2,2.886684E-1,6.66818E-1,1.661517E-1,2.79E-3,1.349E-3,-4.860798E-3,1.6902E-2,5.0090694E-1,-1.7380005E-2,3.5038393E-2,-2.1007225E-2,9.794597E-3,4.8622068E-2,-3.8114383E-3,-1.5760725E-2,1.0835847E-2,-1.710042E-2,3.629012E-2],"split_indices":[5,0,7,7,5,0,2,6,4,0,0,0,8,3,4,3,14,12,0,2,5,0,0,0,0,0,0,0,0,0,0],"split_type":[0,0,0,0,0,0,0,0,0,0,0,0,0,0,0,0,0,0,0,0,0,0,0,0,0,0,0,0,0,0,0],"sum_hessian":[7.590592E1,1.1287944E1,6.461798E1,1.1215026E1,5.3402954E1,1.3502244E0,9.864801E0,2.7334093E1,2.6068861E1,8.18434E0,1.6804621E0,1.9788564E0,2.5355236E1,6.3368444E0,1.9732016E1,2.163823E1,3.7170076E0,4.540245E0,1.796599E0,1.5747463E1,3.9845529E0,1.2420897E0,2.039614E1,1.962543E0,1.7544646E0,2.791567E0,1.7486782E0,1.3048497E1,2.6989655E0,1.2279043E0,2.7566485E0],"tree_param":{"num_deleted":"0","num_feature":"16","num_nodes":"31","size_leaf_vector":"1"}},{"base_weights":[-1.7489886E-2,8.347321E-1,-3.0186677E-2,5.3637058E-2,2.8649703E-1,4.923757E-2,-2.456587E-2],"categories":[],"categories_nodes":[],"categories_segments":[],"categories_sizes":[],"default_left":[0,0,0,0,0,0,0],"id":23,"left_children":[1,3,-1,-1,5,-1,-1],"loss_changes":[3.1948202E1,2.9518433E0,0E0,0E0,5.621041E0,0E0,0E0],"parents":[2147483647,0,0,1,1,4,4],"right_children":[2,4,-1,-1,6,-1,-1],"split_conditions":[4.7E-3,9.999965E-1,-3.0186677E-2,5.3637058E-2,2.5E-1,4.923757E-2,-2.456587E-2],"split_indices":[4,5,0,0,0,0,0],"split_type":[0,0,0,0,0,0,0],"sum_hessian":[6.1983852E1,2.5019125E1,3.696473E1,1.6651133E1,8.367992E0,4.337066E0,4.030926E0],"tree_param":{"num_deleted":"0","num_feature":"16","num_nodes":"7","size_leaf_vector":"1"}},{"base_weights":[-0E0,2.4842124E-1,-5.338565E-1,9.831656E-2,5.394466E-1,-3.185692E-2,-1.2376203E-1,1.7343208E-1,-3.6481604E-1,7.523734E-1,1.8469733E-1,-2.7575945E-2,3.3944717E-1,2.5769457E-1,-3.3391684E-1,-3.063791E-2,8.760522E-3,4.0874988E-2,6.566876E-3,-2.428848E-1,3.447047E-2,2.9209405E-2,-9.4228983E-4,-7.128118E-2,4.1258454E-1,9.316163E-3,-3.0351752E-2,-2.9811725E-2,5.046211E-3,1.9579306E-2,-2.0746183E-2,-7.6987976E-3,2.5756583E-2],"categories":[],"categories_nodes":[],"categories_segments":[],"categories_sizes":[],"default_left":[0,0,0,0,0,0,0,0,0,0,0,0,0,0,0,0,0,0,0,0,0,0,0,0,0,0,0,0,0,0,0,0,0],"id":24,"left_children":[1,3,5,7,9,-1,11,13,15,17,19,-1,21,23,25,-1,-1,-1,-1,27,-1,-1,-1,29,31,-1,-1,-1,-1,-1,-1,-1,-1],"loss_changes":[1.1558725E1,2.4802191E0,1.0175996E0,1.4589915E0,1.2614036E0,0E0,1.5964504E0,1.61138E0,9.293435E-1,2.773986E-1,2.137213E0,0E0,4.069034E-1,1.6678281E0,9.187212E-1,0E0,0E0,0E0,0E0,7.731961E-1,0E0,0E0,0E0,1.8706543E0,1.3796666E0,0E0,0E0,0E0,0E0,0E0,0E0,0E0,0E0],"parents":[2147483647,0,0,1,1,2,2,3,3,4,4,6,6,7,7,8,8,9,9,10,10,12,12,13,13,14,14,19,19,23,23,24,24],"right_children":[2,4,6,8,10,-1,12,14,16,18,20,-1,22,24,26,-1,-1,-1,-1,28,-1,-1,-1,30,32,-1,-1,-1,-1,-1,-1,-1,-1],"split_conditions":[1E0,3E-3,1.383E-3,1.406E-3,4.7362888E-1,-3.185692E-2,2.248537E-1,9.6157897E-1,1.663948E-1,2.9510894E-1,3.2556212E-1,-2.7575945E-2,1.6636081E-1,3.66E-3,-4.2055724E-3,-3.063791E-2,8.760522E-3,4.0874988E-2,6.566876E-3,2.4592523E-1,3.447047E-2,2.9209405E-2,-9.4228983E-4,1.04E-3,2.5E-6,9.316163E-3,-3.0351752E-2,-2.9811725E-2,5.046211E-3,1.9579306E-2,-2.0746183E-2,-7.6987976E-3,2.5756583E-2],"split_indices":[9,13,12,12,10,0,10,1,3,3,3,0,3,2,7,0,0,0,0,11,0,0,0,2,12,0,0,0,0,0,0,0,0],"split_type":[0,0,0,0,0,0,0,0,0,0,0,0,0,0,0,0,0,0,0,0,0,0,0,0,0,0,0,0,0,0,0,0,0],"sum_hessian":[8.5133575E1,5.8450066E1,2.6683508E1,3.9670372E1,1.8779694E1,2.0678234E1,6.005275E0,3.4858166E1,4.812205E0,1.0859112E1,7.9205813E0,3.1352355E0,2.870039E0,3.0484383E1,4.3737855E0,3.3326027E0,1.4796022E0,9.396371E0,1.4627413E0,4.46151E0,3.459071E0,1.4964658E0,1.3735733E0,9.7244625E0,2.075992E1,1.4890565E0,2.8847291E0,1.9815888E0,2.4799213E0,3.9600198E0,5.7644424E0,2.9553406E0,1.7804579E1],"tree_param":{"num_deleted":"0","num_feature":"16","num_nodes":"33","size_leaf_vector":"1"}},{"base_weights":[4.6201516E-2,-2.9807964E-2,1.6477E-1,2.4788976E-1,-4.4664875E-1,-2.6650855E-2,3.3259028E-1,-2.7747924E-2,2.2616207E-3,-1.1360014E-1,4.0385827E-1,-4.0539336E-1,2.4932606E-2,5.770777E-1,1.9675459E-1,-0E0,-2.6533395E-2,-5.3098793E-3,3.2122508E-2,2.0253005E-2,-2.1018993E-2],"categories":[],"categories_nodes":[],"categories_segments":[],"categories_sizes":[],"default_left":[0,0,0,0,0,0,0,0,0,0,0,0,0,0,0,0,0,0,0,0,0],"id":25,"left_children":[1,-1,3,5,7,-1,9,-1,-1,11,13,15,-1,17,19,-1,-1,-1,-1,-1,-1],"loss_changes":[5.721424E0,0E0,3.329109E0,3.9194925E0,4.9367976E-1,0E0,1.729918E0,0E0,0E0,1.578325E0,1.4338465E0,3.4369034E-1,0E0,1.1886263E0,3.0493555E0,0E0,0E0,0E0,0E0,0E0,0E0],"parents":[2147483647,0,0,2,2,3,3,4,4,6,6,9,9,10,10,11,11,13,13,14,14],"right_children":[2,-1,4,6,8,-1,10,-1,-1,12,14,16,-1,18,20,-1,-1,-1,-1,-1,-1],"split_conditions":[1.9363683E-2,-2.9807964E-2,3.14876E-1,8.254017E-3,5.328533E-1,-2.6650855E-2,1.12302534E-1,-2.7747924E-2,2.2616207E-3,5.068169E-1,4.973682E-1,4.28E-3,2.4932606E-2,5.27E-3,2.698E-3,-0E0,-2.6533395E-2,-5.3098793E-3,3.2122508E-2,2.0253005E-2,-2.1018993E-2],"split_indices":[5,0,13,1,1,0,11,0,0,5,5,2,0,4,13,0,0,0,0,0,0],"split_type":[0,0,0,0,0,0,0,0,0,0,0,0,0,0,0,0,0,0,0,0,0],"sum_hessian":[7.3396736E1,1.0677666E1,6.2719067E1,5.5880478E1,6.8385906E0,4.834512E0,5.1045963E1,5.666025E0,1.1725653E0,6.7553453E0,4.429062E1,4.9143925E0,1.8409529E0,2.2882587E1,2.1408031E1,1.2423589E0,3.6720338E0,1.8100194E0,2.1072569E1,1.6383636E1,5.024395E0],"tree_param":{"num_deleted":"0","num_feature":"16","num_nodes":"21","size_leaf_vector":"1"}},{"base_weights":[2.2497421E-2,7.782204E-1,-2.9873608E-2,3.5044384E-1,5.3973444E-2,5.0539356E-2,-2.5789862E-2],"categories":[],"categories_nodes":[],"categories_segments":[],"categories_sizes":[],"default_left":[0,0,0,0,0,0,0],"id":26,"left_children":[1,3,-1,5,-1,-1,-1],"loss_changes":[2.8890804E1,3.065281E0,0E0,8.074831E0,0E0,0E0,0E0],"parents":[2147483647,0,0,1,1,3,3],"right_children":[2,4,-1,6,-1,-1,-1],"split_conditions":[4.7E-3,5.6829028E-2,-2.9873608E-2,2.5E-1,5.3973444E-2,5.0539356E-2,-2.5789862E-2],"split_indices":[4,1,0,0,0,0,0],"split_type":[0,0,0,0,0,0,0],"sum_hessian":[5.96323E1,2.6831547E1,3.280075E1,1.2118451E1,1.4713097E1,6.847282E0,5.2711687E0],"tree_param":{"num_deleted":"0","num_feature":"16","num_nodes":"7","size_leaf_vector":"1"}},{"base_weights":[-2.358169E-2,-4.9280792E-1,2.3986551E-1,-2.0105176E-1,-3.481771E-2,7.538641E-2,5.2584594E-1,-5.595439E-1,3.8530928E-1,2.241997E-1,-4.867994E-1,6.909114E-1,1.781857E-1,-3.1639528E-2,-2.591924E-3,-2.7740356E-3,2.8088668E-2,2.9811472E-1,-2.5805578E-2,-5.5402166E-1,-3.8144116E-3,-0E0,4.0495597E-2,2.525765E-2,-2.5862766E-2,7.044847E-2,4.8290533E-1,-2.4871358E-3,-3.358951E-2,-1.8642373E-2,2.8661007E-2,3.5316642E-2,5.4924386E-3],"categories":[],"categories_nodes":[],"categories_segments":[],"categories_sizes":[],"default_left":[0,0,0,0,0,0,0,0,0,0,0,0,0,0,0,0,0,0,0,0,0,0,0,0,0,0,0,0,0,0,0,0,0],"id":27,"left_children":[1,3,5,7,-1,9,11,13,15,17,19,21,23,-1,-1,-1,-1,25,-1,27,-1,-1,-1,-1,-1,29,31,-1,-1,-1,-1,-1,-1],"loss_changes":[1.064384E1,1.6116228E0,2.4843118E0,3.2495093E0,0E0,3.1169477E0,9.187679E-1,2.4900961E-1,5.431346E-1,1.746362E0,1.0899079E-1,1.0063705E0,2.050755E0,0E0,0E0,0E0,0E0,1.0709362E0,0E0,2.6879036E-1,0E0,0E0,0E0,0E0,0E0,3.302682E0,1.0752261E0,0E0,0E0,0E0,0E0,0E0,0E0],"parents":[2147483647,0,0,1,1,2,2,3,3,5,5,6,6,7,7,8,8,9,9,10,10,11,11,12,12,17,17,19,19,25,25,26,26],"right_children":[2,4,6,8,-1,10,12,14,16,18,20,22,24,-1,-1,-1,-1,26,-1,28,-1,-1,-1,-1,-1,30,32,-1,-1,-1,-1,-1,-1],"split_conditions":[5.185E-3,4.3414342E-1,8E-4,1.6595017E-2,-3.481771E-2,5.328533E-1,9.994886E-1,9.9999E-1,1.662978E-1,2.806E-3,9.9999654E-1,4.7864786E-1,2.5526399E-2,-3.1639528E-2,-2.591924E-3,-2.7740356E-3,2.8088668E-2,1.366E-3,-2.5805578E-2,2.2894448E-2,-3.8144116E-3,-0E0,4.0495597E-2,2.525765E-2,-2.5862766E-2,9.9998885E-1,3.043067E-1,-2.4871358E-3,-3.358951E-2,-1.8642373E-2,2.8661007E-2,3.5316642E-2,5.4924386E-3],"split_indices":[4,1,9,1,0,1,6,6,3,14,6,1,15,0,0,0,0,12,0,5,0,0,0,0,0,6,3,0,0,0,0,0,0],"split_type":[0,0,0,0,0,0,0,0,0,0,0,0,0,0,0,0,0,0,0,0,0,0,0,0,0,0,0,0,0,0,0,0,0],"sum_hessian":[8.394297E1,3.0006792E1,5.3936176E1,1.3350165E1,1.6656626E1,3.5266335E1,1.866984E1,8.419122E0,4.9310436E0,2.8501047E1,6.7652874E0,1.1794823E1,6.8750167E0,6.970195E0,1.4489274E0,1.443709E0,3.4873345E0,2.6579641E1,1.9214064E0,5.3036175E0,1.4616696E0,1.9494696E0,9.845353E0,4.9603043E0,1.9147122E0,1.2769595E1,1.3810047E1,1.4341515E0,3.869466E0,6.817816E0,5.951779E0,7.910776E0,5.899271E0],"tree_param":{"num_deleted":"0","num_feature":"16","num_nodes":"33","size_leaf_vector":"1"}},{"base_weights":[2.7951784E-2,2.684097E-1,-3.5330504E-1,3.5010517E-1,-2.525972E-1,-5.5888265E-1,-6.1564393E-2,1.7911239E-1,6.8124837E-1,-2.428563E-2,9.706591E-2,-3.051734E-2,-0E0,4.669357E-1,-4.6041715E-1,-4.0603286E-1,3.089172E-1,4.9759246E-2,3.2623056E-1,-1.4905306E-2,2.3647195E-2,3.8839858E-2,1.1066638E-1,-2.7726835E-2,-0E0,-0E0,-2.715984E-2,-2.4733678E-1,4.0280488E-1,-1.7781343E-2,5.261599E-1,3.4234606E-2,-2.0783445E-2,-0E0,-1.9853495E-2,2.3865622E-2,-1.8339848E-2,3.294181E-2,-0E0],"categories":[],"categories_nodes":[],"categories_segments":[],"categories_sizes":[],"default_left":[0,0,0,0,0,0,0,0,0,0,0,0,0,0,0,0,0,0,0,0,0,0,0,0,0,0,0,0,0,0,0,0,0,0,0,0,0,0,0],"id":28,"left_children":[1,3,5,7,9,11,13,15,17,-1,19,-1,-1,21,23,25,27,-1,29,-1,-1,-1,31,-1,-1,-1,-1,33,35,-1,37,-1,-1,-1,-1,-1,-1,-1,-1],"loss_changes":[6.8341494E0,2.050427E0,1.6271608E0,2.0701199E0,6.266022E-1,5.1813793E-1,2.9977899E0,2.2492063E0,1.0082574E0,0E0,6.5082806E-1,0E0,0E0,4.9515402E-1,3.905481E-1,3.2174194E-1,1.3527591E0,0E0,1.2683198E0,0E0,0E0,0E0,1.56198E0,0E0,0E0,0E0,0E0,1.7744744E-1,1.3793461E0,0E0,4.5439684E-1,0E0,0E0,0E0,0E0,0E0,0E0,0E0,0E0],"parents":[2147483647,0,0,1,1,2,2,3,3,4,4,5,5,6,6,7,7,8,8,10,10,13,13,14,14,15,15,16,16,18,18,22,22,27,27,28,28,30,30],"right_children":[2,4,6,8,10,12,14,16,18,-1,20,-1,-1,22,24,26,28,-1,30,-1,-1,-1,32,-1,-1,-1,-1,34,36,-1,38,-1,-1,-1,-1,-1,-1,-1,-1],"split_conditions":[1.02E-2,3.14876E-1,8.338E-3,2.8867474E-1,2.3138806E-2,2.3938905E-2,3.2577015E-2,2.7E-3,2.5E-1,-2.428563E-2,6.45198E-1,-3.051734E-2,-0E0,1.6595017E-2,5.66115E-2,-4.208479E-3,5.5E-6,4.9759246E-2,5.001635E-1,-1.4905306E-2,2.3647195E-2,3.8839858E-2,1.662978E-1,-2.7726835E-2,-0E0,-0E0,-2.715984E-2,-2.540368E-3,2.8865656E-1,-1.7781343E-2,2.5052986E-1,3.4234606E-2,-2.0783445E-2,-0E0,-1.9853495E-2,2.3865622E-2,-1.8339848E-2,3.294181E-2,-0E0],"split_indices":[9,13,2,3,7,15,1,2,0,0,4,0,0,1,2,7,9,0,1,0,0,0,3,0,0,0,0,7,3,0,11,0,0,0,0,0,0,0,0],"split_type":[0,0,0,0,0,0,0,0,0,0,0,0,0,0,0,0,0,0,0,0,0,0,0,0,0,0,0,0,0,0,0,0,0,0,0,0,0,0,0],"sum_hessian":[7.260478E1,4.4866096E1,2.773868E1,3.923404E1,5.63206E0,1.5534034E1,1.2204647E1,2.7088957E1,1.21450815E1,3.3173394E0,2.3147204E0,1.4254191E1,1.2798425E0,5.067946E0,7.136701E0,4.3919835E0,2.2696974E1,5.339009E0,6.806073E0,1.0995712E0,1.2151492E0,1.9290895E0,3.1388562E0,5.8790994E0,1.2576016E0,1.2888598E0,3.1031234E0,2.8878586E0,1.9809114E1,1.2531785E0,5.5528946E0,1.4483738E0,1.6904825E0,1.2538538E0,1.6340048E0,1.8525349E1,1.2837662E0,4.2262387E0,1.3266557E0],"tree_param":{"num_deleted":"0","num_feature":"16","num_nodes":"39","size_leaf_vector":"1"}},{"base_weights":[-0E0,7.994274E-1,-2.9742101E-2,4.273606E-1,5.1721193E-2,4.8727326E-2,-2.4899451E-2],"categories":[],"categories_nodes":[],"categories_segments":[],"categories_sizes":[],"default_left":[0,0,0,0,0,0,0],"id":29,"left_children":[1,3,-1,5,-1,-1,-1],"loss_changes":[3.1306667E1,1.8680115E0,0E0,6.985475E0,0E0,0E0,0E0],"parents":[2147483647,0,0,1,1,3,3],"right_children":[2,4,-1,6,-1,-1,-1],"split_conditions":[4.7E-3,4.269427E-1,-2.9742101E-2,2.5E-1,5.1721193E-2,4.8727326E-2,-2.4899451E-2],"split_indices":[4,1,0,0,0,0,0],"split_type":[0,0,0,0,0,0,0],"sum_hessian":[6.383066E1,2.7092632E1,3.673803E1,1.1743469E1,1.5349162E1,7.4141626E0,4.3293066E0],"tree_param":{"num_deleted":"0","num_feature":"16","num_nodes":"7","size_leaf_vector":"1"}},{"base_weights":[5.330867E-2,1.9962417E-1,-5.4224145E-1,-5.0994855E-1,2.9152325E-1,-3.298841E-2,-1.1080548E-1,-2.9606858E-2,-1.9900554E-3,2.2004049E-1,6.4378893E-1,1.3906971E-2,-2.5366062E-2,2.7891356E-1,-3.2715112E-1,3.8893294E-2,2.3745784E-1,-9.902116E-2,3.7442496E-1,8.856873E-3,-2.9572183E-2,-5.972789E-3,2.6842644E-2,1.7389191E-2,-1.9838698E-2,-1.6619574E-2,2.174387E-2],"categories":[],"categories_nodes":[],"categories_segments":[],"categories_sizes":[],"default_left":[0,0,0,0,0,0,0,0,0,0,0,0,0,0,0,0,0,0,0,0,0,0,0,0,0,0,0],"id":30,"left_children":[1,3,5,7,9,-1,11,-1,-1,13,15,-1,-1,17,19,-1,21,23,25,-1,-1,-1,-1,-1,-1,-1,-1],"loss_changes":[7.2612214E0,4.5009937E0,6.8148947E-1,2.1967769E-1,1.2865582E0,0E0,9.190105E-1,0E0,0E0,1.7537804E0,2.2539306E-1,0E0,0E0,1.7768638E0,8.5563433E-1,0E0,5.2843696E-1,1.4930755E0,1.7906942E0,0E0,0E0,0E0,0E0,0E0,0E0,0E0,0E0],"parents":[2147483647,0,0,1,1,2,2,3,3,4,4,6,6,9,9,10,10,13,13,14,14,16,16,17,17,18,18],"right_children":[2,4,6,8,10,-1,12,-1,-1,14,16,-1,-1,18,20,-1,22,24,26,-1,-1,-1,-1,-1,-1,-1,-1],"split_conditions":[9.615799E-1,1.6595017E-2,1.4495494E-2,2.5E-1,1.02E-2,-3.298841E-2,2.5526399E-2,-2.9606858E-2,-1.9900554E-3,2.824E-3,-3.6852292E-5,1.3906971E-2,-2.5366062E-2,3.66E-3,8.900549E-1,3.8893294E-2,1.349E-3,1.06E-3,2.5E-6,8.856873E-3,-2.9572183E-2,-5.972789E-3,2.6842644E-2,1.7389191E-2,-1.9838698E-2,-1.6619574E-2,2.174387E-2],"split_indices":[1,1,15,0,9,0,15,0,0,14,7,0,0,2,6,0,12,2,12,0,0,0,0,0,0,0,0],"split_type":[0,0,0,0,0,0,0,0,0,0,0,0,0,0,0,0,0,0,0,0,0,0,0,0,0,0,0],"sum_hessian":[8.14809E1,6.607921E1,1.5401702E1,6.930461E0,5.9148743E1,1.1506274E1,3.8954272E0,5.4972854E0,1.4331756E0,5.0757423E1,8.391321E0,1.9898827E0,1.9055445E0,4.6434505E1,4.3229156E0,5.4368553E0,2.9544659E0,9.14891E0,3.72856E1,1.4698117E0,2.8531039E0,1.4695704E0,1.4848955E0,3.4571962E0,5.6917133E0,2.4529412E0,3.4832657E1],"tree_param":{"num_deleted":"0","num_feature":"16","num_nodes":"27","size_leaf_vector":"1"}},{"base_weights":[2.3307873E-2,2.1831118E-1,-3.1015536E-1,2.950199E-1,-2.707211E-1,-5.6014305E-1,8.81088E-2,2.1257359E-1,7.322974E-1,9.5922565E-3,-2.5411114E-2,-3.0531278E-2,-0E0,6.6200316E-1,-2.6678277E-2,-1.0769028E-1,3.5302866E-1,4.569778E-2,-0E0,4.647163E-2,2.9651965E-3,3.889231E-2,-3.639608E-1,-1.8845446E-2,4.1741124E-1,-3.0258233E-2,5.0466196E-3,3.8393732E-2,1.4171426E-2],"categories":[],"categories_nodes":[],"categories_segments":[],"categories_sizes":[],"default_left":[0,0,0,0,0,0,0,0,0,0,0,0,0,0,0,0,0,0,0,0,0,0,0,0,0,0,0,0,0],"id":31,"left_children":[1,3,5,7,9,11,13,15,17,-1,-1,-1,-1,19,-1,21,23,-1,-1,-1,-1,-1,25,-1,27,-1,-1,-1,-1],"loss_changes":[5.00332E0,1.9114065E0,2.9125E0,1.2929873E0,8.933218E-1,4.8043728E-1,4.5106936E0,1.7545584E0,7.756469E-1,0E0,0E0,0E0,0E0,9.0504E-1,0E0,2.9686863E0,1.4113653E0,0E0,0E0,0E0,0E0,0E0,1.2427392E0,0E0,8.531389E-1,0E0,0E0,0E0,0E0],"parents":[2147483647,0,0,1,1,2,2,3,3,4,4,5,5,6,6,7,7,8,8,13,13,15,15,16,16,22,22,24,24],"right_children":[2,4,6,8,10,12,14,16,18,-1,-1,-1,-1,20,-1,22,24,-1,-1,-1,-1,-1,26,-1,28,-1,-1,-1,-1],"split_conditions":[1.02E-2,3.14876E-1,8.338E-3,2.806E-3,-6.7651665E-1,1.4680485E-2,5.6772027E-2,5.001715E-1,9E-4,9.5922565E-3,-2.5411114E-2,-3.0531278E-2,-0E0,1.349E-3,-2.6678277E-2,5.1965E-3,1.12302534E-1,4.569778E-2,-0E0,4.647163E-2,2.9651965E-3,3.889231E-2,1.8033278E-3,-1.8845446E-2,5.0529903E-1,-3.0258233E-2,5.0466196E-3,3.8393732E-2,1.4171426E-2],"split_indices":[9,13,2,14,8,7,1,1,9,0,0,0,0,12,0,4,11,0,0,0,0,0,7,0,1,0,0,0,0],"split_type":[0,0,0,0,0,0,0,0,0,0,0,0,0,0,0,0,0,0,0,0,0,0,0,0,0,0,0,0,0],"sum_hessian":[7.504283E1,4.7759274E1,2.728356E1,4.18033E1,5.9559784E0,1.6666649E1,1.0616911E1,3.6614624E1,5.188673E0,1.9429672E0,4.013011E0,1.5154778E1,1.511871E0,5.570514E0,5.046397E0,1.1016422E1,2.5598202E1,3.9016037E0,1.2870693E0,3.3680208E0,2.2024937E0,1.9281794E0,9.088243E0,1.5554838E0,2.4042719E1,5.926651E0,3.161592E0,5.1345587E0,1.890816E1],"tree_param":{"num_deleted":"0","num_feature":"16","num_nodes":"29","size_leaf_vector":"1"}},{"base_weights":[1.1677357E-3,7.2484934E-1,-2.9378964E-2,4.9491E-2,3.0477276E-1,-2.5286913E-2,4.568573E-2],"categories":[],"categories_nodes":[],"categories_segments":[],"categories_sizes":[],"default_left":[0,0,0,0,0,0,0],"id":32,"left_children":[1,3,-1,-1,5,-1,-1],"loss_changes":[2.6331188E1,2.661502E0,0E0,0E0,6.592205E0,0E0,0E0],"parents":[2147483647,0,0,1,1,4,4],"right_children":[2,4,-1,-1,6,-1,-1],"split_conditions":[4.7E-3,2.5E-1,-2.9378964E-2,4.9491E-2,4.269427E-1,-2.5286913E-2,4.568573E-2],"split_indices":[4,0,0,0,1,0,0],"split_type":[0,0,0,0,0,0,0],"sum_hessian":[5.976897E1,2.6784466E1,3.2984505E1,1.5446795E1,1.133767E1,4.86609E0,6.4715805E0],"tree_param":{"num_deleted":"0","num_feature":"16","num_nodes":"7","size_leaf_vector":"1"}},{"base_weights":[-0E0,-4.3706778E-1,2.3026855E-1,-1.6981027E-1,-3.3473905E-2,1.4783551E-1,5.694115E-1,-5.338601E-1,3.2158655E-1,2.1017823E-1,-4.579408E-1,6.2878764E-1,4.464667E-3,-3.0297294E-2,-2.4011156E-3,-2.1481363E-2,3.0582372E-2,3.424858E-1,-3.4692083E-2,-5.22406E-3,-2.8241027E-2,4.5407284E-3,3.5544474E-2,1.6467547E-1,6.6556716E-1,-2.2749762E-1,2.408953E-2,-7.3070116E-3,2.6680572E-2,4.1675102E-2,-5.258702E-3,-2.2018505E-2,1.4928037E-2],"categories":[],"categories_nodes":[],"categories_segments":[],"categories_sizes":[],"default_left":[0,0,0,0,0,0,0,0,0,0,0,0,0,0,0,0,0,0,0,0,0,0,0,0,0,0,0,0,0,0,0,0,0],"id":33,"left_children":[1,3,5,7,-1,9,11,13,15,17,19,21,-1,-1,-1,-1,-1,23,25,-1,-1,-1,-1,27,29,31,-1,-1,-1,-1,-1,-1,-1],"loss_changes":[8.453752E0,1.6006675E0,1.3853385E0,2.877415E0,0E0,1.8063508E0,1.6259265E-1,2.2465587E-1,1.7830212E0,1.4191461E0,4.2220652E-2,2.4039268E-1,0E0,0E0,0E0,0E0,0E0,1.4124506E0,1.6323014E0,0E0,0E0,0E0,0E0,2.3585594E0,1.3758788E0,1.5052137E0,0E0,0E0,0E0,0E0,0E0,0E0,0E0],"parents":[2147483647,0,0,1,1,2,2,3,3,5,5,6,6,7,7,8,8,9,9,10,10,11,11,17,17,18,18,23,23,24,24,25,25],"right_children":[2,4,6,8,-1,10,12,14,16,18,20,22,-1,-1,-1,-1,-1,24,26,-1,-1,-1,-1,28,30,32,-1,-1,-1,-1,-1,-1,-1],"split_conditions":[5.185E-3,4.3414342E-1,6.3129E-2,1.6595017E-2,-3.3473905E-2,3.137725E-1,5.328533E-1,9.9999E-1,1.1239592E-1,2.5489318E-4,7.017942E-1,-8.6930853E-1,4.464667E-3,-3.0297294E-2,-2.4011156E-3,-2.1481363E-2,3.0582372E-2,-1.0595747E-3,2.723E-3,-5.22406E-3,-2.8241027E-2,4.5407284E-3,3.5544474E-2,9E-4,9.615685E-1,9.999912E-1,2.408953E-2,-7.3070116E-3,2.6680572E-2,4.1675102E-2,-5.258702E-3,-2.2018505E-2,1.4928037E-2],"split_indices":[4,1,12,1,0,13,1,6,11,7,6,8,0,0,0,0,0,7,13,0,0,0,0,9,1,6,0,0,0,0,0,0,0],"split_type":[0,0,0,0,0,0,0,0,0,0,0,0,0,0,0,0,0,0,0,0,0,0,0,0,0,0,0,0,0,0,0,0,0],"sum_hessian":[8.208141E1,2.7951572E1,5.4129845E1,1.4006213E1,1.3945359E1,4.4937885E1,9.191957E0,8.112891E0,5.893322E0,4.1486477E1,3.4514081E0,7.719372E0,1.472586E0,6.670162E0,1.4427288E0,1.4115927E0,4.4817295E0,2.6940052E1,1.4546427E1,1.4777068E0,1.9737015E0,1.4622282E0,6.2571435E0,1.855009E1,8.389961E0,1.1140694E1,3.4057333E0,1.024873E1,8.301361E0,6.9286184E0,1.4613426E0,8.182556E0,2.9581373E0],"tree_param":{"num_deleted":"0","num_feature":"16","num_nodes":"33","size_leaf_vector":"1"}},{"base_weights":[4.210788E-2,1.7212704E-1,-2.9290838E-2,-2.6433686E-2,2.4647659E-1,3.0912083E-1,-3.5641015E-1,1.8600251E-1,5.077013E-1,-2.4644269E-2,2.840405E-3,8.045447E-2,6.952271E-1,6.026035E-1,-7.5796917E-3,-1.3036554E-2,1.5286103E-2,-0E0,4.4631723E-2,4.9264897E-2,1.8370945E-2],"categories":[],"categories_nodes":[],"categories_segments":[],"categories_sizes":[],"default_left":[0,0,0,0,0,0,0,0,0,0,0,0,0,0,0,0,0,0,0,0,0],"id":34,"left_children":[1,3,-1,-1,5,7,9,11,13,-1,-1,15,17,19,-1,-1,-1,-1,-1,-1,-1],"loss_changes":[6.196746E0,3.3941555E0,0E0,0E0,2.2934313E0,1.136044E0,3.9684796E-1,1.7319537E0,1.3539267E0,0E0,0E0,2.3932083E0,7.711718E-1,1.0636816E0,0E0,0E0,0E0,0E0,0E0,0E0,0E0],"parents":[2147483647,0,0,1,1,4,4,5,5,6,6,7,7,8,8,11,11,12,12,13,13],"right_children":[2,4,-1,-1,6,8,10,12,14,-1,-1,16,18,20,-1,-1,-1,-1,-1,-1,-1],"split_conditions":[9.6171963E-1,8.338016E-3,-2.9290838E-2,-2.6433686E-2,3.1624E-1,2.5489318E-4,3.327967E-1,2.824E-3,2.787E-3,-2.4644269E-2,2.840405E-3,1.7021088E-1,1.6583364E-1,4.99575E-1,-7.5796917E-3,-1.3036554E-2,1.5286103E-2,-0E0,4.4631723E-2,4.9264897E-2,1.8370945E-2],"split_indices":[1,1,0,0,13,7,7,14,14,0,0,11,3,1,0,0,0,0,0,0,0],"split_type":[0,0,0,0,0,0,0,0,0,0,0,0,0,0,0,0,0,0,0,0,0],"sum_hessian":[7.417286E1,6.21824E1,1.199046E1,5.249188E0,5.6933212E1,5.216593E1,4.7672796E0,3.3707676E1,1.8458258E1,3.620672E0,1.1466078E0,2.9042372E1,4.6653023E0,1.6343378E1,2.114881E0,1.1310453E1,1.7731918E1,1.2608601E0,3.404442E0,4.8449574E0,1.1498421E1],"tree_param":{"num_deleted":"0","num_feature":"16","num_nodes":"21","size_leaf_vector":"1"}},{"base_weights":[-5.3854223E-2,-2.9217554E-2,6.673591E-1,4.7030985E-2,2.6499835E-1,4.352696E-2,-2.4973309E-2],"categories":[],"categories_nodes":[],"categories_segments":[],"categories_sizes":[],"default_left":[0,0,0,0,0,0,0],"id":35,"left_children":[1,-1,3,-1,5,-1,-1],"loss_changes":[2.2819244E1,0E0,2.4054766E0,0E0,5.910893E0,0E0,0E0],"parents":[2147483647,0,0,2,2,4,4],"right_children":[2,-1,4,-1,6,-1,-1],"split_conditions":[1E0,-2.9217554E-2,9.999935E-1,4.7030985E-2,2.5E-1,4.352696E-2,-2.4973309E-2],"split_indices":[9,0,5,0,0,0,0],"split_type":[0,0,0,0,0,0,0],"sum_hessian":[5.764477E1,3.3403133E1,2.424164E1,1.3492211E1,1.0749428E1,5.9937587E0,4.7556696E0],"tree_param":{"num_deleted":"0","num_feature":"16","num_nodes":"7","size_leaf_vector":"1"}},{"base_weights":[6.7561166E-4,-4.8726812E-1,2.655962E-1,-2.740356E-1,-3.288698E-2,3.2523924E-1,-1.8946119E-1,-5.346329E-1,1.3938962E-1,4.4861174E-1,1.0055664E-1,-3.0402625E-2,2.5909124E-2,-3.0185422E-2,-2.4644712E-3,-2.419181E-2,2.6438588E-2,-1.8803607E-1,5.273528E-1,2.8227302E-1,-2.81622E-1,6.92619E-3,-2.3922265E-2,6.392976E-1,1.5292224E-1,-1.284039E-1,5.887506E-1,7.2377645E-3,-3.0699888E-2,3.3560485E-2,4.402563E-3,3.0449776E-2,-7.5161518E-3,-2.7121231E-2,1.1509854E-2,3.914519E-2,-0E0],"categories":[],"categories_nodes":[],"categories_segments":[],"categories_sizes":[],"default_left":[0,0,0,0,0,0,0,0,0,0,0,0,0,0,0,0,0,0,0,0,0,0,0,0,0,0,0,0,0,0,0,0,0,0,0,0,0],"id":36,"left_children":[1,3,5,7,-1,9,11,13,15,17,19,-1,-1,-1,-1,-1,-1,21,23,25,27,-1,-1,29,31,33,35,-1,-1,-1,-1,-1,-1,-1,-1,-1,-1],"loss_changes":[1.0612372E1,7.740617E-1,1.5259032E0,1.7061249E0,0E0,1.2255058E0,2.2883883E0,2.2072482E-1,1.8032993E0,1.6516862E0,1.3661801E0,0E0,0E0,0E0,0E0,0E0,0E0,4.731288E-1,9.698777E-1,1.7871763E0,1.0276881E0,0E0,0E0,2.26367E-1,1.2185926E0,1.0968783E0,9.0064335E-1,0E0,0E0,0E0,0E0,0E0,0E0,0E0,0E0,0E0,0E0],"parents":[2147483647,0,0,1,1,2,2,3,3,5,5,6,6,7,7,8,8,9,9,10,10,17,17,18,18,19,19,20,20,23,23,24,24,25,25,26,26],"right_children":[2,4,6,8,-1,10,12,14,16,18,20,-1,-1,-1,-1,-1,-1,22,24,26,28,-1,-1,30,32,34,36,-1,-1,-1,-1,-1,-1,-1,-1,-1,-1],"split_conditions":[5.185E-3,4.269427E-1,2.824E-3,1.6595017E-2,-3.288698E-2,1.0987961E-4,5.12E-3,9.9999E-1,1.662978E-1,-3.9762515E-1,5.316653E-1,-3.0402625E-2,2.5909124E-2,-3.0185422E-2,-2.4644712E-3,-2.419181E-2,2.6438588E-2,1.7432387E-1,9.9994135E-1,2.2496511E-1,2.5603238E-2,6.92619E-3,-2.3922265E-2,2.8401998E-1,2E-5,5.28E-3,3.3328015E-1,7.2377645E-3,-3.0699888E-2,3.3560485E-2,4.402563E-3,3.0449776E-2,-7.5161518E-3,-2.7121231E-2,1.1509854E-2,3.914519E-2,-0E0],"split_indices":[4,1,14,1,0,7,9,6,3,7,1,0,0,0,0,0,0,11,6,10,15,0,0,11,9,4,15,0,0,0,0,0,0,0,0,0,0],"split_type":[0,0,0,0,0,0,0,0,0,0,0,0,0,0,0,0,0,0,0,0,0,0,0,0,0,0,0,0,0,0,0,0,0,0,0,0,0],"sum_hessian":[8.0267265E1,2.781657E1,5.245069E1,1.3777384E1,1.40391865E1,4.681926E1,5.631431E0,8.419169E0,5.358214E0,2.9292904E1,1.7526356E1,3.715599E0,1.915832E0,6.9763556E0,1.442814E0,1.8683823E0,3.4898314E0,2.9316356E0,2.6361269E1,1.2232959E1,5.293398E0,1.464027E0,1.4676087E0,1.9543747E1,6.8175216E0,5.3366475E0,6.896311E0,2.4342806E0,2.8591175E0,1.8097065E1,1.4466817E0,2.4517128E0,4.365809E0,2.368434E0,2.9682136E0,4.934888E0,1.9614232E0],"tree_param":{"num_deleted":"0","num_feature":"16","num_nodes":"37","size_leaf_vector":"1"}},{"base_weights":[4.343501E-2,-2.8402647E-2,1.5118918E-1,-2.606268E-2,2.2711015E-1,2.945964E-1,-3.6435142E-1,-1.2268755E-1,3.6316192E-1,-2.480088E-2,2.9710878E-3,-2.6315967E-2,3.3480206E-1,5.6922525E-1,1.5949585E-1,-2.3266198E-3,3.247856E-2,4.627405E-2,1.5655518E-2,2.3934215E-2,-1.1858229E-3],"categories":[],"categories_nodes":[],"categories_segments":[],"categories_sizes":[],"default_left":[0,0,0,0,0,0,0,0,0,0,0,0,0,0,0,0,0,0,0,0,0],"id":37,"left_children":[1,-1,3,-1,5,7,9,11,13,-1,-1,-1,15,17,19,-1,-1,-1,-1,-1,-1],"loss_changes":[4.7240634E0,0E0,3.2191586E0,0E0,2.3325617E0,1.52493E0,4.091794E-1,1.6218386E0,1.6903E0,0E0,0E0,0E0,5.8458173E-1,1.5321221E0,1.4515972E0,0E0,0E0,0E0,0E0,0E0,0E0],"parents":[2147483647,0,0,2,2,4,4,5,5,6,6,7,7,8,8,12,12,13,13,14,14],"right_children":[2,-1,4,-1,6,8,10,12,14,-1,-1,-1,16,18,20,-1,-1,-1,-1,-1,-1],"split_conditions":[1.9363683E-2,-2.8402647E-2,8.254017E-3,-2.606268E-2,3.1624E-1,1.1231315E-1,3.327967E-1,5.0228965E-1,4.93991E-1,-2.480088E-2,2.9710878E-3,-2.6315967E-2,6.66818E-1,7.54025E-2,5.185E-3,-2.3266198E-3,3.247856E-2,4.627405E-2,1.5655518E-2,2.3934215E-2,-1.1858229E-3],"split_indices":[5,0,1,0,13,11,7,5,5,0,0,0,4,4,4,0,0,0,0,0,0],"split_type":[0,0,0,0,0,0,0,0,0,0,0,0,0,0,0,0,0,0,0,0,0],"sum_hessian":[7.002504E1,9.711877E0,6.0313164E1,5.3900275E0,5.4923134E1,4.9900444E1,5.022691E0,6.7249794E0,4.3175465E1,3.8820386E0,1.140652E0,3.60899E0,3.1159892E0,2.0325165E1,2.28503E1,1.6506939E0,1.4652953E0,7.244324E0,1.3080841E1,7.943825E0,1.4906474E1],"tree_param":{"num_deleted":"0","num_feature":"16","num_nodes":"21","size_leaf_vector":"1"}},{"base_weights":[-1.5139522E-2,6.872856E-1,-2.9013371E-2,4.4430286E-2,2.395997E-1,4.061142E-2,-2.3787599E-2],"categories":[],"categories_nodes":[],"categories_segments":[],"categories_sizes":[],"default_left":[0,0,0,0,0,0,0],"id":38,"left_children":[1,3,-1,-1,5,-1,-1],"loss_changes":[2.4373564E1,2.136385E0,0E0,0E0,4.515235E0,0E0,0E0],"parents":[2147483647,0,0,1,1,4,4],"right_children":[2,4,-1,-1,6,-1,-1],"split_conditions":[4.375112E-3,9.99995E-1,-2.9013371E-2,4.4430286E-2,4.1200826E-3,4.061142E-2,-2.3787599E-2],"split_indices":[15,5,0,0,1,0,0],"split_type":[0,0,0,0,0,0,0],"sum_hessian":[5.942285E1,2.6317917E1,3.3104935E1,1.7320702E1,8.997215E0,4.99953E0,3.9976852E0],"tree_param":{"num_deleted":"0","num_feature":"16","num_nodes":"7","size_leaf_vector":"1"}},{"base_weights":[1.0062646E-2,-4.807246E-1,3.0873632E-1,-5.65829E-1,-1.2470638E-1,5.563258E-1,1.6657299E-1,-1.2267859E-1,-3.1352956E-2,1.9197407E-1,-2.3752969E-2,6.191366E-1,1.1617821E-3,3.4226018E-1,-2.9014564E-1,1.4497465E-2,-2.3511168E-2,-1.7812347E-2,2.8750474E-2,4.6463404E-3,6.6172117E-1,-1.5469754E-1,5.0126445E-1,9.270025E-3,-4.5649862E-1,6.3752853E-3,7.094528E-1,2.3933379E-2,-4.6829182E-1,3.9454363E-2,2.4526425E-1,1.03827035E-2,-3.3950392E-2,7.3507032E-3,3.8256627E-2,-4.621696E-3,-2.8455986E-2,1.8963674E-2,-1.1290553E-2],"categories":[],"categories_nodes":[],"categories_segments":[],"categories_sizes":[],"default_left":[0,0,0,0,0,0,0,0,0,0,0,0,0,0,0,0,0,0,0,0,0,0,0,0,0,0,0,0,0,0,0,0,0,0,0,0,0,0,0],"id":39,"left_children":[1,3,5,7,9,11,13,15,-1,17,-1,19,-1,21,23,-1,-1,-1,-1,-1,25,27,29,-1,31,-1,33,-1,35,-1,37,-1,-1,-1,-1,-1,-1,-1,-1],"loss_changes":[1.1019507E1,7.198458E-1,1.486301E0,4.554782E-1,8.9416206E-1,4.7144222E-1,2.6309E0,7.507776E-1,0E0,1.1148698E0,0E0,1.8772888E-1,0E0,1.9577153E0,8.340049E-1,0E0,0E0,0E0,0E0,0E0,1.5899992E-1,1.4690716E0,1.0353932E0,0E0,1.2534071E0,0E0,1.5965986E-1,0E0,6.340027E-2,0E0,8.0835485E-1,0E0,0E0,0E0,0E0,0E0,0E0,0E0,0E0],"parents":[2147483647,0,0,1,1,2,2,3,3,4,4,5,5,6,6,7,7,9,9,11,11,13,13,14,14,20,20,21,21,22,22,24,24,26,26,28,28,30,30],"right_children":[2,4,6,8,10,12,14,16,-1,18,-1,20,-1,22,24,-1,-1,-1,-1,-1,26,28,30,-1,32,-1,34,-1,36,-1,38,-1,-1,-1,-1,-1,-1,-1,-1],"split_conditions":[5.1965E-3,1.383E-3,-3.0226023E-3,1.7E-5,4.3414342E-1,6.608E-1,2.8867474E-1,9.999953E-1,-3.1352956E-2,2.2465234E-1,-2.3752969E-2,2.2502433E-1,1.1617821E-3,-9.441723E-4,7.259375E-1,1.4497465E-2,-2.3511168E-2,-1.7812347E-2,2.8750474E-2,4.6463404E-3,-3.9762515E-1,1.661517E-1,8.42E-3,9.270025E-3,5.6E-3,6.3752853E-3,2.5295729E-2,2.3933379E-2,1.6628389E-1,3.9454363E-2,4.9967748E-1,1.03827035E-2,-3.3950392E-2,7.3507032E-3,3.8256627E-2,-4.621696E-3,-2.8455986E-2,1.8963674E-2,-1.1290553E-2],"split_indices":[4,12,7,13,1,4,3,6,0,10,0,10,0,7,6,0,0,0,0,0,7,3,2,0,4,0,5,0,3,0,10,0,0,0,0,0,0,0,0],"split_type":[0,0,0,0,0,0,0,0,0,0,0,0,0,0,0,0,0,0,0,0,0,0,0,0,0,0,0,0,0,0,0,0,0,0,0,0,0,0,0],"sum_hessian":[7.327958E1,2.7366306E1,4.5913273E1,2.1384289E1,5.9820175E0,1.5427783E1,3.0485489E1,3.1588676E0,1.8225422E1,3.229518E0,2.7524993E0,1.348941E1,1.9383724E0,2.2355501E1,8.129988E0,1.3884258E0,1.7704418E0,1.2497183E0,1.9797997E0,1.423981E0,1.206543E1,5.27306E0,1.7082441E1,1.9214861E0,6.2085013E0,1.462573E0,1.0602857E1,1.4663017E0,3.8067584E0,6.877277E0,1.0205164E1,1.4620049E0,4.7464967E0,1.4448011E0,9.158055E0,1.4204099E0,2.3863485E0,8.261991E0,1.9431739E0],"tree_param":{"num_deleted":"0","num_feature":"16","num_nodes":"39","size_leaf_vector":"1"}},{"base_weights":[-7.1295425E-2,1.2493999E-1,-3.737621E-1,2.134424E-1,-2.5426412E-2,-8.447195E-2,-5.110875E-1,1.3082616E-1,7.233574E-1,-2.5370786E-2,3.5809737E-1,-5.558418E-1,2.4062276E-3,-3.089419E-1,2.8214595E-1,4.4471074E-2,2.2095148E-3,4.8604774E-1,-0E0,-0E0,-3.016226E-2,-4.377679E-1,-0E0,3.7701064E-1,-3.0852664E-1,-0E0,3.5399746E-2,-2.484353E-3,-2.6874397E-2,-1.7531158E-2,1.7989019E-2,3.340703E-2,2.8584905E-3,-2.315051E-2,-0E0],"categories":[],"categories_nodes":[],"categories_segments":[],"categories_sizes":[],"default_left":[0,0,0,0,0,0,0,0,0,0,0,0,0,0,0,0,0,0,0,0,0,0,0,0,0,0,0,0,0,0,0,0,0,0,0],"id":40,"left_children":[1,3,5,7,-1,9,11,13,15,-1,17,19,-1,21,23,-1,-1,25,-1,-1,-1,27,29,31,33,-1,-1,-1,-1,-1,-1,-1,-1,-1,-1],"loss_changes":[4.2788277E0,2.5200438E0,1.0232515E0,1.4648347E0,0E0,2.1725075E0,5.4770994E-1,2.412992E0,4.3741417E-1,0E0,2.9088873E-1,4.1924524E-1,0E0,3.9346927E-1,1.620683E0,0E0,0E0,4.7945666E-1,0E0,0E0,0E0,1.7262411E-1,5.8053696E-1,2.088919E0,2.1173155E-1,0E0,0E0,0E0,0E0,0E0,0E0,0E0,0E0,0E0,0E0],"parents":[2147483647,0,0,1,1,2,2,3,3,5,5,6,6,7,7,8,8,10,10,11,11,13,13,14,14,17,17,21,21,22,22,23,23,24,24],"right_children":[2,4,6,8,-1,10,12,14,16,-1,18,20,-1,22,24,-1,-1,26,-1,-1,-1,28,30,32,34,-1,-1,-1,-1,-1,-1,-1,-1,-1,-1],"split_conditions":[1.02E-2,3.1624E-1,3.2577015E-2,3.137725E-1,-2.5426412E-2,2.5E-1,1.4680485E-2,8E-5,3.14876E-1,-2.5370786E-2,1.6638865E-3,3E-4,2.4062276E-3,9.758187E-5,3.2585E-2,4.4471074E-2,2.2095148E-3,-1.8330427E-3,-0E0,-0E0,-3.016226E-2,1.878852E-1,5.001715E-1,8E-4,9.61526E-1,-0E0,3.5399746E-2,-2.484353E-3,-2.6874397E-2,-1.7531158E-2,1.7989019E-2,3.340703E-2,2.8584905E-3,-2.315051E-2,-0E0],"split_indices":[9,13,1,13,0,0,7,9,13,0,7,2,0,7,2,0,0,7,0,0,0,15,1,9,1,0,0,0,0,0,0,0,0,0,0],"split_type":[0,0,0,0,0,0,0,0,0,0,0,0,0,0,0,0,0,0,0,0,0,0,0,0,0,0,0,0,0,0,0,0,0,0,0],"sum_hessian":[6.988318E1,4.2540142E1,2.7343033E1,3.8045666E1,4.4944754E0,9.555888E0,1.7787146E1,3.3991116E1,4.0545526E0,4.9269004E0,4.628988E0,1.6640259E1,1.1468863E0,8.265956E0,2.5725159E1,2.890883E0,1.1636697E0,3.2867615E0,1.3422263E0,1.5113668E0,1.5128892E1,5.667995E0,2.597961E0,2.262285E1,3.1023073E0,1.309901E0,1.9768606E0,1.6699842E0,3.9980106E0,1.2492344E0,1.3487265E0,1.1109224E1,1.1513626E1,1.8091666E0,1.2931408E0],"tree_param":{"num_deleted":"0","num_feature":"16","num_nodes":"35","size_leaf_vector":"1"}},{"base_weights":[3.7905127E-2,6.91748E-1,-2.8723938E-2,4.451863E-2,2.7628413E-1,4.0627368E-2,-2.3907162E-2],"categories":[],"categories_nodes":[],"categories_segments":[],"categories_sizes":[],"default_left":[0,0,0,0,0,0,0],"id":41,"left_children":[1,3,-1,-1,5,-1,-1],"loss_changes":[2.4494745E1,2.0820026E0,0E0,0E0,4.951021E0,0E0,0E0],"parents":[2147483647,0,0,1,1,4,4],"right_children":[2,4,-1,-1,6,-1,-1],"split_conditions":[4.375112E-3,9.99995E-1,-2.8723938E-2,4.451863E-2,2.5E-1,4.0627368E-2,-2.3907162E-2],"split_indices":[15,5,0,0,0,0,0],"split_type":[0,0,0,0,0,0,0],"sum_hessian":[5.9153473E1,2.8624626E1,3.0528849E1,1.8429903E1,1.0194722E1,5.991411E0,4.2033114E0],"tree_param":{"num_deleted":"0","num_feature":"16","num_nodes":"7","size_leaf_vector":"1"}},{"base_weights":[1.5001467E-2,-4.1584164E-1,2.1285783E-1,-3.164203E-2,-1.6765648E-1,8.343272E-2,4.6615812E-1,-2.787741E-2,1.4551955E-1,1.8676756E-1,-3.077977E-2,1.6142929E-2,3.531598E-2,-2.3618987E-2,4.141632E-1,-2.3176676E-2,2.318584E-1,4.79242E-1,-2.8105874E-2,-1.0109759E-3,3.5314344E-2,1.5737165E-2,4.615793E-1,4.686463E-3,2.9405138E-2,2.3622226E-2,-8.725521E-3,3.794044E-2,-0E0],"categories":[],"categories_nodes":[],"categories_segments":[],"categories_sizes":[],"default_left":[0,0,0,0,0,0,0,0,0,0,0,0,0,0,0,0,0,0,0,0,0,0,0,0,0,0,0,0,0],"id":42,"left_children":[1,3,5,-1,7,9,11,-1,13,15,-1,17,-1,-1,19,-1,21,23,-1,-1,-1,25,27,-1,-1,-1,-1,-1,-1],"loss_changes":[7.028607E0,1.2074189E0,1.7674494E0,0E0,1.7885712E0,2.8932097E0,1.9395814E0,0E0,1.5540069E0,1.1081736E0,0E0,2.318395E0,0E0,0E0,8.916501E-1,0E0,1.6063892E0,8.2410336E-2,0E0,0E0,0E0,1.7198101E0,2.1582832E0,0E0,0E0,0E0,0E0,0E0,0E0],"parents":[2147483647,0,0,1,1,2,2,4,4,5,5,6,6,8,8,9,9,11,11,14,14,16,16,17,17,21,21,22,22],"right_children":[2,4,6,-1,8,10,12,-1,14,16,-1,18,-1,-1,20,-1,22,24,-1,-1,-1,26,28,-1,-1,-1,-1,-1,-1],"split_conditions":[4.8043462E-3,9.999935E-1,9E-4,-3.164203E-2,2.5E-1,2.806E-3,1.69E-3,-2.787741E-2,1.662978E-1,-4.6520388E-1,-3.077977E-2,1.38E-3,3.531598E-2,-2.3618987E-2,-7.883929E-1,-2.3176676E-2,1.366E-3,2.882319E-1,-2.8105874E-2,-1.0109759E-3,3.5314344E-2,-7.8864604E-1,4.252414E-1,4.686463E-3,2.9405138E-2,2.3622226E-2,-8.725521E-3,3.794044E-2,-0E0],"split_indices":[15,5,9,0,0,14,2,0,3,7,0,2,0,0,8,0,12,3,0,0,0,8,10,0,0,0,0,0,0],"split_type":[0,0,0,0,0,0,0,0,0,0,0,0,0,0,0,0,0,0,0,0,0,0,0,0,0,0,0,0,0],"sum_hessian":[8.065155E1,2.4875854E1,5.5775692E1,1.2229915E1,1.264594E1,3.8055305E1,1.7720387E1,5.4276886E0,7.218251E0,3.3917305E1,4.138E0,6.6824307E0,1.1037955E1,1.8446951E0,5.373556E0,1.4537374E0,3.246357E1,3.901826E0,2.7806048E0,2.3972905E0,2.9762657E0,1.750175E1,1.4961817E1,1.4712477E0,2.4305782E0,4.8650513E0,1.26367E1,8.654611E0,6.3072057E0],"tree_param":{"num_deleted":"0","num_feature":"16","num_nodes":"29","size_leaf_vector":"1"}},{"base_weights":[-1.9700427E-2,1.9381064E-1,-3.3518228E-1,-2.4988858E-1,3.05227E-1,-5.000005E-1,-0E0,-2.4835056E-2,3.8559984E-2,6.082672E-2,7.660491E-1,-2.712214E-2,2.5580448E-4,-2.4046829E-2,3.325659E-1,-2.1092974E-2,2.7554175E-2,-1.054843E-1,5.453347E-1,1.0465195E-2,8.8397276E-1,4.552623E-1,-1.4883531E-3,2.6984656E-1,-4.4229153E-1,4.2244006E-2,-1.65918E-2,4.7706872E-2,1.32335E-2,3.6450338E-2,1.6548127E-3,-2.0044494E-2,2.4493778E-2,-2.9869983E-2,-4.692457E-3],"categories":[],"categories_nodes":[],"categories_segments":[],"categories_sizes":[],"default_left":[0,0,0,0,0,0,0,0,0,0,0,0,0,0,0,0,0,0,0,0,0,0,0,0,0,0,0,0,0,0,0,0,0,0,0],"id":43,"left_children":[1,3,5,7,9,11,13,-1,15,17,19,-1,-1,-1,21,-1,-1,23,25,-1,27,29,-1,31,33,-1,-1,-1,-1,-1,-1,-1,-1,-1,-1],"loss_changes":[4.6198564E0,2.0912328E0,1.5098896E0,6.720989E-1,3.6008058E0,4.5346594E-1,1.8060663E0,0E0,1.348225E0,1.9443318E0,4.4424057E-1,0E0,0E0,0E0,3.4910482E-1,0E0,0E0,2.3753724E0,1.9501934E0,0E0,9.06229E-3,4.9956727E-1,0E0,1.5123503E0,4.0734267E-1,0E0,0E0,0E0,0E0,0E0,0E0,0E0,0E0,0E0,0E0],"parents":[2147483647,0,0,1,1,2,2,3,3,4,4,5,5,6,6,8,8,9,9,10,10,14,14,17,17,18,18,20,20,21,21,23,23,24,24],"right_children":[2,4,6,8,10,12,14,-1,16,18,20,-1,-1,-1,22,-1,-1,24,26,-1,28,30,-1,32,34,-1,-1,-1,-1,-1,-1,-1,-1,-1,-1],"split_conditions":[1.002E-2,7.7486175E-1,9.999965E-1,4.5066532E-1,2.8864747E-1,2.3938905E-2,8.338016E-3,-2.4835056E-2,-7.88635E-1,2.806E-3,5.219E-3,-2.712214E-2,2.5580448E-4,-2.4046829E-2,2.886499E-1,-2.1092974E-2,2.7554175E-2,7.53485E-2,9E-4,1.0465195E-2,-7.877989E-1,-8.0852084E-2,-1.4883531E-3,2.2463207E-1,2.3058033E-1,4.2244006E-2,-1.65918E-2,4.7706872E-2,1.32335E-2,3.6450338E-2,1.6548127E-3,-2.0044494E-2,2.4493778E-2,-2.9869983E-2,-4.692457E-3],"split_indices":[9,6,5,10,3,15,1,0,8,14,4,0,0,0,3,0,0,4,9,0,8,8,0,10,15,0,0,0,0,0,0,0,0,0,0],"split_type":[0,0,0,0,0,0,0,0,0,0,0,0,0,0,0,0,0,0,0,0,0,0,0,0,0,0,0,0,0,0,0,0,0,0,0],"sum_hessian":[6.641142E1,3.9647545E1,2.676388E1,7.5280056E0,3.2119537E1,1.7516296E1,9.247584E0,3.8545487E0,3.6734571E0,2.1869755E1,1.0249783E1,1.6273037E1,1.24326E0,3.6568587E0,5.590725E0,1.9254954E0,1.7479618E0,1.670986E1,5.1598945E0,2.4247744E0,7.825008E0,4.1910343E0,1.3996909E0,7.8565702E0,8.853291E0,3.958813E0,1.2010816E0,6.3980026E0,1.4270054E0,1.9578264E0,2.233208E0,1.6253577E0,6.231212E0,5.433228E0,3.4200625E0],"tree_param":{"num_deleted":"0","num_feature":"16","num_nodes":"35","size_leaf_vector":"1"}},{"base_weights":[-2.9227661E-3,6.802291E-1,-2.848348E-2,7.69797E-1,-7.992819E-3,4.109537E-2,2.8822282E-1,-1.6011823E-2,1.4323113E-2,-4.5042028E-4,2.5109518E-2],"categories":[],"categories_nodes":[],"categories_segments":[],"categories_sizes":[],"default_left":[0,0,0,0,0,0,0,0,0,0,0],"id":44,"left_children":[1,3,-1,5,7,-1,9,-1,-1,-1,-1],"loss_changes":[2.1452929E1,1.6270494E0,0E0,2.1202183E-1,4.396093E-1,0E0,3.0225977E-1,0E0,0E0,0E0,0E0],"parents":[2147483647,0,0,1,1,3,3,4,4,6,6],"right_children":[2,4,-1,6,8,-1,10,-1,-1,-1,-1],"split_conditions":[4.7E-3,1E0,-2.848348E-2,2.8025E-3,-7.880391E-1,4.109537E-2,2.8355E-3,-1.6011823E-2,1.4323113E-2,-4.5042028E-4,2.5109518E-2],"split_indices":[4,5,0,14,8,0,14,0,0,0,0],"split_type":[0,0,0,0,0,0,0,0,0,0,0],"sum_hessian":[5.3436687E1,2.4059223E1,2.9377464E1,2.1312325E1,2.7468972E0,1.8406254E1,2.906072E0,1.4555106E0,1.2913865E0,1.4216859E0,1.484386E0],"tree_param":{"num_deleted":"0","num_feature":"16","num_nodes":"11","size_leaf_vector":"1"}},{"base_weights":[-6.877172E-3,-3.8173136E-1,1.8175626E-1,-8.114016E-2,-3.1580698E-2,2.4370964E-1,-2.2998059E-1,-4.68077E-1,3.8443628E-1,3.9711788E-1,1.0848549E-2,1.5709052E-2,-2.9707292E-2,-2.7508223E-2,-6.7841535E-4,2.7235687E-2,-3.1205867E-3,5.698689E-1,-0E0,2.6146386E-2,-8.4673665E-2,-6.7016757E-3,6.8832594E-1,4.1954288E-1,-4.58465E-1,-2.0528348E-1,2.6271088E-2,5.4405415E-3,3.646969E-2,-2.9780103E-3,3.1733524E-2,-2.9670795E-2,-1.6229608E-3,-1.7687665E-2,1.3505218E-2],"categories":[],"categories_nodes":[],"categories_segments":[],"categories_sizes":[],"default_left":[0,0,0,0,0,0,0,0,0,0,0,0,0,0,0,0,0,0,0,0,0,0,0,0,0,0,0,0,0,0,0,0,0,0,0],"id":45,"left_children":[1,3,5,7,-1,9,11,13,15,17,19,-1,-1,-1,-1,-1,-1,21,23,-1,25,-1,27,29,31,33,-1,-1,-1,-1,-1,-1,-1,-1,-1],"loss_changes":[5.4618206E0,1.82549E0,1.3594736E0,2.5485907E0,0E0,1.5647264E0,1.5977271E0,2.2431993E-1,5.390451E-1,1.8277316E0,1.0265126E0,0E0,0E0,0E0,0E0,0E0,0E0,1.705379E0,1.9605556E0,0E0,1.3167979E0,0E0,2.241497E-1,6.475491E-1,1.9644117E-1,1.1581657E0,0E0,0E0,0E0,0E0,0E0,0E0,0E0,0E0,0E0],"parents":[2147483647,0,0,1,1,2,2,3,3,5,5,6,6,7,7,8,8,9,9,10,10,17,17,18,18,20,20,22,22,23,23,24,24,25,25],"right_children":[2,4,6,8,-1,10,12,14,16,18,20,-1,-1,-1,-1,-1,-1,22,24,-1,26,-1,28,30,32,34,-1,-1,-1,-1,-1,-1,-1,-1,-1],"split_conditions":[5.185E-3,4.3414342E-1,2.806E-3,1.6587017E-2,-3.1580698E-2,1.0987961E-4,1.6580966E-1,2.5E-1,-7.686134E-2,9.999482E-1,7.155498E-1,1.5709052E-2,-2.9707292E-2,-2.7508223E-2,-6.7841535E-4,2.7235687E-2,-3.1205867E-3,-1.7681228E-1,-7.886272E-1,2.6146386E-2,-7.5467855E-2,-6.7016757E-3,5E-4,2.5E-1,-1.6615405E-3,9.999912E-1,2.6271088E-2,5.4405415E-3,3.646969E-2,-2.9780103E-3,3.1733524E-2,-2.9670795E-2,-1.6229608E-3,-1.7687665E-2,1.3505218E-2],"split_indices":[4,1,14,1,0,7,3,0,8,6,6,0,0,0,0,0,0,7,8,0,8,0,2,0,7,6,0,0,0,0,0,0,0,0,0],"split_type":[0,0,0,0,0,0,0,0,0,0,0,0,0,0,0,0,0,0,0,0,0,0,0,0,0,0,0,0,0,0,0,0,0,0,0],"sum_hessian":[7.497849E1,2.4934626E1,5.004387E1,1.210185E1,1.2832775E1,4.4064518E1,5.97935E0,6.723456E0,5.3783937E0,2.5880013E1,1.8184505E1,2.3421695E0,3.6371806E0,5.3302903E0,1.3931655E0,3.9620454E0,1.4163482E0,1.768135E1,8.198662E0,2.319973E0,1.5864533E1,2.4063725E0,1.5274979E1,4.357972E0,3.8406897E0,1.3936798E1,1.9277356E0,1.4134922E0,1.3861486E1,1.430486E0,2.927486E0,2.4400208E0,1.4006689E0,1.0975289E1,2.9615078E0],"tree_param":{"num_deleted":"0","num_feature":"16","num_nodes":"35","size_leaf_vector":"1"}},{"base_weights":[-2.9928463E-2,-2.7901659E-2,6.867832E-2,-2.0767559E-1,1.9450009E-1,3.2536794E-2,-4.151821E-1,-3.4817487E-1,2.6037225E-1,-2.4281403E-2,3.5745794E-1,-2.8293867E-2,1.08062E-2,-0E0,-2.3723995E-2,6.547393E-1,1.3255897E-1,-1.9883446E-1,3.713035E-2,-2.0846154E-3,8.301116E-1,2.3445185E-1,-3.7560156E-1,7.811385E-4,-1.7871784E-2,1.1675492E-2,4.61159E-2,2.1433787E-2,1.4694454E-3,-0E0,-2.4476958E-2],"categories":[],"categories_nodes":[],"categories_segments":[],"categories_sizes":[],"default_left":[0,0,0,0,0,0,0,0,0,0,0,0,0,0,0,0,0,0,0,0,0,0,0,0,0,0,0,0,0,0,0],"id":46,"left_children":[1,-1,3,5,7,9,11,13,15,-1,17,-1,-1,-1,-1,19,21,23,-1,-1,25,27,29,-1,-1,-1,-1,-1,-1,-1,-1],"loss_changes":[3.807382E0,0E0,2.157656E0,1.0136324E0,1.6058545E0,1.7850603E0,1.1703868E0,2.5085014E-1,1.787884E0,0E0,1.6212721E0,0E0,0E0,0E0,0E0,1.2175956E0,1.6642299E0,1.551556E-1,0E0,0E0,7.526255E-2,9.915956E-1,2.1316242E-1,0E0,0E0,0E0,0E0,0E0,0E0,0E0,0E0],"parents":[2147483647,0,0,2,2,3,3,4,4,5,5,6,6,7,7,8,8,10,10,15,15,16,16,17,17,20,20,21,21,22,22],"right_children":[2,-1,4,6,8,10,12,14,16,-1,18,-1,-1,-1,-1,20,22,24,-1,-1,26,28,30,-1,-1,-1,-1,-1,-1,-1,-1],"split_conditions":[1.9363683E-2,-2.7901659E-2,5E-2,2.62E-3,1.12302534E-1,-7.8976953E-1,3.08E-3,-5.3723617E-3,1.124871E-1,-2.4281403E-2,2E-4,-2.8293867E-2,1.08062E-2,-0E0,-2.3723995E-2,1.1E-5,-2.952684E-1,-7.877989E-1,3.713035E-2,-2.0846154E-3,-7.858988E-2,-3.8079222E-4,1.1250787E-1,7.811385E-4,-1.7871784E-2,1.1675492E-2,4.61159E-2,2.1433787E-2,1.4694454E-3,-0E0,-2.4476958E-2],"split_indices":[5,0,0,13,11,8,14,7,11,0,12,0,0,0,0,9,8,8,0,0,8,7,11,0,0,0,0,0,0,0,0],"split_type":[0,0,0,0,0,0,0,0,0,0,0,0,0,0,0,0,0,0,0,0,0,0,0,0,0,0,0,0,0,0,0],"sum_hessian":[7.043816E1,1.0509229E1,5.992894E1,1.8296759E1,4.163218E1,8.647538E0,9.6492195E0,3.878251E0,3.775393E1,3.023489E0,5.6240497E0,8.001316E0,1.6479031E0,1.1372328E0,2.7410183E0,8.040377E0,2.9713552E1,2.392514E0,3.2315354E0,1.6560366E0,6.3843403E0,2.5363293E1,4.3502593E0,1.1323535E0,1.2601606E0,1.4726788E0,4.9116616E0,1.22154255E1,1.3147868E1,1.3111852E0,3.039074E0],"tree_param":{"num_deleted":"0","num_feature":"16","num_nodes":"31","size_leaf_vector":"1"}},{"base_weights":[-3.2768606E-3,6.404278E-1,-2.8339779E-2,4.1720547E-2,2.6868248E-1,-1.4122821E-2,3.7724048E-1,1.40867075E-2,-1.6026402E-2,4.7012082E-1,-0E0,2.7833868E-2,-0E0],"categories":[],"categories_nodes":[],"categories_segments":[],"categories_sizes":[],"default_left":[0,0,0,0,0,0,0,0,0,0,0,0,0],"id":47,"left_children":[1,3,-1,-1,5,7,9,-1,-1,11,-1,-1,-1],"loss_changes":[2.0646246E1,1.576294E0,0E0,0E0,3.7128764E-1,4.2839897E-1,3.2882738E-1,0E0,0E0,2.3890662E-1,0E0,0E0,0E0],"parents":[2147483647,0,0,1,1,4,4,5,5,6,6,9,9],"right_children":[2,4,-1,-1,6,8,10,-1,-1,12,-1,-1,-1],"split_conditions":[4.7E-3,2.5E-1,-2.8339779E-2,4.1720547E-2,-7.8830564E-1,-7.885594E-1,1.383E-3,1.40867075E-2,-1.6026402E-2,1E0,-0E0,2.7833868E-2,-0E0],"split_indices":[4,0,0,0,8,8,12,0,0,0,0,0,0],"split_type":[0,0,0,0,0,0,0,0,0,0,0,0,0],"sum_hessian":[5.4937138E1,2.5497513E1,2.9439623E1,1.5760065E1,9.737449E0,2.6867957E0,7.0506525E0,1.24185E0,1.4449458E0,5.6716204E0,1.3790323E0,4.529147E0,1.1424736E0],"tree_param":{"num_deleted":"0","num_feature":"16","num_nodes":"13","size_leaf_vector":"1"}},{"base_weights":[-5.5118334E-2,-5.2926236E-1,1.603831E-1,-0E0,-5.5790913E-1,8.093975E-2,5.6510335E-1,-3.636981E-1,-3.2012798E-2,-1.06614055E-2,4.230984E-1,3.2683313E-2,1.749658E-3,-2.935082E-2,1.531672E-2,4.648162E-2,-2.7721478E-2,-6.2974314E-3,5.449215E-1,2.993023E-1,-9.186576E-2,3.3421736E-2,5.88081E-3,1.0520108E-3,3.5336636E-2,-3.2005366E-2,2.3624133E-3],"categories":[],"categories_nodes":[],"categories_segments":[],"categories_sizes":[],"default_left":[0,0,0,0,0,0,0,0,0,0,0,0,0,0,0,0,0,0,0,0,0,0,0,0,0,0,0],"id":48,"left_children":[1,3,5,-1,7,9,11,13,-1,15,17,-1,-1,-1,-1,19,-1,-1,21,23,25,-1,-1,-1,-1,-1,-1],"loss_changes":[7.94394E0,3.689232E-1,1.6019154E0,0E0,3.542614E-2,1.4840473E0,3.009572E-1,1.6355004E0,0E0,1.2245076E0,7.7579474E-1,0E0,0E0,0E0,0E0,1.2440012E0,0E0,0E0,2.901659E-1,1.3387682E0,1.8135959E0,0E0,0E0,0E0,0E0,0E0,0E0],"parents":[2147483647,0,0,1,1,2,2,4,4,5,5,6,6,7,7,9,9,10,10,15,15,18,18,19,19,20,20],"right_children":[2,4,6,-1,8,10,12,14,-1,16,18,-1,-1,-1,-1,20,-1,-1,22,24,26,-1,-1,-1,-1,-1,-1],"split_conditions":[4.8043462E-3,1.05E-5,3.14324E-1,-0E0,3.0365031E-2,-7.5467855E-2,4.7852728E-1,1.6595017E-2,-3.2012798E-2,2.806E-3,2.71E-3,3.2683313E-2,1.749658E-3,-2.935082E-2,1.531672E-2,5.001715E-1,-2.7721478E-2,-6.2974314E-3,2.804E-3,4.9964997E-1,5.0529903E-1,3.3421736E-2,5.88081E-3,1.0520108E-3,3.5336636E-2,-3.2005366E-2,2.3624133E-3],"split_indices":[15,13,13,0,1,8,5,1,0,14,13,0,0,0,0,1,0,0,14,1,1,0,0,0,0,0,0],"split_type":[0,0,0,0,0,0,0,0,0,0,0,0,0,0,0,0,0,0,0,0,0,0,0,0,0,0,0],"sum_hessian":[7.555378E1,2.32992E1,5.2254578E1,1.2460554E0,2.2053144E1,4.4890087E1,7.3644924E0,8.540894E0,1.3512251E1,3.5943924E1,8.946165E0,5.9489193E0,1.4155729E0,6.6107206E0,1.930173E0,3.318701E1,2.7569103E0,1.4693217E0,7.476843E0,1.1581675E1,2.1605337E1,5.1809535E0,2.2958891E0,7.652405E0,3.9292693E0,3.789323E0,1.7816015E1],"tree_param":{"num_deleted":"0","num_feature":"16","num_nodes":"27","size_leaf_vector":"1"}},{"base_weights":[-0E0,1.5559508E-1,-2.9679877E-1,6.806663E-1,6.578626E-2,-4.7430772E-1,-0E0,4.2233344E-2,-0E0,-3.380924E-2,3.5561614E-2,-0E0,-2.8600102E-2,-2.441232E-2,4.2242226E-1,-3.6886853E-1,1.1067157E-1,1.1887433E-2,-1.6498685E-2,8.435733E-2,3.593287E-2,-2.8445989E-2,-0E0,3.6192912E-1,-5.527619E-2,1.5005203E-2,-4.790836E-3,-2.111206E-2,2.0807799E-2,2.6943853E-2,-4.0853997E-3,-2.678415E-2,6.413139E-3],"categories":[],"categories_nodes":[],"categories_segments":[],"categories_sizes":[],"default_left":[0,0,0,0,0,0,0,0,0,0,0,0,0,0,0,0,0,0,0,0,0,0,0,0,0,0,0,0,0,0,0,0,0],"id":49,"left_children":[1,3,5,7,9,11,13,-1,-1,15,-1,17,-1,-1,19,21,23,-1,-1,25,-1,-1,27,29,31,-1,-1,-1,-1,-1,-1,-1,-1],"loss_changes":[3.3777437E0,2.1557517E0,1.3529952E0,7.635901E-1,2.8219354E0,6.821945E-1,2.3155055E0,0E0,0E0,1.8874965E0,0E0,3.8978982E-1,0E0,0E0,4.7030187E-1,8.4166074E-1,1.1698471E0,0E0,0E0,2.1015492E-1,0E0,0E0,1.0937597E0,9.5707715E-1,1.5901338E0,0E0,0E0,0E0,0E0,0E0,0E0,0E0,0E0],"parents":[2147483647,0,0,1,1,2,2,3,3,4,4,5,5,6,6,9,9,11,11,14,14,15,15,16,16,19,19,22,22,23,23,24,24],"right_children":[2,4,6,8,10,12,14,-1,-1,16,-1,18,-1,-1,20,22,24,-1,-1,26,-1,-1,28,30,32,-1,-1,-1,-1,-1,-1,-1,-1],"split_conditions":[5.12E-3,1.88E-3,9.9999547E-1,6.684E-1,2.806E-3,9.2E-4,8.338016E-3,4.2233344E-2,-0E0,2.5E-1,3.5561614E-2,9.995865E-1,-2.8600102E-2,-2.441232E-2,-3.6852292E-5,1.8033278E-3,7.534E-2,1.1887433E-2,-1.6498685E-2,2.998503E-2,3.593287E-2,-2.8445989E-2,4.252414E-1,4.99975E-1,5.001715E-1,1.5005203E-2,-4.790836E-3,-2.111206E-2,2.0807799E-2,2.6943853E-2,-4.0853997E-3,-2.678415E-2,6.413139E-3],"split_indices":[9,2,5,4,14,2,1,0,0,0,0,6,0,0,7,7,4,0,0,1,0,0,10,5,1,0,0,0,0,0,0,0,0],"split_type":[0,0,0,0,0,0,0,0,0,0,0,0,0,0,0,0,0,0,0,0,0,0,0,0,0,0,0,0,0,0,0,0,0],"sum_hessian":[7.133221E1,4.724781E1,2.40844E1,5.777408E0,4.14704E1,1.4836343E1,9.248056E0,4.471361E0,1.3060468E0,3.6613453E1,4.856949E0,2.8625066E0,1.1973837E1,4.1447344E0,5.103322E0,1.0771892E1,2.5841562E1,1.667256E0,1.1952505E0,3.1410618E0,1.9622602E0,6.5490265E0,4.222865E0,1.0048693E1,1.5792869E1,1.3790835E0,1.7619783E0,2.1454926E0,2.0773723E0,7.1911707E0,2.857522E0,3.9859626E0,1.1806907E1],"tree_param":{"num_deleted":"0","num_feature":"16","num_nodes":"33","size_leaf_vector":"1"}},{"base_weights":[-6.1314628E-2,5.220105E-1,-2.8183568E-2,4.016864E-2,1.164643E-1,-2.5019815E-2,3.621477E-2],"categories":[],"categories_nodes":[],"categories_segments":[],"categories_sizes":[],"default_left":[0,0,0,0,0,0,0],"id":50,"left_children":[1,3,-1,-1,5,-1,-1],"loss_changes":[1.610401E1,2.7109475E0,0E0,0E0,4.7764835E0,0E0,0E0],"parents":[2147483647,0,0,1,1,4,4],"right_children":[2,4,-1,-1,6,-1,-1],"split_conditions":[4.7E-3,2.5E-1,-2.8183568E-2,4.016864E-2,4.269427E-1,-2.5019815E-2,3.621477E-2],"split_indices":[4,0,0,0,1,0,0],"split_type":[0,0,0,0,0,0,0],"sum_hessian":[5.2937164E1,2.4384388E1,2.8552774E1,1.3671644E1,1.0712743E1,5.32295E0,5.3897924E0],"tree_param":{"num_deleted":"0","num_feature":"16","num_nodes":"7","size_leaf_vector":"1"}},{"base_weights":[-0E0,-4.983216E-1,2.4683076E-1,-5.503757E-1,4.9216906E-3,1.15520164E-1,4.8974416E-1,-3.180555E-2,-1.7032096E-1,2.0886059E-1,-2.8320763E-2,6.613648E-1,1.2003286E-1,1.8047724E-2,-2.6333932E-2,3.1319758E-1,-2.7158323E-1,5.9202877E-3,3.5581518E-2,3.0555243E-2,-2.4006923E-1,-8.776731E-2,3.8506174E-1,-3.0206725E-2,1.3391669E-2,-2.6420832E-2,1.0385237E-2,2.5227187E-2,-2.6534995E-2,7.908895E-3,3.400843E-2],"categories":[],"categories_nodes":[],"categories_segments":[],"categories_sizes":[],"default_left":[0,0,0,0,0,0,0,0,0,0,0,0,0,0,0,0,0,0,0,0,0,0,0,0,0,0,0,0,0,0,0],"id":51,"left_children":[1,3,5,7,-1,9,11,-1,13,15,-1,17,19,-1,-1,21,23,-1,-1,-1,25,27,29,-1,-1,-1,-1,-1,-1,-1,-1],"loss_changes":[9.890598E0,9.264078E-1,1.5996947E0,6.189008E-1,0E0,2.4066806E0,1.0042396E0,0E0,1.3698897E0,1.7422732E0,0E0,1.6293097E-1,1.4590337E0,0E0,0E0,8.625169E-1,1.3162776E0,0E0,0E0,0E0,7.565316E-1,1.5342002E0,1.4095428E0,0E0,0E0,0E0,0E0,0E0,0E0,0E0,0E0],"parents":[2147483647,0,0,1,1,2,2,3,3,5,5,6,6,8,8,9,9,11,11,12,12,15,15,16,16,20,20,21,21,22,22],"right_children":[2,4,6,8,-1,10,12,-1,14,16,-1,18,20,-1,-1,22,24,-1,-1,-1,26,28,30,-1,-1,-1,-1,-1,-1,-1,-1],"split_conditions":[5.2E-3,5.6764E-2,9E-4,9.9999E-1,4.9216906E-3,2.804E-3,9.9970293E-1,-3.180555E-2,3.2646015E-2,9.61526E-1,-2.8320763E-2,4.7353473E-1,5.33E-3,1.8047724E-2,-2.6333932E-2,1.88E-3,1.362E-3,5.9202877E-3,3.5581518E-2,3.0555243E-2,1.69E-3,2.8864747E-1,8E-5,-3.0206725E-2,1.3391669E-2,-2.6420832E-2,1.0385237E-2,2.5227187E-2,-2.6534995E-2,7.908895E-3,3.400843E-2],"split_indices":[4,2,9,6,0,14,6,0,1,1,0,1,4,0,0,2,12,0,0,0,2,3,9,0,0,0,0,0,0,0,0],"split_type":[0,0,0,0,0,0,0,0,0,0,0,0,0,0,0,0,0,0,0,0,0,0,0,0,0,0,0,0,0,0,0],"sum_hessian":[7.8447044E1,2.5624092E1,5.282295E1,2.379388E1,1.8302119E0,3.551305E1,1.73099E1,1.8649862E1,5.1440167E0,3.1976595E1,3.5364552E0,1.1098573E1,6.2113276E0,1.9473283E0,3.1966887E0,2.6728312E1,5.248283E0,1.3933122E0,9.70526E0,2.450391E0,3.7609365E0,3.8172462E0,2.2911064E1,3.2871544E0,1.9611284E0,2.3140297E0,1.4469068E0,1.4771129E0,2.3401334E0,1.4012695E1,8.89837E0],"tree_param":{"num_deleted":"0","num_feature":"16","num_nodes":"31","size_leaf_vector":"1"}},{"base_weights":[-7.3241754E-3,1.5747108E-1,-3.2086474E-1,2.1494523E-1,-3.482125E-1,-4.1352153E-1,4.9186375E-2,1.5329269E-1,3.6860626E-2,-2.2808624E-2,-0E0,-5.2035447E-2,-4.7963154E-1,-1.8334737E-2,3.483324E-1,-1.2281962E-2,3.735759E-1,-1.9063158E-2,1.8278837E-2,-2.8227974E-2,-7.102342E-2,3.0869687E-2,-1.6871871E-3,1.6379268E-1,-4.5896998E-1,4.5748827E-1,-1.7337872E-2,1.7226774E-2,-2.060291E-2,3.484473E-2,-3.4894396E-3,-2.8947582E-2,1.6655199E-3,-2.0248187E-3,2.9192237E-2],"categories":[],"categories_nodes":[],"categories_segments":[],"categories_sizes":[],"default_left":[0,0,0,0,0,0,0,0,0,0,0,0,0,0,0,0,0,0,0,0,0,0,0,0,0,0,0,0,0,0,0,0,0,0,0],"id":52,"left_children":[1,3,5,7,9,11,13,15,-1,-1,-1,17,19,-1,21,23,25,-1,-1,-1,27,-1,-1,29,31,33,-1,-1,-1,-1,-1,-1,-1,-1,-1],"loss_changes":[3.6270351E0,1.3875759E0,8.891516E-1,1.1427444E0,1.6207498E-1,3.9355636E-1,8.149824E-1,1.4554919E0,0E0,0E0,0E0,7.4688333E-1,4.6304154E-1,0E0,4.774806E-1,1.9021323E0,1.1933923E0,0E0,0E0,0E0,7.378008E-1,0E0,0E0,2.2243123E0,4.8050892E-1,1.0674047E0,0E0,0E0,0E0,0E0,0E0,0E0,0E0,0E0,0E0],"parents":[2147483647,0,0,1,1,2,2,3,3,4,4,5,5,6,6,7,7,11,11,12,12,14,14,15,15,16,16,20,20,23,23,24,24,25,25],"right_children":[2,4,6,8,10,12,14,16,-1,-1,-1,18,20,-1,22,24,26,-1,-1,-1,28,-1,-1,30,32,34,-1,-1,-1,-1,-1,-1,-1,-1,-1],"split_conditions":[1.02E-2,-7.48357E-2,1E0,2.824E-3,6.4404E-1,9.2E-4,8.338016E-3,5.307171E-1,3.6860626E-2,-2.2808624E-2,-0E0,4.7E-3,9.999965E-1,-1.8334737E-2,2.886499E-1,5.0529903E-1,3.2556212E-1,-1.9063158E-2,1.8278837E-2,-2.8227974E-2,9.99998E-1,3.0869687E-2,-1.6871871E-3,5.1714377E-3,4.9996635E-1,2.703084E-1,-1.7337872E-2,1.7226774E-2,-2.060291E-2,3.484473E-2,-3.4894396E-3,-2.8947582E-2,1.6655199E-3,-2.0248187E-3,2.9192237E-2],"split_indices":[9,8,5,14,4,2,1,1,0,0,0,4,5,0,3,1,3,0,0,0,5,0,0,15,10,3,0,0,0,0,0,0,0,0,0],"split_type":[0,0,0,0,0,0,0,0,0,0,0,0,0,0,0,0,0,0,0,0,0,0,0,0,0,0,0,0,0,0,0,0,0,0,0],"sum_hessian":[6.7902054E1,4.4625797E1,2.3276257E1,4.0765263E1,3.8605373E0,1.8737381E1,4.538875E0,3.7789303E1,2.9759603E0,2.6109977E0,1.2495397E0,3.4071271E0,1.5330254E1,1.664605E0,2.87427E0,2.1853512E1,1.5935788E1,2.087739E0,1.319388E0,1.2173609E1,3.1566448E0,1.4787544E0,1.3955157E0,1.5968519E1,5.884993E0,1.4724262E1,1.2115265E0,1.2860601E0,1.8705847E0,4.39117E0,1.157735E1,4.7535124E0,1.1314806E0,2.9573023E0,1.176696E1],"tree_param":{"num_deleted":"0","num_feature":"16","num_nodes":"35","size_leaf_vector":"1"}},{"base_weights":[-4.9162284E-3,-2.7986843E-2,6.007299E-1,3.903114E-2,3.1807813E-1,-2.3007521E-2,3.6888994E-2],"categories":[],"categories_nodes":[],"categories_segments":[],"categories_sizes":[],"default_left":[0,0,0,0,0,0,0],"id":53,"left_children":[1,-1,3,-1,5,-1,-1],"loss_changes":[1.832813E1,0E0,9.639101E-1,0E0,4.2920375E0,0E0,0E0],"parents":[2147483647,0,0,2,2,4,4],"right_children":[2,-1,4,-1,6,-1,-1],"split_conditions":[1E0,-2.7986843E-2,2.5E-1,3.903114E-2,5.6829028E-2,-2.3007521E-2,3.6888994E-2],"split_indices":[9,0,0,0,1,0,0],"split_type":[0,0,0,0,0,0,0],"sum_hessian":[5.2555485E1,2.7554373E1,2.500111E1,1.3984891E1,1.101622E1,3.7423527E0,7.2738667E0],"tree_param":{"num_deleted":"0","num_feature":"16","num_nodes":"7","size_leaf_vector":"1"}},{"base_weights":[5.112582E-3,1.3847752E-1,-5.4483914E-1,-2.5470719E-2,1.9789797E-1,3.1569847E-3,-3.132711E-2,1.4436433E-1,5.257112E-1,2.0954901E-1,-3.9756402E-1,3.0802263E-2,1.4949105E-3,-3.3056457E-3,3.0943802E-1,8.115893E-3,-3.2245062E-2,1.38083575E-2,-1.46858115E-2,7.921561E-3,3.6783982E-2],"categories":[],"categories_nodes":[],"categories_segments":[],"categories_sizes":[],"default_left":[0,0,0,0,0,0,0,0,0,0,0,0,0,0,0,0,0,0,0,0,0],"id":54,"left_children":[1,3,5,-1,7,-1,-1,9,11,13,15,-1,-1,17,19,-1,-1,-1,-1,-1,-1],"loss_changes":[5.781953E0,2.5338678E0,8.583789E-1,0E0,9.011426E-1,0E0,0E0,1.9290578E0,2.6234722E-1,1.0508122E0,9.627059E-1,0E0,0E0,1.3798171E0,1.9151804E0,0E0,0E0,0E0,0E0,0E0,0E0],"parents":[2147483647,0,0,1,1,2,2,4,4,7,7,8,8,9,9,10,10,13,13,14,14],"right_children":[2,4,6,-1,8,-1,-1,10,12,14,16,-1,-1,18,20,-1,-1,-1,-1,-1,-1],"split_conditions":[9.6157897E-1,8.254017E-3,-1.8072918E-2,-2.5470719E-2,3.1624E-1,3.1569847E-3,-3.132711E-2,3.338818E-1,4.7992545E-1,1.1250755E-1,4.664027E-1,3.0802263E-2,1.4949105E-3,1.1231315E-1,-1.13095686E-1,8.115893E-3,-3.2245062E-2,1.38083575E-2,-1.46858115E-2,7.921561E-3,3.6783982E-2],"split_indices":[1,1,7,0,13,0,0,15,5,11,5,0,0,11,8,0,0,0,0,0,0],"split_type":[0,0,0,0,0,0,0,0,0,0,0,0,0,0,0,0,0,0,0,0,0],"sum_hessian":[7.7358406E1,6.300865E1,1.4349751E1,4.515698E0,5.8492954E1,1.5818624E0,1.2767889E1,5.1782097E1,6.7108574E0,4.6934532E1,4.8475657E0,5.3008842E0,1.4099728E0,1.4979767E1,3.1954765E1,1.4667674E0,3.3807983E0,7.4831557E0,7.4966106E0,2.4781572E1,7.173192E0],"tree_param":{"num_deleted":"0","num_feature":"16","num_nodes":"21","size_leaf_vector":"1"}},{"base_weights":[3.8602695E-2,2.0495082E-1,-2.7657562E-1,-2.1453704E-1,3.1683856E-1,-4.4594243E-1,-0E0,-3.8799575E-1,4.593262E-2,1.3212365E-1,6.1263543E-1,-0E0,-2.7632434E-2,-2.2621566E-2,2.9939654E-1,-0E0,-2.479378E-2,3.5403788E-2,-2.179878E-2,3.3688515E-2,-1.1052119E-3,1.7340901E-1,7.476204E-1,1.6906938E-2,-1.5551905E-2,3.207181E-2,-0E0,-1.8390024E-1,4.4512272E-1,3.3054065E-2,-2.0318156E-2,8.1445974E-1,8.86433E-3,2.9768705E-2,-2.2949612E-2,1.8305248E-3,-2.927675E-2,3.793787E-2,-0E0,4.467722E-2,1.0691452E-2],"categories":[],"categories_nodes":[],"categories_segments":[],"categories_sizes":[],"default_left":[0,0,0,0,0,0,0,0,0,0,0,0,0,0,0,0,0,0,0,0,0,0,0,0,0,0,0,0,0,0,0,0,0,0,0,0,0,0,0,0,0],"id":55,"left_children":[1,3,5,7,9,11,13,15,17,19,21,23,-1,-1,25,-1,-1,-1,-1,-1,27,29,31,-1,-1,-1,33,35,37,-1,-1,39,-1,-1,-1,-1,-1,-1,-1,-1,-1],"loss_changes":[3.6034634E0,2.1973572E0,1.0761545E0,4.9999604E-1,1.8244057E0,7.385633E-1,1.5185673E0,2.936911E-1,1.8123951E0,1.7846988E0,5.754657E-1,4.9055132E-1,0E0,0E0,6.411339E-1,0E0,0E0,0E0,0E0,0E0,1.6824493E0,1.6051908E0,1.303649E-1,0E0,0E0,0E0,1.5403404E0,1.4060521E0,8.2280135E-1,0E0,0E0,9.458971E-2,0E0,0E0,0E0,0E0,0E0,0E0,0E0,0E0,0E0],"parents":[2147483647,0,0,1,1,2,2,3,3,4,4,5,5,6,6,7,7,8,8,9,9,10,10,11,11,14,14,20,20,21,21,22,22,26,26,27,27,28,28,31,31],"right_children":[2,4,6,8,10,12,14,16,18,20,22,24,-1,-1,26,-1,-1,-1,-1,-1,28,30,32,-1,-1,-1,34,36,38,-1,-1,40,-1,-1,-1,-1,-1,-1,-1,-1,-1],"split_conditions":[1.02E-2,7.748879E-1,9.9999547E-1,4.7362888E-1,2.8864747E-1,9.2E-4,2.5E-1,4.6154678E-1,5.4476005E-1,8.9019424E-1,5.001635E-1,2.8810844E-1,-2.7632434E-2,-2.2621566E-2,1.6595017E-2,-0E0,-2.479378E-2,3.5403788E-2,-2.179878E-2,3.3688515E-2,9.6151745E-1,2.5E-1,-7.883188E-1,1.6906938E-2,-1.5551905E-2,3.207181E-2,2.2495233E-1,5.0365037E-1,2.71E-3,3.3054065E-2,-2.0318156E-2,4.9866232E-1,8.86433E-3,2.9768705E-2,-2.2949612E-2,1.8305248E-3,-2.927675E-2,3.793787E-2,-0E0,4.467722E-2,1.0691452E-2],"split_indices":[9,6,5,10,3,2,0,5,10,6,1,3,0,